-2.1845015160975247
-1.381957886012306
-2.945937873387
-3.2849718195493356
-3.2233677654557265
0.03382824362326704
-4.4835545320618655
2.3581813033663686
-5.369339364905835
0.89758874525995
3.0921553728012108
3.538219439275574
1.2846729759654942
4.005130935601059
-0.6917098862288433
-3.219772086061953
-3.4584679914783765
3.231017886921848
-1.1803939772723813
2.5280547980826604
-0.9022674763963953
0.7310922444426182
-1.452437214036163
0.7396352199146082
0.7769429298938668
2.612593817544375
0.6874177867213407
2.581246211072508
0.22923625543609824
3.593782106501043
-3.2174400961444816
0.6867269938013314
-2.2741244131402714
3.3007248413378476
-1.4199403359656082
-4.554011449849924
-0.18875441466096624
2.9345573261492044
2.5916279180604715
2.541539047319294
-4.1928579635215915
0.410315922084944
1.8179431226908913
-0.21495219081472883
0.03677485617051051
-1.4554765856518919
0.8459825582851778
-0.09401925604886346
-0.8684285124484014
-4.41480748472886
-1.2869595797229623
0.11943971938821488
-1.6574953122314895
-1.5760773082895132
-3.796866141716118
0.8003270682650789
1.6881673973172733
-0.6824130646527728
-2.2548719920809472
-1.632794295016863
-2.631103466490209
-1.3859459652744086
2.174897589148394
0.7429866122607813
-5.080139510520569
2.1086370148493483
-4.896821036340783
2.5619506248524173
-4.415400307779539
2.798784568237345
2.964155372160491
-0.4753130187788952
3.212602345912968
-0.47106542712206023
-1.456393181884323
-4.973507945617986
-2.5464424994793
0.6263681122495653
3.7010911416878765
2.6208455523975887
2.9651023340007576
1.4510707633729196
3.592468651391555
2.492005825329152
3.2655574167441688
0.38926398874164336
-0.6818603105022032
1.4293228496438666
1.3650577982666374
1.9746077931336226
3.527699171654572
2.294612475405183
-3.1560538142363246
-4.065965933601001
2.8325855770888766
-2.482065940888063
-5.005661975661668
1.1570494174008803
2.5072571266714427
2.6331603070403156
2.0162842930246874
-3.760049846552491
1.7132492397185677
-1.9346118178581964
-4.805030071100014
-4.49382312777361
-0.6530826589890445
-0.945877661019404
-1.7050243580932365
3.221592269575075
-0.003264135798427908
-0.0017324972627203764
-0.0013273710480985724
-0.0027422173087382367
0.0023045330219069633
0.002316418976792128
0.002021960484614941
0.0026382667667850953
0.004030311114236884
0.0007409711810736782
0.0010405347497433252
0.002556829134076607
0.003192637405749381
-0.001712880689333405
-0.0014603280676130565
0.00403775813407535
-0.00396083777838453
-0.002739480623928909
0.0015057667114018703
-0.002045784062254873
0.003399223656558098
-0.003486085204731866
0.002638180347787363
-0.002048228862839591
-0.0026214607211045406
-0.00155624215049444
-0.0018218738389422263
0.0025914242628703
-0.0033838313298891376
-0.002495098154784582
-0.0004912630890966457
-0.0017714077756212242
-0.0023661861703090687
0.0014866744165610904
0.0010487749618038429
0.0017552609011263036
0.0040973319685526696
0.00035076588905508157
5.733832068966718e-05
0.0017133134110623423
0.00397475638758152
-0.002553530435615752
-0.002141949060275296
0.001100153257476364
-0.003531923374213468
-0.00027435931406065976
-0.0018162231319164735
-0.002772856635085363
9.996253195416555e-05
-0.0020825887342716524
0.0025216638171370953
0.0024560632050767326
-0.002636191787302165
-0.0015821200819686764
0.0029430806837855658
-0.0014710146538200524
-0.003916529879963799
-0.0035258600438162987
-0.003786553492625452
-0.0023229700122656535
0.0037468187493295154
0.00299501487845651
0.0003182375321668023
-0.0011384320562462607
-0.0020068642818046826
-0.00032525392810160876
-0.001539214689492945
0.00290778901136084
-0.002608848426757049
0.0018105012921942108
5.462008953998618e-05
-0.0016707215651310691
-0.0004997281382037957
0.00363522722366137
0.0015921500101368513
-0.0011343975124340523
-0.0035864098706991777
0.00025630872395652967
-0.0003107310584938971
0.0021624534966888094
-0.00168791399475128
0.002890853857398675
-0.002105763761925873
-0.003262786839971824
-0.0012270181847844472
-0.0028302847001748137
-0.0008499159420535646
-0.003024888387647008
0.0028546302454708424
0.00036794948085904514
0.0025707068917758488
-0.0010208093377526582
0.0026387465061351832
0.002585080168814855
0.0037920886663674637
-0.00324584738966999
-0.003876321950357674
-0.0032740488084885186
0.0033122327918527162
-0.0014795644016253192
0.0021145805421597555
-0.0032010586449910112
0.002626604741180735
0.0024906706106948514
0.0029445948755529756
-0.0006083860651113121
0.0016879542598672173
0.0023220644015821993
-0.0013778155855882193
-0.0013011112617012971
-0.00012209230440551885
-0.001337903152452299
-0.002296260159797616
0.002273858803640772
0.001990563923548652
-0.0002507619242983787
0.003142189268731968
-0.0015062438242508416
-0.0007970563231538516
-0.0032994029597799507
0.000594304064855196
0.0003323219697892149
0.00030715882737683163
-0.0034967866260309116
-0.000717047657118239
-0.003491947372036825
0.004047249381468979
0.0033791188855426123
0.001885038850998964
-0.003369995672272463
-0.0038193155594515994
-0.002118075902995715
-0.0018878326378897494
-0.0010078910294869668
0.0031822227210886443
-0.002821935170511257
-0.001411245144186528
-0.0012722147269338333
0.0035295096102537543
-0.0013482058990564548
-0.0037792336488941584
0.0013578005446296705
0.001204187520637456
0.002308945521839217
-0.0016067041895144222
-0.00020082454990029013
0.003233458500809192
-7.461245657551428e-06
0.0015308916196202977
0.002344979149050846
0.0040146263658696335
-0.0028891382779724375
0.0033591842836535944
0.001022712513313738
0.003966190402234392
0.002103382411078782
0.0036137711702681746
0.003976296460886471
0.0016410408361289862
-0.0018943395417954313
-0.001721365933065623
-0.0035874401764869196
-0.0028709501243929137
-0.002277411825125172
0.0037832184289910142
0.001184409771153456
0.003639429289401506
-0.000643430547812037
0.00031541097427595084
0.003777063601512381
-0.000925238630725839
0.0018600392406886309
0.0015328292079599575
-0.0009158500071297285
0.003766409207303616
0.0026328593594411335
0.004049249990589488
0.0022583620988404856
0.0011043794860162088
-0.0011218988059812627
-0.0016053966041378995
-0.00032808995870892875
-0.0020402945287256
0.003798658416329811
0.00225348259166556
-0.0018393854036918883
-0.0006500495711420766
-0.002401339094598148
-0.002707361132326256
-0.002381253649564426
-0.000992306800828474
0.0004389231775950342
0.000710996370842795
-0.00032670629257354705
-0.0020728302122441328
0.0030973077832843936
-0.00174775984423043
0.0012902739392653998
-0.003942234950788719
-0.0015295225467743495
0.0004958110734724451
-0.0036766277647483515
0.0038011988551238268
0.003400992646109882
-0.0038109143506873788
0.001938237218176267
-0.0034621034010765403
-0.0005925056847036324
0.0007517381074303494
0.002465209058626195
0.0032848408852547135
0.001824351706696345
-0.002898316852346533
0.0008660291053281991
0.003746971238617852
-0.004097078744401965
0.0006309574288252273
-0.004162041345589915
-0.00044878920954776716
-0.0007325254007965957
-0.0013470900448706864
-0.0018732008035244722
0.0017314318329353516
0.0009268097977019005
0.003404376364158428
-0.0034600767330539794
0.0033522548686506603
-0.003976155286308389
0.0017033484140238264
-0.003032069449004552
0.0001312713094862654
-0.0002881301807132618
-0.0012393630898161674
-0.0023958333949977585
0.0031067102540220043
-0.003011832952417771
0.00010850646918671027
-0.0007663121125976105
-0.002425717519043466
0.002049582179441224
-0.003191230112345754
-0.0024523415627444186
-0.00014364505432313586
-0.0029382714258548008
0.0004906631309630115
0.003958339646344302
-0.0032086793342229873
-0.0018537249539984642
0.002598259854638144
-0.001448091527710132
0.0017476273404051835
-0.0008925585339656525
0.0026342617211275437
0.003906859138997203
-0.0022398849563850377
0.00396282912634071
0.00045908864930422087
-0.003994694279263945
-0.002897947554377574
-0.0028165452019540843
0.00027597780134601554
0.0005102719448364609
-0.002683826789871304
0.0028891639175617463
0.0005004248198893071
-0.002811972467025703
-0.0016749841430941865
0.0007273501493031288
-0.002939505428171578
0.001741218638264389
-0.002390817514850871
0.0013108681406865004
0.0028145351098322734
-0.00233810084663783
0.001526994744106718
-0.002074313964506667
-0.003971902913040018
0.0022972917573428424
-0.004013270133334224
0.0022525035023595076
0.0013719223164241055
0.00397392677267554
0.001913564196853388
-0.0014732184891485766
0.00042828801055486745
-0.0031759305068122965
-0.0025411382624100183
-0.00044139250742716645
-0.002087714206552943
-4.7523038674573274e-05
-0.000501783037238764
0.0034612282292718856
-0.004035430454810174
0.003460667834099013
-0.0034133214179914583
-0.0006365241042638609
-0.0003755449737780021
-0.004163206425542169
-0.0007747991678226743
0.0018382188189891918
0.00015227513754049546
-0.002464091401674635
0.004131920352194058
0.0015652677419738014
-0.0022409625155047986
-0.002231239443185259
-0.0005461474859371027
-0.00045072758132510014
0.002681243471195147
0.0023483973279007776
0.0032181037221089524
0.0033146360111997336
-0.0017216314983421962
-0.001965544005992139
-0.002987892124297256
-0.001836614663890381
-0.00040601906706357933
0.0021828476924533164
0.0010945922345476599
0.0035427357583209884
-0.002347855992040136
-0.002704794194147276
-0.0031310776699048607
-0.0039527061685580905
-0.0033056421722422076
0.0023081208618602207
-0.0026037128787915107
-0.0007987491545485135
0.003546044850896678
0.0021003518705392096
-0.0009228997390484038
0.003110333347771165
-0.0015286869164664659
-0.0018711190853043188
-0.0014781481197736123
-0.0012456153331441573
-0.0009227647764392884
-0.0038236247504542715
-0.003760631244626038
0.0021329051806338183
-0.001601568837927457
-0.001589952623578743
-0.0032667996587945544
0.0024644362710527458
0.0023735346131628665
0.002855507584663823
0.0011474183915229446
0.002771581220446721
0.000697116509122123
-0.0017441693295114375
0.002418220356709336
0.002430425727644964
-0.0035918235431371937
0.0022578728836996605
-0.001983881212135936
-0.0033653979273933782
0.00021378378248783461
0.0009571984724545086
-0.002049886642406819
0.004056650756003064
-6.30525782544413e-05
0.0007696940984970312
-0.00157739499374033
0.00031371961253195713
0.0024285634503559473
0.00234410216451847
-0.0027470916777947722
-0.003456345322405308
0.0021513443329571422
-0.003523637883066166
0.002587387233759271
-3.454992103182298e-05
0.0036289920987540862
-0.0038525119863785443
0.002521090206021648
0.0011457733852851123
-0.000673452751742007
0.00038268891587774545
0.0009085610506642199
-0.0032454462479518764
-0.0018829061761030388
0.0024156995059631484
0.0027015136316573766
-0.0011194243119566458
0.0006699025750532004
-0.0015693174360817334
0.003278293317885545
-0.00371340835993917
0.0019486580614425908
-0.0026092070503231277
0.0003692301643753649
0.00015031119409109482
0.0033158210808191878
-0.00240427679023986
0.003062076524821244
-0.0036592616168484565
0.004110511585233432
-0.003646412854621791
0.0010540015376748408
0.004000896773981185
-0.00019318832577129162
-0.0035709963260580823
-0.002004530342556374
-0.000332885594061688
-0.0033276692460670453
-0.002700164573811994
0.00034042775768718553
0.0017072754385133446
0.0008893586088954275
-0.00045788489866898475
-0.003242950180511879
0.004146042175090845
0.0020512874260246302
0.001672075132883183
0.0015157386275439747
-0.0012517996358335415
-0.0003369809063761933
-0.002904133729281698
0.0029691091479574203
-0.003688765313889039
0.0038488765228965036
0.0034940526041798365
-0.0019303827685835885
0.0017196414367139845
0.0013185402251411013
-6.573284110181122e-05
-0.0015865577954585468
0.002296607970132685
-0.0015592981697261138
-0.0018964271690531027
0.0019432257619507976
-0.00127591984486715
-0.0009038771994468514
-0.0013403983639580896
-0.00026443095277392867
-0.0006475448085670846
0.0023327486181366564
0.0025692995590255417
0.00013826034749277107
0.0003422188976494914
-0.0022659779395934
-0.0013342607192377792
0.002969835039023133
-0.0028808267736936577
0.0006942546708482544
0.0030165021288802957
-0.003908962752763178
-0.00012122081423583233
0.0027324686441042374
-0.0015384557327783857
0.0003923228773860767
-0.001836575145488479
0.003065208172257502
0.0011698697567153306
0.00300314953968873
-0.003889014760309588
-0.0040585379296930076
0.00014011044559496965
0.0003578444886558553
0.0023331943315738606
-0.0011349479955395506
0.0006417685488831947
-0.0023127077341774365
0.0035398351644126617
9.08115858780349e-05
0.004115582220251703
0.0035608005005704586
-0.0029689503770712463
0.0024772847984622106
-0.0004547282657804006
0.00408603261229357
-0.003712703423428821
-0.003389174442815768
0.00017874691638939807
-0.002028164273742126
0.002546741650765227
-0.002746112374463343
0.003882127271794266
-0.0006346387181244172
-0.00036179094697240616
0.001279109142608698
0.0010520427146972584
-0.000736574711036214
-0.0031569292188820793
2.5217336882694527e-05
-0.00047618159420949275
-0.00330582443565603
-0.0017644720633349584
-0.00033662368421427875
0.002252564799711685
0.0023043509411286647
0.0029923165653621413
0.0011646976339607143
-0.003850832004577773
-0.0031464532492455235
0.0006539634141451504
-0.0008860357749207026
0.0022737392174698276
0.0033357018360680676
0.00218396857668161
-0.0028441378770301283
-0.0006138046916594225
0.004065147492156372
0.003788626122836815
0.0026302938353443923
-0.0010336841964915025
-0.003697037083098645
-0.0027269615414726588
-0.002270160373448545
-0.002614377593828672
0.002300971101428449
0.0010251115903271663
0.0028689392832102066
-0.0027443977653037544
0.000380477645593289
-0.0004328600844547404
-0.002654541259804343
-0.001987844454165636
-0.003154241048312785
-0.0025289318950655624
0.0019611745718091825
-0.002521031953207242
-0.0005564766681456303
0.0009446321792902491
-0.0012834268935534266
0.0037083621211198747
-0.0006052066766355067
-0.0008327476981685899
0.0010136741726311095
0.0031486396103258996
0.0034803871199360317
0.003786338915526651
0.0007837643324345593
-0.002141810397563556
-0.002966747379177696
-0.0005896637085265074
0.0026472806762031565
-0.00270487225933704
0.0013656232879721434
-0.00128162847565034
0.000561393947409008
-0.001155049658523361
-0.00411210736346365
0.004040649580819468
-0.002284223086385834
0.001773185709387188
0.00380354189401323
-0.0009567943661095416
0.0015790897448563176
-0.0035140445363808503
-0.002115756117236631
-0.0008606256899978626
-0.0035590641584693932
-0.004067301165298722
-0.0013794276245364437
-0.002664943589032053
-3.647401443179676e-05
0.0015222047258229318
0.0004005012073963216
0.0031378642371767402
0.003936555539359795
0.0008460112943106312
0.0007873808700628558
-0.0010327228991004829
0.0028698701606172826
0.002475577750337209
0.0023468688878933116
-0.00019504760834025076
-2.2293705263366826e-05
0.00029318161437490853
-0.002158873593707759
0.001165539505014523
-0.0021227395183400994
-0.0007351290948372284
0.001080435293547368
0.0023238591018258366
-0.0009594664905773531
9.614355575654515e-06
0.00020782368476510618
0.001723478517976298
-0.0016986583191285114
0.0029798919916285468
7.884408813894564e-05
0.0005194431221482259
-0.0005679758398865576
-0.0022607038138997043
0.0011133207014980447
0.002800449608705652
0.0007937899710334288
0.002926851508815896
-0.0012172607363431355
-0.0022128884494363138
-0.0024018666607939112
0.0013335193762409332
0.004028346418965558
-0.0008500387675100325
0.0032914882425490286
-0.0004909671615350069
0.004135016779732347
-0.0024410385892433286
0.00300104041640716
-0.000391546911309612
0.002278950225551382
-0.003666382770259156
0.002200081129450425
0.0025632907890550927
-0.0033876790841120227
-0.0018312651830414489
0.003907240795042711
-0.0008183208191624052
-0.0023013945253148754
0.002428541506121954
-0.0003266591103270488
0.0025337584778627026
-0.0025306455854160735
0.002144045488600509
-0.0010659198755832045
0.0004154670924795466
-0.0011362923646544973
-0.0005384494246504245
-0.0015872541137897669
-0.003497105583597263
-0.0012950538683944746
-0.0006258525313281802
0.001879189045255916
-0.00043907496476388555
-0.003958528844514339
-0.0038296662967784324
-0.0030899858653554357
0.003144305933822616
-0.0014468045505189736
1.6709307251436037e-05
-0.0009857413258360036
0.001496225076839017
0.0035974291359582356
0.001113509253742085
-0.004021744275804354
0.0023747080921301057
0.0020848418415736637
0.003995541687041173
0.0004915816250619087
0.0027418012903040563
-0.00409044772558774
0.0029050440654677713
-0.0009923539304076817
-0.0025367988195470845
-0.0019989508721074143
0.0006544755399671761
-0.0015482042289740286
-0.003904731831538477
0.00394638688934029
-0.0016028089816115107
-0.002229039787451526
0.0006721657690361228
-0.0038100032396604076
-0.0010788277966361011
-0.0002839013058065501
-0.002819164524887766
0.001092162153848132
-0.003594757110191789
-0.00026488768856489634
0.0010456692422864515
0.0027160092430587378
0.002027807460082171
-0.0011838402696119946
-0.0020539520593157077
0.00047564487615928407
0.0022934528673255717
-0.003450370849105327
0.0033124892370770434
-0.00046657049701242533
-0.004113674762691007
0.00033795948142700203
0.0002632486001789925
0.0002521357507466375
-0.001415549607659648
0.0004768772295278286
0.0032735811153945782
-0.0027865083500675345
-0.0010844119944082222
0.004000413945328898
0.0003793044859938495
-0.001197209639308964
-0.002922628049938571
-0.00298873827298956
-0.0014589842506240978
0.000561918976072274
0.000867865178922648
0.0018624756120083502
0.0035836243011598498
0.0008956489144731748
0.001293007195981579
-0.0001932664169899755
-0.004117265669824926
-0.0013493051508798898
0.0010778418624198896
-0.004114766869739764
0.00042637359356600713
-0.0036021330650465493
0.0035404050311863104
0.0008587250802555439
-0.0004363527351916702
0.0032593312245300563
-0.0039063627342628285
-0.0016731777618068581
0.002166430705966801
-0.0036117524284766905
-0.0003406853949565349
-0.003090841761945592
0.002337321535216596
0.003826130409877338
0.003267753882913229
0.0006778565847363855
-0.003749872175057394
-0.003329336886602646
-0.0008612068377978152
0.0037587236222507547
-0.001962489595414681
-0.003588441049606926
-0.002275270757836654
0.0010606283105926307
-0.003964333551506569
-0.0006448915452148232
0.003711325069456462
-0.0006532680492079046
0.0008844438024594248
-0.0019292483997337818
-0.0027222312651757224
0.00035308802667899256
-0.002054258435784078
-0.004139816685992446
0.0025237014577469213
0.002392510015222134
0.001374685398277649
0.0027828170755646196
0.001366117406798563
-0.0021870603976666984
-0.00010708297327612783
0.001876052606046964
-0.001098968527280528
-0.004106758948637211
-0.002741397056711374
0.0004731581196072489
-0.0007096797719016028
0.002319878658066206
-0.0020258076402421272
-0.0010790077812154943
0.003457938211123015
-0.00030875852980282733
0.0035545831943373115
-0.001214381956601183
-0.0022369766860491653
-0.00012688047074296523
-0.0016675315816892051
0.0026850149891901303
0.001060789753845993
0.0032437440976777424
-0.0033578660265108588
0.00143877274678249
0.0016483871075911882
-0.00014259108407894367
-0.003177855444744201
-0.002314331397834802
-0.0014164310743432274
-0.00029625782389428436
0.002610052434014533
-0.0015668756982556839
0.002421530058245816
-0.004088712656862381
-0.0015819578545970877
-0.0012699655774291367
0.0038812671379189127
0.003712803399447807
-0.0033996255822058776
-0.0013294226861276968
-0.0011180371598375654
-0.002025226568498042
0.003048773074034929
-0.004038814257084029
-0.0030431793128994763
0.00032320310320177784
0.0004709479266416925
-0.00060654909779989
0.0010730857983212673
0.002334322421093748
0.0024761422724525893
0.0010529696544722468
-0.0019129751037295921
0.0039225545031966675
-0.0025035998875651746
-0.00017075076564746955
-0.0009741482571580709
0.0004017895452509829
-0.002294017379630688
0.0034296359835835053
0.0010482920902593926
-0.002185251573501279
-0.003124155874055134
-0.0019471776818206646
-0.0022309566058730354
0.0010188394998058635
0.001114825404796242
-0.0005115220458105641
-0.0006764089188797509
0.0014616209086118893
-0.0032837084542010437
0.000994918307137366
0.00044540144872772474
-0.000851819442031375
-0.002996070394660884
-0.003430111097864309
-0.0035433663369542445
-0.0006758602839974086
-0.003478121387973793
0.0014431763753832592
0.003261006092064874
0.000741030847392597
-0.0013335273534163053
-0.0005841750699074311
0.0038184464722636987
-0.001146473560952351
0.0005057668796015252
0.0006316375662564114
-0.0022274482302042493
0.00041458140021866097
-0.002767384825774121
0.0019869721943536287
0.003960647694746133
0.0021122572491912186
-0.002529668198586679
-0.001255797648568204
0.001006847540831968
0.00036726955162266805
0.0028651919618422647
-0.0008605874220136226
0.0009392120591033477
0.0003598136491068675
-0.0011082594711047812
0.0038369534854714735
0.003028555868298026
-0.00014366756492122933
-0.0025138685882387024
-1.9378346203838996e-06
-0.0031485824293850423
0.0018635951738677895
0.0009484327552944588
-0.0012297473952566666
-7.648433380206739e-05
-0.0005789744424715128
0.0026800041451663123
-0.0010445023150120485
-0.0030032716169570805
-0.003995261352288507
0.0018707878821018176
0.0025760402908551333
0.0001198027247290639
0.003010062014474015
-0.0016640324831957976
0.0021060510516080827
-0.0039431880513761865
0.0015594029654112979
-0.002764210804253901
-0.0030462846536587766
-0.004072094844100807
-0.002676974312773812
3.572212567120843e-05
-0.003501607886965929
-1.7421480797637067e-05
0.0005203869045395321
9.682886732294765e-05
-0.0001935857974936146
-0.002077523334710533
0.000762040815675572
-0.0020784877430484023
0.00066750217496172
-0.0007451421926790439
-0.0035952473250607875
0.0008486628886965566
0.0005952727521653884
0.0005144381315344616
0.0018067284873729494
-0.002733049658521329
-0.004142874274092105
-0.003986601345297391
-0.0014905866584578496
0.0016464218842783488
0.0018411331326197396
0.003746527219568088
0.0021224509350891703
-0.003799517723351205
0.00020250398346754507
0.0013939345390590455
0.0036023085368254845
0.002329219582350415
-0.0034252438127693754
-0.0026717324018270773
-0.0005322260473416104
0.0022170213363346797
0.0030149972757278452
-0.00280230813901216
0.0011165622260502933
0.003539759039603733
-0.00194038759159804
0.0022139784709438717
-0.003284749368834144
0.0038654425790994027
-0.0005352056976621059
0.0035890025082521812
-0.0005247759470184528
0.0036264210322153032
-0.001144130363866018
-0.004049063417141837
0.0009317997575215833
-0.0010335395425091452
0.004002552324780365
-0.0023712764133461766
-0.0023530966445355645
-0.0009561545656855673
0.0016442801666539143
-0.002209583918498849
0.0030108727593711406
-0.0026755622091287285
-0.0035992464993668378
0.002995274970732367
0.002631411322636014
-0.0025829307984852686
0.0023949969587560155
-0.002246616794318485
0.0016729600650375327
-0.003097306159483598
4.633920083553864e-05
-0.0024202083074997454
-0.0014792471526545682
0.00245382749747654
0.00087550423234817
-0.003873241952434985
0.0007481278799726368
-0.0033186385455705437
0.0026734778720425307
0.0023242096734866105
0.0017078368930839116
0.0032250199679044835
-0.00252388864531413
-0.0031905659562942797
0.0030576396601282633
0.00014136611698989675
0.00014748026679321547
-0.0006951776577997089
-0.0031509938292662567
0.0017791058748316396
0.0019136570326494524
-0.0006187263769066114
0.0037049124422098827
0.0010580806070098888
0.0005587819874169712
-0.0026097885139739823
0.00041883360003962245
0.0010704901156267247
-0.002450742058698123
-0.002303415949039851
0.003559231587981445
-0.0003818054989730105
0.0033448003275934873
0.0016214001217986318
0.0008291021154279452
0.0010492763432352816
-0.0003609513436883835
0.0004249193081234616
-0.0021625119567983426
0.0038627622478900636
-0.0024152480735785214
-0.0014589627241840975
-0.0029319562504989665
-0.0002643469334793705
0.0017787275272449386
-0.001058125696022289
0.0026903255144459077
-0.0030423317244673035
0.003187984925924708
-8.576918155017605e-05
0.002819291792001406
0.002285636249872499
0.0031938063947643982
0.0019041185250592747
-0.0014270190484015806
-0.0021332957782598514
0.0022830426989043345
0.003780025165590796
0.0032763637871152554
-0.0033333654699526706
0.0021923035738681787
-0.002587247036310016
0.0004488890287339885
0.003336431570994697
-0.0034524633653599387
-0.002276618840771906
0.0022405064049422292
0.0005867361514049239
0.0005873705215700596
-0.0017701247021367997
0.0002756602375918953
-0.0007252005020735502
-0.0032790752364662084
-0.0006285164964518218
0.0036518356302606566
-0.0004189229073694588
0.002572237270902827
-0.0026643247775350355
0.003960906032966721
-0.0015935628277473233
0.004088827929742849
-0.0038140180054152457
-0.0003068505037456528
0.0037254333082912122
0.0021515191919265963
0.002541827010789977
0.0019076357042011284
0.0033302155110060835
0.003483894424761641
0.004155328480932853
-8.499182795339366e-05
0.0017208966708274868
0.0028680970519113927
-0.0015743595827767435
-0.003913400396434935
0.003381708957867636
0.002540497873456614
-0.0016213547333105384
-0.0031511161997597303
-0.0035103727440633802
-0.001162643861196581
-0.00033879337628806423
0.0016348425117753086
-0.002455934969773893
-0.003316301148923689
-0.0009500293202074811
0.003743469591926921
0.0039294966070277425
-0.0014275984192911987
-0.002341496902401613
-0.002962567882424395
0.002045401481643808
-0.0011827112746935185
0.0008919792176808712
0.0014571111720215768
-0.003327382026811088
0.0036503842207520295
0.003649516041132282
-0.0011762812344038279
-0.0013214597694019773
0.003985979015946232
-0.0012987821724457233
-0.0040313863678522795
-0.0022270756005070068
0.004139789195819921
0.0012317214680603234
-0.003809032775925077
0.002534259726698983
-0.0016074297368236189
0.002631743092777861
0.002499751079056079
0.0033564943103943155
0.0026464665536550754
0.0017592861394988863
-0.0013449187869020468
-3.698400568060546e-05
-0.0019160107898814251
-0.0005147350085579617
-0.00011066772933737193
0.001652845633401965
0.0010117620150124616
0.00333515086526076
0.00046444067177742025
-0.0005960109253291282
0.002285926988436667
0.0019071649356734739
0.003740408484161556
0.004139346355457665
0.0031724839815098676
-0.0006622208957568809
-0.002395475964897326
-0.003340056121741955
-0.0020616645139734354
0.003957693217047317
-0.00174571420084735
-0.0007734771125052251
0.0020283998334226097
-0.003273678639293544
0.0005483761587360786
-0.004119004496314534
-0.003980766497758894
0.00017329018429370848
-0.0015086697195787768
0.002869591470804077
-0.004149588080432107
0.0015248251378179372
8.866594631530902e-05
0.0005282645361833632
-0.00096827508640387
0.0004441781126761802
0.0014078584152038786
0.0007514145678730038
-0.001534491972848275
-0.0018103508638697475
0.00255208682740093
0.0020395870142070225
0.0015654632082256752
0.0033579131004669556
-0.0037814491716170774
-0.0016993419400509406
0.002144831525455319
-0.0008361102818573417
0.00015332893721519732
0.0008770604374627574
0.0005960970390277161
0.002028196890110929
0.0009125281971597637
0.003236647891511903
-0.0038377025135395296
-0.0010413744984760554
-0.0035602081214245536
-0.0020799580285303762
-0.0026669899592621517
2.03893443402198e-05
-0.0016195758282487346
0.00245196667839149
0.0030878189742383987
0.0022469865565057515
-0.003050319323715512
-0.003933112942996487
0.0026750081911319115
0.0032789999981774434
-0.0022850875782027564
-0.0006707388242386589
0.0036476976952179645
0.003242294350328712
-0.0030592132480504806
0.0006916844434271411
-0.00027891087590506885
0.0037164636240422998
0.0022858719945973585
0.0025692229401236247
0.0007601962985224251
0.0004098345086732498
0.0036433641340768087
0.0026688530285566715
-0.0030835449926389915
0.0017453385067987075
0.0008000053940510725
-0.002659393376620764
-0.0023468362415874286
-0.0017363009615546108
0.002765260767019415
-0.0008221008063614923
-0.00031332720427307184
-0.0016567903125107332
0.0016047788077913404
-0.0018633856558052195
-0.0019465281125064797
-0.0031575227394186386
0.0016856989872041457
0.001696751221650378
-0.0006244445557189704
0.0023262708559005393
-0.0031271914253840523
0.00373609756496329
0.0026109175883243982
-0.0012264217445330822
0.003353379012548462
0.001747001827582496
-0.00386717458732991
-0.00024214611295479444
0.001802076856863753
0.001801215549992603
0.0030793818352026063
-0.0011055128899127723
-0.0009190331524306241
0.0038268295038316187
-0.002503817767242798
0.0009958728485293016
-0.0011867027897626062
0.0022790780297897045
0.0032700026956726195
-0.0034220996506629194
-0.0014393873912616692
-0.0030937720936414664
0.0026392582566733646
0.0025183195443459414
-0.0036495489612453965
-0.001750235940258875
0.002727160211681935
0.001234891868828148
-0.00023004041618583985
-0.0032282942789977186
-0.00104651860122458
-0.0020449616191878803
-0.0032337914405640524
0.0019937279438465754
-0.0017585588499133141
0.0032789141932597346
-0.0009732003735315846
-0.0009280780169915651
0.0008612012626025951
-0.00010086799187023676
0.0008112308431829052
0.0006120035239301928
-0.0033273796777216094
0.0022089155569830436
-0.0030036926757499574
0.002756635841899006
0.0028040594457616336
0.0007745486152473431
0.0030384517129862895
-0.003176652122413314
-0.0012991794307238955
0.0012098081468940333
-0.003655727691799716
0.002862161377394756
0.0003085624162982646
-0.00013098133477468273
0.0015742263591066374
-0.002324664726315656
-0.002947817406744993
-0.0027556176845524973
-0.0008515528767432756
0.0034659009487757286
0.0036786592390451417
0.0027957525201330177
0.0009040110704619678
0.000206906826031319
0.0033863828148248992
-0.0006476197832514107
0.0017533581086009956
0.003942382247117454
0.0021112960185974677
-0.0022821731981199204
-0.001265990027484696
-0.003625217852158425
-0.0011835007174648112
0.0028343422180789257
-0.0008019263959277123
-0.00019076602181410348
-0.003093362649974017
0.001307580195754058
-0.003041573957578496
-0.003350398701214982
-0.0030179275642504165
0.0011725036212437076
0.0009040697803739221
0.003739998103999651
0.0006498125207661003
0.002392967783072303
0.003119122345579631
0.0012053927397048902
-0.0024535815038567747
-0.0018801512182905773
0.0038880386462340774
-0.0015161485065734582
-0.0028073995915652585
-0.0025720015898208957
0.003305277943180591
0.0010664212771554803
0.0013816256707205213
-0.0010790810460273065
0.0011712833891578673
0.003925323800883286
-0.0014473086747470647
-0.0012754433560522142
0.0009862963766466425
-0.0007188245953005975
0.0017121893048075141
0.0019917120900571385
-0.00015238729080205703
-0.0026855133882519545
0.0011113988569844962
0.00215147263204429
-0.003773778678380893
0.00020382173902175837
-0.003424953258897172
0.0021927784926283607
0.003352879976475679
0.004052892694636421
-0.0032626301297810595
0.0013671940248181527
-0.00027550785214326565
0.0038311026562693295
0.0024370658586044913
-0.0017770150890551628
-0.002451875827073542
-0.0038313461659760907
0.0013455300778727453
-0.0025962867255473307
0.0032972447322408612
0.0014076818554239765
-0.0034879805918666376
0.0018905185038104485
-0.0023352999168680245
-0.0012036830698662064
-0.003504616408742084
-4.4986748185538656e-05
0.004415961501196664
-0.003346803576377658
0.0012448661724899657
-0.0032410506011338173
0.004299549748113533
-0.0009816964471384506
0.0007791177457951284
0.002441000518304201
-0.00015246845386129032
-0.003677388607060774
0.00239455144108223
0.004732371001234309
0.0007579881624052326
-0.002804053869806466
-0.004154359990367651
9.971950719257617e-06
0.0018562616493541038
0.0017732921760028025
-0.0022846290076908296
0.0019477449687302925
-0.005785703244357899
-0.001005119164015943
0.003690545183144292
-0.002134412661123948
0.0030609084157452327
-0.0004524155577744816
-0.0014342455489853093
-0.0024388553177601335
0.0029507349958322244
-0.002627380678106835
-0.0037947973934874916
-0.0013871971932788
-0.0016005996172839172
-0.0003483954541418386
0.0021468492579516545
0.0019595266383052173
8.876675740179352e-05
0.002886416592749136
-0.002113145075161571
0.003255175123197291
0.0027384794664019494
-0.0005851461704617408
-0.003018406379820625
-0.0013479349813266374
-0.0007458596522297555
0.003706223876459152
-0.0005599077234359827
0.0010743019965069806
-0.0020574258421517944
-0.00397726960046164
-0.0016467604352041086
0.0036213165058313285
-0.002286716286680535
0.001654128775007303
-2.4715467591998212e-05
0.0005955053385157603
0.0015393291709968413
0.0011481929209045314
-0.0010390117655945982
-0.0012824065015890266
0.001834883124098541
0.002572174584900884
-0.003198472736116568
0.004040604096464234
0.0023919121258237064
0.0004999997197783082
0.001878986615061668
0.0018020680153859822
-0.0031197243041488176
0.0036995400889561453
0.00177755230411906
0.000540223977186043
-0.0005590336727239119
6.918848433885529e-05
-0.0010516758824515259
-0.0033271853741810315
0.002779054561491586
-0.001199642681542965
0.0022335067207308375
-0.0024782897392277656
-0.0023921609816042436
0.0027794326453404314
0.0030846145878219594
0.00014616901993924313
0.0030585066911724902
-0.0020230742989368108
-0.0031221201952679463
5.597627994043439e-05
0.0007218656761645228
-0.0025957733144757918
-0.001985640820729225
-0.0025092913605190142
-0.0009065897609420246
0.0027195501857938485
0.00010873506918541867
0.002215981058219394
-0.0015192320668291535
7.412293979802894e-05
0.000495572845173877
-0.0011707781911097313
-0.0015896019647365163
-0.0003484332833388887
-0.00223437239128417
0.00024975981145530904
-0.001731662097186451
0.0025903105917256747
-0.003944253924161018
0.0011486402738664146
-0.002358358233901771
-0.002320583822547464
0.001469280796634453
-0.00025870931659137994
0.0024853482705257056
-0.0022473740369089363
0.0009798582050233116
0.004007267027698977
0.0007806193661972033
0.0008595502457053431
0.003712198721687595
-0.0007488165013194837
0.004019437278136901
-0.00044944397676874027
-0.003873167428176304
0.00041102059366108476
-0.0019418082811684715
-0.0002879003428712119
-0.0015922308277637218
0.002348403453126571
-9.862662340375727e-05
-0.0027338935829652657
-0.0027632322733270208
-0.0034109735349319415
-0.0004589153433264246
0.0023082622510847534
-0.0032429846933224996
-1.3085576116110905e-05
-0.003200890280830529
-0.001127315433943009
2.60075380888654e-05
0.003941274261357953
-0.00313866116153052
-0.002558087650170178
-0.001566620748927261
-0.0038560263826727527
-0.0014625126792231925
-4.442716058889569e-05
-0.0011350837909884983
0.0011245984701832256
0.003434677925625671
-0.0014862891555064142
-0.003784877431767524
-0.0014700774632904973
0.0007817027838027961
-0.0012994210613900725
-0.002554120338464887
-0.0031244331001770206
-0.002709094004963258
0.0022863053807692223
-0.004039061619833277
0.0012083717308250864
-0.0023902915509244715
-0.0019600812650034704
-0.0016368565499805582
-0.0031413250067643225
-0.0015301332447091756
-0.0006454633038137542
-0.003358822586770468
0.0008244770255502762
0.0024212170700540353
0.004161445869063497
0.003693810549716109
0.001796421292288361
0.00012919396367169227
-0.0006782186944121287
0.0016218793004860747
-0.003296874066752025
-0.0005800046235785196
-0.0017128563112109117
-0.00045255458461573395
0.0024302817549855236
-0.002142170206911988
0.00021444593481511338
0.0025569945198383936
0.0014919582201168102
0.0006485382765755209
0.0031175057867269384
-0.0033864431957425
0.0004094218865301112
0.00224243127974617
0.00398650722077285
-0.0004761126730467916
-0.003352829146092959
0.0002835735167248961
-0.003340896010167983
-0.003899361205311934
0.0018521921661969873
-0.0036020287397685066
-0.0033302533839679187
0.0025535727594051512
0.002499351067683312
-0.0019180549532647432
-0.0005788118249047433
-0.002815186706058988
-0.0001731499267546282
0.00046941501247327485
0.004005382102051377
0.00400802540403139
0.0002707451391970149
-0.001450567323697324
0.0018197471212412805
0.002087538290125233
0.0004452111439450518
0.0022540965264212427
8.734001521037307e-05
-0.003857236496763928
-0.0011547934615966987
0.0036664319826844338
-0.0026830577240102797
-0.0005050388298740298
0.0032606568774890456
0.0017933256855028508
0.0030346516926829012
0.002482796095975336
-0.00293789000920124
0.0038713876185139415
0.0025839769981328867
-0.0036170127599596718
-0.0006206918920964729
0.003417592575962627
-0.0016547161605627164
0.0030289508151264593
-0.0015134034579627846
0.0023110638044926825
0.0034441546970313333
-0.0007808278096459623
0.0037938870077241305
-0.0031999236186656165
-1.9608842401736366e-05
-0.0029356000551582855
-0.0019030765408891489
0.001134668559959449
-0.0005439139378628728
-0.0033392064740326607
0.002626453483794421
-0.001270861622350069
-0.0017049820289512098
-0.003142055656844635
-0.0020864319250383156
0.0031474809042612716
0.000924380668107647
-0.0006796979874955105
0.001727333200948088
0.0034774757181121278
0.002318689269191262
-0.0006079361755943285
0.0019940368122226956
0.0038966585782121846
-0.0026818182430874515
-0.0011452281724119676
0.0033318247978405525
-0.0028610726186171155
-0.0011292805008547094
-0.002876097132637823
-0.0019835568184982566
0.0029298682211287967
-0.0025088730568220284
-0.001562194267092249
-0.004074202850302913
0.0022700707349461247
0.0033145861571141325
-0.0009983082314173346
-0.0007557417238191362
0.004071970301304347
-0.0029454436244134583
0.0036816355455041006
0.001989235546009374
-0.0034562053408136026
-0.003528278872509704
-0.0017889457050581613
-0.003756302840210498
0.0021627532601130755
-0.001542051882629747
-0.0031917145779635026
-0.0019024555605081667
-0.003954192837945039
-0.0034093811553314664
-0.003983262797832894
-0.0018188630455531307
0.003856493174789625
-0.003711576109387469
-0.0034290667538339676
-0.000565714736825897
0.001884877579727895
-0.00213269203256805
-0.0006223378276145586
0.0003540034504304022
0.002057707372925042
-0.0022016139540671706
-0.0034747589284946537
-0.0018077244143424646
0.0026878804255525053
0.0035728389587496284
-0.0005615245943720642
-0.003192759881054074
0.00021999765261592426
0.0010150073933727795
0.00035545780151526415
0.004041782964829103
-0.0023224902271850923
-0.0007233680902988831
-0.001980957291420818
0.0033827736363740814
0.0007251674520008324
-0.0003413656112059526
0.0007538288796657425
0.0005876995349447464
0.0004291325580766254
-0.0017724105264408094
0.003537681277920157
-0.0008369530578192309
0.001234981831832759
-0.0006989549109693931
0.0016105281331994159
-0.00011814156857045552
-0.003063225331633578
-0.0007146620848489387
-3.424371815518089e-05
-0.0007963563346203181
-0.0004723609598691979
0.004006386597151752
-0.0031681168360129797
0.000917975383880431
-0.00039690744003076844
-0.000268383480519301
-0.0016583112233705016
-0.001645812406370137
0.004053524861422835
-0.0031399596248741454
0.003923911502867643
0.0019611619029415907
0.002151611470453694
0.0008004392782959016
-0.002720102027969747
-0.0034486503964380635
-0.0023677832578397075
-0.000844910939828528
0.0025742664874301422
-0.0017010809778104363
-0.0037142160700084537
-0.0013427420025377771
-0.0024795341474825147
0.0017094301395917462
0.002748728270651079
0.003386973620056799
0.0017332519607041637
0.0029675053361997153
-0.0031153762081324228
7.352943402019722e-05
-0.0015253653608303579
-0.003385088710903926
0.0010254128254081022
-0.000522323408716141
-0.0030458705606580664
-0.001940617229166681
0.002846139514353053
-0.0024987555104597076
0.0036538225668343778
-0.002135347171074094
0.0015130564548580011
0.003343648353080404
-0.00036059726821140213
4.5015479675661504e-05
-0.0005363859828934578
0.003497986752334122
-0.00026996244802095974
-0.0012255548898614935
0.0036907504925103776
-0.00281883566164688
-0.0010274465314500157
-0.0023309699504562354
-0.003502547456230927
0.0012621630365349506
0.0026704211419000387
0.0034067959223304917
-0.0001553701812220275
0.0012220540542872008
-0.0032020164154679567
0.002435169202563366
0.0007675406367215237
0.004053883227251164
-0.0017040558598570915
-0.003921381656177605
0.0022704967752175268
0.0005639227396866638
-0.003980535373390492
0.0019854132123537215
-0.0016525236336511553
0.0013268417529214357
-0.0026718993249407116
0.0022377346575182012
-0.0018272437956129582
0.0030536701853925044
0.003560200718559845
-0.00400578635893729
0.00013291130299141472
0.0015313246696304838
-0.003898829034998855
-0.0013754765512465445
-0.0017793595242361932
0.0026632497187662058
-0.0035957582168705225
-0.002606573857576595
0.0008793434476751343
0.0026836781420411715
-0.003503513828437124
0.0008890294571375579
0.0023389483070396047
0.0018925116944926868
-0.00020582951401804282
0.0013414335320387008
-0.0032106525200815503
0.0001907846640669116
0.003930782833740092
0.0007010591949074068
0.0023731191946721663
0.0012655697566933753
0.0026388728555032073
0.0012394310235115335
0.0035127514953145677
-4.0879365353129734e-05
0.0008123618872171786
-0.0007398063718626125
-0.003658508131816872
-0.0005234469909190053
0.0029206196693224917
0.0028714413988917224
0.000655583223282853
-0.002481227343428306
-0.002602153865126576
0.0008527272097142557
0.0016390970839463448
-0.0033000305089904555
0.0037080726832008303
-0.0017453809668331816
-0.003760930284664288
0.0036997090205997557
-0.0012333133567233587
-0.0034581754538006715
8.576620194886584e-05
0.0012851188783105662
9.187996527168031e-05
0.004160331920695889
-0.0011828254206689578
-0.0007523122247075219
0.004055024595636572
0.0015617084681813194
-0.001353804509211017
-0.003180796405024524
-0.0016257383517088355
-0.0012445754115748995
-0.002132110999092966
0.00028015221874384865
1.4201772425942673e-05
-0.0008353192157986272
-0.0039672157696076646
0.00047574079792087536
0.0006439715952256358
0.0032919018386986785
-0.0003223300187022895
0.001898678255043947
0.0022394851577181
0.0006999354170132673
0.003918440587469201
0.0036294275569074973
-0.0026351996223692867
0.003976222343540443
0.0012998048973360326
0.0031722352464388613
0.004089515125791706
0.0005361402684814355
-0.002610171183266908
0.002157548926896826
0.0021831386436909207
0.002320038996271641
0.0011588371665099816
-0.002675561015248693
-0.0006182151501080864
-0.0002525741919434965
-0.003978321692931058
-0.002092767867374088
-0.003246913520092197
0.002328686422987981
-0.0015982341567987736
-0.002231307344909058
-0.000851485243158518
0.0027885489755080563
-0.0035714444285256087
0.0024178233105052217
0.0018281911971126667
-0.0019545809236559547
0.0022335226956312062
-0.0027112304319607734
-0.003497537599763939
-0.0020377284821950065
-0.0036923188013740058
0.0013088347660824844
-0.0019602150819781608
0.001983276484356364
0.0027426425752974334
0.0025597534040927837
0.0011933961062929566
0.0012655271644830641
-0.0013713301738306292
-0.0006264260602788129
-0.0027786873920436577
-0.003276877016255947
-0.00030477250692646925
-0.000583755244041011
0.0008491234230907312
0.00040777705682561145
0.003126693703255716
0.0038759246798747015
-0.00027935927205800126
-0.002090763518549793
0.0018520483284261541
-0.0015235159704500246
-0.002107289650446581
-0.001458298993500572
-0.00407747864626715
-0.003579716290574948
0.0018368666217339238
0.003971188098535899
-0.002204916515316157
0.0019422462703631998
0.0033427590635931492
0.0014973872077687956
0.002971166128589603
0.0026081906381388545
0.0006660797881886023
-0.0010700077556008763
0.003646029782035676
-0.0032102076157859484
0.0020756168326339064
0.002837690779113467
0.003755678264984798
0.003478851548384783
-0.002280637176230284
0.001286461249124262
-0.0019022844789547038
0.0014345407495827127
-0.0028720750885024874
-0.001120206533958621
0.0029798732491302373
0.002974972473432793
0.004045904256183622
0.003895844808249669
-0.00023508886942714461
-0.0010564017473667542
-0.000694058764058261
-0.0009909030329193634
-0.0006771754567319258
0.0013143623255804262
-0.0032666866149283244
-0.004015039617969411
-0.003290654420921469
0.004080101123091015
0.0037591177133980353
0.0026330030386822367
0.0006886934085657193
0.001557498605293639
0.003556164251369217
-0.00020326536130861692
0.002113749390039086
-0.002307787868331993
0.0029035383010804637
-0.0007012543645427409
0.0022871010263205978
0.0006179498515259238
-0.0019726698852037664
-0.0033282489485309563
0.003932405010184324
0.000518545636973964
-0.003856967016873274
-0.0016668721359095258
-0.0005026102346642115
-0.003530069866212583
0.00019812733324526445
-0.0034619933075154207
-0.0008029279636616546
0.003049992243149407
-0.0030974482247518595
-0.0035437201092243208
0.00272841330136639
0.0020145489148158547
0.004119427798388223
0.00029426435222149294
0.004103092973985249
-0.0007154154934685903
-0.002525656677504006
0.0031279262295541106
0.0021633856558606304
-0.0020308899700123757
0.0037525398615003065
0.0004162616467689222
-3.845709249277524e-05
-0.0032350605089979116
0.0034533508005634116
0.0011056116212603867
-0.003061084229456045
-0.0011155133866435007
-0.002418613462322588
0.0029335491932111998
-6.52068538549835e-05
0.0024301162138871467
0.003379372108941218
0.0028317572144732034
0.004026709443638194
-0.0012285194367789693
0.0027591192347369608
-0.004060390671013394
-0.003660569149099943
0.0007700263216551272
-0.0016579832609767435
-0.003753759009222017
0.0016502187119459169
-0.0017836783154375603
0.0029243179083344828
0.0005813371791993809
0.0025455199028261745
0.0016587305312327028
-0.002803213529189491
-0.003758176521586204
-0.0004575947388536479
0.004035401353038379
-0.0022273822772650035
0.0010790704569076431
-0.0014602713512765315
-0.00048410554387067346
-8.33864160175159e-05
0.0006080408996684716
0.001389873987626819
0.0018414879650688644
0.0012600144349796186
-0.00014905729280819308
0.0031910515536117635
0.0006880799011652406
-0.00031328014376717225
-0.0003512269553377889
0.003034788432272635
0.0007612511290860052
0.0002732471381682389
-0.0016303493201277697
0.0024223939450270576
-0.0009284502148970964
0.0004194675857988798
-0.0022603050893487547
0.002139747343040799
0.0037152281791478616
0.003344562636991334
0.001168809577248272
0.003137425139417391
-0.001654585663283164
0.0011588222090691497
-0.003563827821614476
0.0034035755549856263
-0.0037425541032289392
0.0028022901259467715
-0.0017105296014827463
0.001400775153951888
-0.00319204136359886
-0.003472187783265165
0.0040990344125744
-0.003433383096024726
0.001746365159340726
-0.0028281726617021413
-0.0025365176662348766
-0.004161435690463841
0.0025823987861472823
-0.0029444318894233613
3.43347561456667e-05
-0.002420759424714753
0.0019909388066798113
-0.002545626474699304
-0.0007065297673215643
0.0018553337258468425
0.002550183979899569
-0.0019401807357002617
0.0007744682712899824
0.000630654698508642
-0.001018444469402539
0.0007536595006422887
-0.0038130457421467487
-0.0015088356015110938
-0.0030849878669923564
-0.0009421651361840872
0.0005783527070824608
0.0012852666547770886
-0.001250664939236414
-0.0021772252118506196
0.0013399365754826755
-0.004120766054042187
0.0024302151996114705
0.003209992889909713
0.0031058771082811093
0.000752371410318006
-0.003807595893094532
0.00335876425807939
-0.004093570701773072
-0.0011947491979911393
-0.002850722543546474
-0.0037768260630954126
0.002261909490333838
-0.0026768814820203176
0.0018404235017332063
0.00365649503739684
-0.00011389326535655067
0.0028949314964895867
0.001371804281347134
-0.003580814389669776
-0.0020556242011062036
-0.0004090514096858179
-0.0021020019567500317
0.003241886930216284
-0.0004920920185159472
0.0037720078018886206
-0.0009626770086850198
-0.0010297873537534275
0.0030078068364379697
-0.0031189511337574413
0.00031614469206408993
0.0019163885368093693
-0.0012740914452140958
0.0025233814544988764
0.0005553544054126155
0.00025776873355353987
-0.0037404635554859466
0.002354972710520906
-0.0011124655330409289
-0.002121892777596142
-0.0035810317491927037
-0.00019523272103154812
0.0014276258464696635
-0.0012350927897284434
-0.003134801265948277
0.0014869491303016614
-0.0040065148576697625
1.569641751355983e-05
0.001450360285188946
-0.0017827146430542257
-0.0023880382808360253
7.537421085207216e-05
0.002727202943309745
-0.0033823313784816108
0.0031194253440754906
-0.001138236212610375
-0.003004963431638973
-0.002957208582629781
0.00012841681337883289
-0.001200377033380128
0.0003067118090839488
0.0016503000676399682
-0.002666976972202891
0.0019470967708853264
0.003116979958881236
-0.003749566656374374
0.0019292522713692944
-0.0010822101346632967
-0.0017797214409624145
0.0041107749641956836
0.0013363106053711218
-0.0031479595652691185
-0.002676079355922969
0.0014288137685686425
0.0037087596879992026
0.0020583777636793477
0.0020879032810355307
9.365740165698962e-05
-0.0009242181093222822
0.00021120060814179068
-0.0010040919615944607
0.004113935821029793
-0.0020187720481168524
-0.003792870224993462
-0.0017628028902002706
0.0012470572569753947
-0.0025388214590563686
-0.002998319552695727
9.948497529246014e-06
0.002989049782614356
0.0011061438966162842
0.00046212064010871045
-0.001421359205297523
0.0024538111529150293
0.002796377540614735
-0.0012795248432271875
-0.00029943439982118246
0.0006509066351288221
0.003937061017525306
0.00023066027836315156
-0.002251413932693816
0.003916586983521254
-0.0019785366856192744
-0.002109040107497333
0.0015896388293314416
-0.0031514499767365646
-0.0022226686803161737
-0.003956531717239359
-0.0009681619988860802
-0.003467683400713171
0.0003443352836139997
-0.0017933069116424904
-0.001273787668710021
-0.0006862791244198274
0.0037230512187075133
-0.000308154663296095
0.004081541255648945
-0.0014190072790791035
0.001703822302615856
-0.0036127160645883028
-0.0001337034734822934
-0.0015738132622564857
-0.00032366258222815274
-0.004121497399327094
0.003783737687336076
-0.0032712466532217733
-0.0006625971319319074
-0.0016527701111703486
0.00022182544887377323
-0.004157882631972268
7.641961473623713e-06
0.0026151864625943537
0.003228260408611477
0.0023217291375181473
0.004161958272970905
0.0020852648576655678
-0.0013887866669349122
0.0012507841870987271
0.0012680388685567636
-0.00024660466466368275
-0.0022447154549284447
1.9225228536154029e-07
-0.0016607946227899968
-0.0018571248254210789
-0.0007815171088489982
-0.0009046189924594327
0.002629614785341969
-0.0007203089869631572
0.000244283888566743
0.002726494323651243
0.0007643346883420654
-0.002569801063471576
0.002581551058777704
-0.0036866043790255245
0.0034853421813930575
-0.00037841946302135597
0.0029887367676951085
-0.003400309792443191
-0.0011181189834149439
-0.004140194014596245
-0.003942800380126916
-0.003525083253840274
0.0007026353944734702
-0.0027236438001413026
-4.0664041232287606e-05
-0.0018799226838806993
-0.0012833829759134614
-0.0011284202766062973
-0.0013943718578514114
0.002827911724993821
-0.0022318188434739435
-0.003170801662522344
-0.0032989100010721055
0.0005741101031591193
0.0026457315051423673
-0.001829837699314484
0.0011147347793167277
-0.0027026687925990334
0.0010748470837239781
0.0008853798037993538
0.0019482679646557364
-0.00028014692929762854
-0.002184179453133624
-0.0012624942383109457
-0.0015498223482505085
0.00033329619381823546
-0.0007825226877992102
-0.0027153151464643175
0.0032915098095297195
0.0015481922445205487
0.00409302707568887
0.00016833530577973064
-0.00397764143254038
-0.004107507028623989
0.0017619320813457508
0.00011760137850237433
0.0039819484068985295
-9.520009541728022e-05
0.0015752063405372128
0.0038307778175927227
0.0016361071561448405
0.0013083735673505498
0.0019636325693568814
-0.0031731834709544573
0.003973328479714423
0.002469026485580542
0.003986790826320526
0.003388973772447322
0.0035518056923279943
-0.001932659519630337
-0.00013021925609903333
-0.0035843754618486282
-0.002021690737920667
-0.003324783277569529
-0.0008279701157968861
-0.0008555513469716565
0.00027343444800135305
-0.0019969757900660467
-0.0018562764760078172
0.0024764320359396356
0.0008596601549918627
0.000765950967491699
0.0034890608178096863
-0.0004662220036032252
0.00013713943068269558
0.0016260056354515562
-0.001995448609816987
0.0027081648085237283
-0.004153177471473837
0.0013553500147852745
0.001578957959120157
-0.0007926933590424761
0.0029942936681605415
-0.003620744884522524
0.003212246123417807
0.0002956076830697235
0.002737621607558912
-0.002770887557297981
-7.184598419186183e-07
0.0028464113531943666
0.001279987622431631
-0.004066201006588767
-0.003324624157342763
0.0031226905525030707
-0.00048600007623227407
-0.003916233293454182
-0.0015041623950388908
-0.0020281710323106247
-0.002192327396350403
-0.0023363586126155297
-0.001615389005237452
0.0028686258428435945
0.0007196601559078194
-0.0025728883119401215
0.0029839126114220038
0.0029142634840177424
0.0017436593736416704
-0.0037915530420384535
-0.0012731839150369455
-0.0032223672836587227
-0.0012256008352544226
0.0020758154364711122
0.0005064197256034629
-0.00018713977832114144
0.0015448423394378889
0.0018077427331267195
-0.003937293813512543
-0.0025649607669801103
-0.0031115865238404853
0.002663860359082321
0.0023428278320976434
-0.0025758681714913466
-0.0013514999091861102
-0.0026023192709532664
-0.002370737920832034
0.0011394443227501798
-0.00267894371383827
0.001785313300645367
0.0009588714127439288
0.0019323240157114068
-0.0001858176624370481
0.0033420042468236297
0.0004981987293550879
0.00031973220491629447
0.00025263635811669075
0.0031076319074699005
-0.0016312944227664724
0.003204474763455635
0.0030444197454630043
-0.0018369055062012489
0.0034027064206605716
0.0029559339846405674
0.0009260292203361215
-0.0027588612427317306
0.0031128150758338202
-0.0016933586602831824
0.0020130672736446637
0.0031341755661830396
-0.0005818481110257994
-0.0038998383609695556
0.0020698557191592103
0.0016700445585781298
0.0001451184824480303
0.0005144866117681039
-0.002395066081706908
-0.003137918661031423
-0.0013967271148339622
0.0010351514560238359
0.0036201609590951873
0.003932576546703704
-0.00013188719802937867
0.004136532986725339
0.002530731818218653
0.0003323969465907189
-0.00016861904633728482
0.0028958975887547777
0.0016487494886780116
-0.002413038869807139
0.003130523942664008
-0.003893589831918063
9.967638112801605e-05
-0.00017834642294434257
-0.0019518661659862497
-0.0011192362742465896
0.002692828428535588
-0.002492432779956483
0.0009595259621779972
-0.0013786017864657416
-0.0028829867845808817
0.0020079192671394828
-0.0022421688154637145
-0.0007197212475946069
-0.001122595869153028
0.003691695680162882
0.0019865999899624075
0.000994392295983847
-0.0018350710243565601
-0.001484700842692405
-0.0025635393408214124
0.003276606767369099
-0.00023858231487590322
-0.0029865829591778897
-0.0021707014804352893
0.0004515665216148492
0.003858395347034557
0.002630547170769283
-0.0011616485749121697
-0.0033352681083037286
-0.002744331126276281
-0.002384293502256922
-0.001351192917336541
-0.0010019040369714913
0.004041759657973764
0.002598185073075233
0.0031542594007192074
-0.002311855979052632
-0.0004706501266677515
0.0028714348497178273
0.002305253165098208
-0.0009140741663003742
-0.003035860712399121
-9.720729728819899e-05
-0.001624053721694548
-0.0022857512804926932
-0.0004895412194885975
-0.0021350429320942913
-0.004100839469251398
0.002571501089929207
0.0011798989503473724
-0.0033597930005556504
-0.002664671862652483
-0.0029420401494930836
0.0019863430048309787
-0.0026558398083479425
0.0004511975746684344
0.0017938570318721068
0.001390711695732274
-0.002595300763246418
0.0024829847641515967
-0.0022120953383612304
0.00035314868385721057
0.000746381870265231
0.0030357201867805745
-0.003526384620236316
0.0002025189773985055
-0.001555621754492108
-8.580808774477785e-05
-0.0033126866947185427
0.0008477729763049441
0.0036061390612220656
0.0036194906339740754
0.0033652883410756717
-0.0026897163597604146
0.004053132860418215
0.003494725093693123
0.002340283548974402
-0.0002108715002976529
0.003095955031599603
-0.0007441948873930002
0.0013696669218469372
0.003044959176993858
-0.0003023840541268191
0.0023652995943369776
-0.0001455488545977172
0.0018349848586347824
0.000856958447277838
0.0013948929702003415
0.0031861132394960393
0.00035173669118004734
-0.0017100180452201605
-0.00346251280302249
7.165143961304807e-05
-0.0039021531551235162
0.0016762119520324795
0.002665969778670737
0.0029005179575591366
-0.0010994247259676012
0.0022346647660287347
-0.0027690282563120443
-0.0030574782076673458
0.0007212263194501372
0.0037688111238014157
-0.0023082378076163214
-0.0003326934530114171
-0.002350578167188368
0.0022164325228533795
0.0012356979015485932
-0.0015009152384798893
0.0031412638592651313
-0.00034748044455138594
-0.00328207487950573
-0.001760899019745278
0.0038989761721679003
4.886397413754662e-05
0.00012054388791171689
-0.0019020344263660392
-0.002564689743107737
-0.0040947397891878436
0.0018667103921657193
0.0027384584257709042
0.000557227350900344
0.0025679759741551035
0.003976688564247035
-0.0009643947805956717
0.0029800229471113127
0.0020693148490772426
-0.003753429914106865
-0.0031286757048551487
0.00010569607462425946
0.002919210142469232
0.0018272104738407716
-0.0016660953216168734
5.253954157536001e-05
-0.0012569224110630035
-0.004030826758161256
0.0005558787579336424
0.002764040999098684
-5.9127680877668494e-05
-0.0030637961381487716
0.002560268480036423
-0.003995150148098688
-0.00036802035423149097
0.0012306033885391512
0.0008920380906177835
-0.000826012352582233
-0.0038488686849229444
0.0014888135749390936
0.003872373604858059
0.0020337333568286077
0.0024004728094090236
-0.001190342048218801
0.0025503485638890895
0.0005066210687949273
0.0016097222318256828
0.0036615106540079374
-0.001214897822491711
-0.003964712410986872
0.003353603713340846
0.0041363702186660925
0.0038750467898912436
0.001621075075131972
-0.000904673329955608
-0.0013818822264991567
0.0014182222765734085
0.0016481482530858172
-0.00025710399311108215
-0.002876024298394533
-0.0021702520795813763
0.0020262905938238356
0.0028081120327007013
0.0008164128611929561
-0.003801154370627409
0.0012246702677541712
-0.0008073860782497986
-0.0017016361594667034
-0.0038878547394220206
-0.0027573179190011165
-0.00033721899620667474
0.0024254209980697217
0.0022558376223096132
0.0016409319673767585
0.002957290701304289
0.0016072273243960004
-0.003510763047869864
-0.0003642583872467154
0.0014072396369557573
-0.003325467635859129
-0.0038364616000144164
0.0013358109674464008
-0.003664819710775038
0.003986361416683483
0.0017021837868349452
-0.0028856978208096897
-0.0013797764887153207
0.0009625794871873653
0.003842664166314623
0.0018263849661706371
0.0015457213817099114
0.0031050381725689856
-0.00021591534809952735
-0.0030326580670312756
0.003711428984042692
0.001809233373840119
-0.0010816086393561298
0.0038212794507641173
0.00027512906108999286
0.0011403771278603
0.0020623528217427263
-0.004157962138948115
-0.0004983001689727455
0.0031873800567309794
-0.002999444680591719
-0.000695245829102755
-0.00037465431573827925
-0.0005412561010920719
-0.002661892814716887
0.0028340423602367377
0.002666708086201468
0.0008185464776704968
0.0002981875607265964
0.0034746011078809302
-0.003730748132289911
-0.0015713600700344706
0.000868891404675954
0.001788272473001358
-0.002504233639549232
-0.00237057139429
-0.003479215447121183
0.0032602634659164636
-0.0006634661084013008
-0.00014239517334124231
-0.0038484118501307158
0.0010126649793545243
0.0012569708963891695
0.00046866731186076397
0.0009670447554820192
-0.0017026453423340184
0.0031773609686534137
-0.0011694813769174658
-0.0025250236787830046
-0.003728191171943696
0.0024491385660530694
-0.0023628298960899413
0.003771021863485742
0.0027610087136894852
0.003801076776857783
-0.0011874554772471188
0.003869882246471517
-0.0019363857527093275
-0.0032179666602266334
0.0014448605105905454
0.0031812224692653723
-0.0005556819896889319
-0.003287166700504574
-0.001154278820415036
-0.00211114137288918
0.0009847241116233288
-0.0011692322802675608
-0.003383606183319503
0.0005260588588375444
-0.0030943988588507648
-0.00036365046485635304
0.001872487091202421
-0.003971619779758735
0.0012969546906861228
0.001292999191301959
0.002036229439399523
-0.0017205627427163681
-0.0004103865727402067
-0.003353762859147598
-0.0018439020575611537
0.0005391353833315517
0.00013065654175078707
-0.0036288715568619638
0.0013600276322700473
-0.0012975464680303383
7.901442859850158e-06
0.0031737546660917256
-0.00013044582705124731
0.0015293891093204467
0.0003060418146664895
0.00238807776555535
-0.0013058879866972588
-0.004022746823880057
0.0009968684694821339
0.0029646920428892443
-0.0016686868368004178
-0.003880032918124751
-0.000314587615275769
-0.0034597153585545666
-0.0005304964033275066
0.001301865171699218
0.0015180821571123217
-0.000428447839522044
-0.0027469684855407797
-0.001509551954708957
-0.0012326241277000997
-0.0019505389327014863
-0.0029090490442892935
-0.0032718737426646423
-0.003153865609048452
-0.0007579418603258064
0.0032247501600076445
-0.0029646217830776637
-0.0034458684658324875
-5.950727855409114e-05
-0.0008015172030289875
-0.0036643490456470863
-0.0008914301309067512
0.0016102853946913496
0.0008379086116679635
-0.0024588964503560115
0.003461717733433623
-0.0007555621612455375
-0.0028752772333668123
-0.001949716622728755
-0.0018223114884131026
0.0019148486957778863
0.0012819035337974182
-0.0012602129697173775
0.0025540575067713525
0.00287382191591001
0.0007121616082903136
4.943236244834038e-05
-0.0018324557935407307
0.0002011007000953707
0.0019170345532983678
0.003484061027391218
0.00300720085298832
-0.002794944305889383
-0.0006544901870148477
-0.002904543350141592
-0.0019935035061596613
-0.003036082107830748
-0.0021548529476719935
-6.573539744846366e-05
-0.00163540129886602
0.0017320435616945385
0.003390622673376452
0.003776087475560913
8.246957607295861e-05
0.0016581468771676364
-0.002014434880548452
-0.0007515895149554457
-0.002968270053773194
-0.0005314224504464912
0.0015623904244550077
-0.0029296159165662066
-0.0019233960508339217
0.0030636567266742933
0.0036601779258804753
0.0025945957880329287
0.0004540762658920646
0.0014709587803480486
-0.0025302825202298046
-0.0020710010569135358
0.002068968651713152
0.0008463577184074162
0.003216530492978231
-0.0019068921604484485
0.00155687132987819
0.0011025431654166516
0.0022412470616799828
0.002940703213797385
0.003632983887897613
-0.0020241488499351933
-0.002480730369072905
0.0025747299771142237
0.0007238412625525255
-0.0007061388547350947
0.0022236090468652023
-0.003196382538006293
-0.0023296129598286974
-0.002600052005972659
-0.0022659453155855908
0.0031527187313044164
-0.003547453158483244
0.0006854068955011553
-0.000858687445608713
9.9237256865045e-05
0.0001249524262328663
-0.0027673248452307446
0.0008762552066164951
-0.00013301843691818042
-0.0011007530741508735
0.0015293055736965663
-0.001705341864085289
0.0007955323181511667
-0.0012874702696779596
-0.0016623029912879888
0.002865135424982336
0.003970416232048545
-0.0005113782635504667
-0.0024789169910690825
-0.0011449036003609346
-0.0036612563795884595
-0.0001606079540199472
-0.0017862073875559606
-0.00202062429311924
0.0008300696947224977
0.0002780879735056035
-0.0025109179859997
-0.0003419152964896405
0.001979762301095932
-3.150782305892235e-05
0.00039598924005261534
-0.003483615473155236
0.0037379119482605873
-0.00043776416030230273
0.003581912758783286
-0.0029404957043933345
0.001666770792776872
-0.003453198488181281
0.0016007986187709458
0.0025104963666431313
-0.002998594541727593
0.003518358844306129
-0.0024421491594225045
0.003394005095623288
-0.004160091508636855
0.001605103796901522
0.003406247131826646
0.0019206201369943192
-0.0016703220322525647
0.0022788659177908985
-0.0012334338868609824
0.0020830588429931094
0.0001100961182082078
-0.0009679744728554231
-0.0028250586684873133
0.0017643692434877159
0.001750790239500031
0.0008085137367623501
0.0033827407403336646
-0.0010233920336651307
-0.00038623701876043325
0.002433405740625974
-0.001190842916872509
-0.0023599361026818933
-0.0012844160485356235
-0.0035675540015855556
-0.0011423446795573743
0.0024941359437634044
0.002493020095273033
-0.0014181070716422905
0.003414894543924081
-0.002639263102487825
0.0035462020996755122
1.8900692931370654e-05
-0.003566311897598996
-0.0011542734822124
-0.0030155594452437352
0.0005036104115637775
-0.00408378488178996
-0.0013573528609331419
0.0008645557355102046
-0.003345347188302308
-0.00043277606360672547
-0.004112744561505619
-0.0036236866338187493
-0.0005095156603311904
-7.992679673548624e-06
0.0026950735003383845
-0.003080632663960425
-0.00068175596674969
-0.0026775125096229163
-0.0008673249447973951
-0.001101831901316573
0.003898548995044
0.0017751017133192403
-0.004040805026993062
-0.0028176343932454794
0.001763057936018018
0.002066073353046724
-0.0005587690170197927
-0.0016437667032582412
0.0018324896436701554
-0.0014987397934264803
-0.00395161099844238
-3.2682705417341094e-05
-0.0011927573923710118
-0.0013255911153691984
0.004081663083552039
0.004111215380693318
0.000936646188072699
0.0007297726646586439
-0.0013585725730576664
-0.0014066378965570227
-0.0009498477629720695
-0.00033169950745541983
0.002230717279207104
0.0013658696019041123
3.7674299247660504e-05
-0.0011881718201602217
0.0016870974295128966
0.0010550232065211663
-0.0038325850006750094
-0.0009193986131343726
-0.003617675520694066
0.0014653639576369436
0.002499293006391159
0.0023168474558770895
-0.003913041187127508
0.0020695359729558903
-0.003581115532438354
-0.0027542407066990515
-0.00152144510659143
-0.00017503325937930176
0.0008205912211957807
0.00181751733235296
-0.0029228573095480986
-0.0007446154495494682
0.0016171360385091366
-0.0026759801471000107
-0.0038690029748536755
0.002782275113426312
0.0028295979327749806
0.00040747565725247843
-0.0023208018858911043
-0.0005730856365209726
-0.0027938705075757106
0.0032561167814364384
-0.003006799496652542
0.000609790669001436
-0.0013231294537740894
-0.0006237162793969738
0.0016188410339575212
0.00406242778534812
-0.0012441829431026493
0.0016867832233841988
0.0035090721767699205
0.0023209521004114546
0.0037480042048668298
0.0021122809460801945
-0.002016890380983155
0.0023933276523841595
0.0028102913791074203
-0.00044770565955945453
0.0020934944157927618
0.002691182159740597
0.00084078444389734
-0.001368371788067015
0.003088656458271757
0.0028753832678868147
-0.0038098131387434395
-0.0007492338761089459
-0.0038683236922239877
0.0006663668447128221
-0.0007828151837924589
-0.0024479756400612486
-0.0004261480031852448
-0.002819514984855217
0.0021021031630373346
0.003032129239977784
-0.001994261934394946
0.002232081754883774
-0.0007126508108612191
0.003039199987369982
0.001208356075972131
-0.0007936508287331601
0.002789061211704267
0.0031601917700721997
-0.0013666272712543914
0.0024381432880829093
-0.0011120914511141271
0.0008514797858754374
4.424137987942086e-05
0.004081395961540669
-0.0019267656272628463
-0.004127060372118308
-0.0013044442002300679
-0.0017233237738345046
-0.001433634086181273
0.00029133409017754563
0.0025985994985632537
0.003670263556742447
-0.0029572495074817458
0.003986754242111551
0.0013355723156134227
-0.001461571432233929
0.0027615392792679117
-0.0033405432411254357
-0.004124299772534017
-0.0017566920746131067
0.0012019254113057143
-0.003302652372364224
0.0016208440463168858
-0.0038338631168259567
-0.0009261272699514133
0.0015384555196557793
0.00027694952389176024
0.0030104321846559433
0.0018459477428081198
-0.003976420647050077
-0.004111303967388176
-0.0033194483101729537
0.0031261158949210965
-0.003257249181058697
-0.0008236876266481149
-0.002078723270882095
0.0036877245028362742
0.0037732527204690685
-0.003947854985671484
0.0026558832467276704
-0.003278697877499381
0.0034265473107656166
-0.003324846257862597
-0.0017377137945781011
0.0029210219406798337
-0.0040404057931657435
0.003426139440815611
-0.0018899261622095393
0.0005608850304897981
-0.0031974772339579006
-0.00333894710894591
0.003663433926044835
0.001674255589317452
0.0008125577920974408
-0.001426623858731476
-0.004090789209051376
0.003913735209788217
-0.0034716548854123097
-0.0006943204219266861
0.0005831611017263636
0.003068358775584203
0.004006827579898556
-0.0002073404280054228
-0.0032987970905931805
0.0021819619269727846
-0.0036420006969193437
0.0036076164419961624
-0.002165690757186137
0.002796395845686103
-0.0035420519570487563
-0.00017586256537810964
0.0015002158731881124
-0.0032643107121532824
0.002079560475969155
0.003393346428147964
-0.0019429648066881522
-0.003961852114081044
-0.004050412035528497
0.003968745351666401
0.0014014183842337023
0.0017472761424807883
0.0003398322456853205
-0.003296326797129135
-0.0005868029620110997
-0.0036818848137717326
-0.00022189093187778547
0.0015969071224756018
-0.0035687927766194388
0.0034056551399796174
0.003086781495447001
0.002417505547241564
0.00046556381366299516
-0.0035136544721074705
0.00015122666269403947
-0.0017804849032667105
0.0034503714827572806
0.0014750970512009166
-0.00393354084403655
0.0023141935078392012
0.002078004595525749
-4.913089152032214e-07
0.003564206427397459
-0.003932310697548715
0.0009845904539988698
0.0035783277833341897
-0.0018177490477716799
0.003916781401587548
0.003213988540550898
-0.0012888734180033954
0.0002637278762247672
0.0031323394985233385
-0.0007609574673342593
0.003406008511246725
0.0025364167958066
-0.00013561639346674342
0.003987913212465323
-0.003826655830027734
0.0028760916617814065
0.002289636904853109
-0.0010124096491004092
0.0012350656238629555
-0.0006932060589815682
0.00043792124857080155
0.0007871643305382395
-0.00018234945823163257
0.0023731972025519857
0.003036189044391381
-0.0014688314738706292
-0.0020114288962995086
0.0006957760030846094
0.003773273628384071
0.0005691813779800339
0.003245994882760784
-0.00039711100924722203
0.002114169595424673
-0.003073342744853511
0.0010006551180075612
0.004105996255064905
0.001214958847542796
-0.0018137045704525526
-0.0016333393034613545
0.0003550443532938252
-0.003643154719004805
0.0005895745574631512
0.0016762145502751944
-0.0034170539823010944
0.0023422760835044363
0.003144518578286419
-0.0010279189567432509
-0.0018535715606117237
0.0027339960353945252
-0.0034183396380278006
0.0018140872226348904
-0.0023541027783368085
-0.0010585257627924005
-0.001091184069195232
-0.001027844164867949
-0.002190157763148071
-0.003935033681337721
0.003862544784876494
-0.0013639668035426134
-0.0026868483192342154
-0.003957371665728492
-0.0008981606091103592
0.002484509992352405
-0.003972237495172318
-0.001664228437726494
-0.0004662989589758707
0.0012296920600377778
-0.0005543811853132403
-0.003448851734070207
-0.0027323687765778326
0.0018277475624140463
0.003963297097076542
-0.0023663285974515605
-2.8086438820168714e-05
-0.003633914773267883
0.002759847977274761
0.003782665980268154
0.003372558705640999
7.270962398273603e-05
0.002978810859430253
-0.002493745674626881
-0.0026970807519201816
0.0018131844119519999
0.0041052535962872805
7.217778530316547e-05
-0.0016629056713293876
-0.003670531965864615
0.00017158272070175558
-0.0029367479511286025
0.0009033491787336667
0.00073145372979821
-0.0005417097874543384
0.00412868421013629
0.003476595066256037
-6.414081030469313e-05
0.001755674323259925
0.0021509989002068256
0.00226493191792796
6.591562155441778e-05
-0.0021658364404828698
-0.003042025616120816
-0.0024003845635450203
0.0014741097503383914
-0.003945187947967115
0.0006940395438758482
-0.0032211559609410852
-0.002103975134192302
-0.0035358615730341986
0.0031123613301040935
0.0027817277856256786
-0.00038416996476860367
1.552068731208925e-05
0.0007879199154616451
-0.00302285417085528
0.0033812375636035562
-0.00014418230612735802
0.0008255200239955942
-0.0007560796237499478
-0.0018616058067378032
-0.0013735626653451297
-0.002044395757257384
-0.000697488818524951
-0.0026733943600206274
-0.0025525877988274385
-0.0026666908069917744
-0.0011918091230018737
-0.0031965741551155877
0.0013762313212708807
-0.0029755165788480317
-0.0016460609148412871
0.0030738896530296145
0.0004026308894615353
-0.0035032266276820117
-0.003805331434939046
-0.003371862676283939
0.0005540604842343374
-0.0025290084009941907
0.0005245461999102034
-0.0007997146759146952
-0.004087335318508311
0.0018099882753875233
-0.000467103978869997
0.0030394646171063955
0.0007784001497114104
-0.0008278798918817996
0.000957576420753759
-0.0033138121610943308
-0.0022074816989834864
-0.0038480056213091806
0.0035578042627644247
0.000596777751388751
-0.002376124337224576
-0.0015649032622470987
2.980761244176721e-06
0.0022339168737978234
0.0026731044768963145
0.003957684865565547
0.002974729528216933
0.0028077508357911506
0.002436090489807963
0.0012205741119602823
0.002802689633693849
0.0009992983008921441
0.0013666727007222107
0.0007790086616251685
0.003463541120245527
-0.0029203304810586465
0.00230083938189002
-0.0038771837579125476
0.001481362464026772
0.002182216782765658
0.002969386585955198
0.003863062744310513
0.0009768393266852738
-0.0025155593728449664
0.0025964225045963145
-0.003424506841806944
-0.002743528165621634
0.0004589463701825649
0.002340376303819394
0.001157672542686279
0.0013483594035331144
0.0019810835602115493
0.002339582769528641
-0.0020494064741829253
0.0001224415563664603
0.003580391133967471
0.0033091453463142727
0.0016189267859395354
-0.0008613490959216953
0.0022992867147402164
0.00351731255418115
-0.0024968836820043554
-0.00041857042548752753
0.003055696973757208
0.0037645128603477156
0.004033337838592595
0.0025864353665347385
-0.0006738069510509966
-0.0002796702828050548
0.0027850110816879186
-0.0008738709771416386
0.0008546369050609766
0.0011851969262777773
-0.002681445749125178
-9.521597961274496e-05
0.004120477835725609
0.0018275954420109428
0.0036383234013945315
0.0018025216210878219
0.0006424770209384831
-0.003968728820138863
-0.003074836536132296
0.0032288066146157254
0.0031295912227918806
0.002222856183436659
0.004142853418067221
-0.0013023717039858627
-0.000921946268570359
0.0008012089903715084
0.0026477597460352314
0.0009621461534787571
-0.004089843770124342
-3.282165290694219e-05
0.0015602783046042778
-0.0006994808681020243
-0.0013690200458478597
0.0008657581884436056
0.003618028530075049
-0.0011813513077679365
0.003589360988630959
0.0011059089769834668
-0.003495060950035532
0.0033071209178227854
-0.0005967902639152706
-0.004132939881259778
-0.003851245188439453
0.002476209053902724
0.0016985383903886696
-0.001919724756198556
-0.0011951767753009147
0.000993225011875735
0.003082491676904902
-0.00024389202986921778
0.0009312372443785139
-0.00034558148862252105
-0.002796129463899729
-0.004060969719823873
-0.004145540122830019
0.00344987340896831
0.003389891674357595
-0.0030377221707650268
0.00234474916246144
0.0011260188414581695
-0.0024481401524077575
0.00275023919506493
0.00023879864448685418
-0.0037656091980177962
0.00020200412819962917
-0.000955076391125147
-0.0024186302587385464
-0.002375083018593058
-0.0020423941434725354
1.7992609763467735e-05
0.0002604384352867547
-0.0018478466475627885
-0.003305283162438195
0.0024091122768446363
-0.0024272230871537734
0.0008762276853242706
0.0031401149267702797
0.00109632196007916
-0.0009239601194745902
0.0023797687099181325
0.0022007901026775242
0.0010784420546262705
-0.0035571170437839576
0.0011466007833261826
0.0017052113612471634
-0.0019968294770230394
-0.002359402034361056
0.0021903418110469563
-0.0016956254537807258
0.0016851031625302632
0.0021750893101418786
0.00038045724080036923
-0.0014772184971704866
0.0013685906573179273
-0.002424421318885122
-0.0005300297656481238
0.0015129681085458892
0.001191337888207616
0.003428221255202085
-0.000283199735387895
0.00014148694736176032
-0.0013319245539654154
0.002145093916546575
0.0008954583099939231
0.002032423404062831
0.0017867322884436603
0.002415431908552995
0.003586650595129849
6.584112032279718e-06
-0.0032929805035072594
-0.0016404359783177634
3.930991553256923e-06
-0.003464114469184167
0.0033260452711586464
0.0013557612494030547
-0.0012126022517342596
0.0026479927889866647
-0.0026743984351658328
0.004077875459165341
-0.00180619104357568
0.0038833315726473274
0.0010869903255415854
0.004160370333746205
0.001479771019082081
-0.0005107269120654778
0.0020858264177315597
-0.001721353053293993
0.00343168612649595
-0.0031223482030982414
-0.003789768616985995
-0.0024551068445290533
0.00247162939766707
-0.00040736249831106074
0.0006069363981883524
0.0039969187160907044
0.0032106353094696672
-0.0009112810142483754
-0.004138210862208836
-0.001435267148543846
0.0014385365274339871
-0.0037022301377806176
0.0014704392175226319
-0.0028540269686870372
0.0009589095935226214
-0.002919626968636522
-0.0019107113766861855
-0.0020290957235504035
-0.003940133124616143
-0.0008149193810050915
0.003317213595539396
-0.002388939423518114
-0.0005747911665555512
0.0013089918602607823
-0.0022283936982955095
0.0035274698233424316
0.0007068053901991649
-0.003166841023478879
0.003259469817298663
-0.0020143627714355123
0.002317960164037752
-0.0011302652971839696
-0.0005057508445035746
-0.0016497024200242422
-0.0037270672835624324
-0.0004927661467449658
-0.0041244798065309405
0.0034563547381808732
-0.002581897071680039
-0.002551136115158989
0.003753774351998195
-0.002840907088740845
0.0024909039472367886
-0.0015422586339347347
0.002533541632001813
-0.0004648216275519271
0.001351178682593086
-0.0023174311992136608
0.003646557523291497
-0.0035625874917498937
0.0008893202713905581
0.0011440785022229243
-0.00011240660676327186
-0.00333511971784873
0.0029556624143801885
0.0023594270127071534
-0.0003927609475960897
0.004020282805619194
-0.00037693079900977933
-0.003251852611841035
0.001054966321441039
-0.0012649598061860036
-0.0020009842880222765
-0.0010969562010790703
0.0025970644933709336
0.002788937058828337
-0.002229560442470117
0.0014364973175534637
0.001400057960401214
0.0013183469678050763
0.0029034344499173632
0.0036056256887701935
-0.0013251641559302101
0.004158195241002736
0.0023106949154101915
0.0027479175497213547
-0.00081754761357931
-0.002338052253437407
-0.0005811794718607919
0.003924923199697283
0.0021886818848733205
-0.0014462971921058718
0.001431529845498287
0.003251517472975683
0.002322285178972865
0.00020039553964077607
0.0019629208709465037
-0.000864308771130405
-0.0012870249336343446
0.0018751480572258058
-0.0018097474843530136
-0.003929950217994663
-0.0041135530942059155
-0.0011472770559263071
0.0024851635180110658
-0.0004680429076799759
0.0011506764565400503
0.0023490589819386786
0.00012645244278280593
-0.0018829847814197259
-0.00290701064022899
-0.0012374847514196093
-0.0034694641673992297
0.0004936713447786478
0.0023146521355718493
0.0022900186096699937
-0.002731539371715526
0.003617660296063106
0.001019759992566478
-0.004138022091233951
0.0017648794416662962
4.2936826866760734e-05
-0.0012972898692409417
-0.00046816165114114895
0.000631169866401068
-0.0018985585733589949
0.0009381466087273384
-0.0023531679669199414
-0.003826153181836286
-0.00012576133203645544
-0.0006232002861472606
0.0017168211552420199
-0.003809718389347272
-0.0034829521783940076
0.003106552278939826
-0.0013657027139543222
0.0023816825418660112
0.003727508451918428
-0.0015803857974607883
0.0030184631033056
0.0034779095152029415
0.001433948788879236
-0.0011422978504520987
-0.00382145587985927
-0.0032126822088782486
-0.003307158349325507
-0.0016948686935659928
0.003477873792978268
0.00219610383458975
-0.0036775455046078624
-0.002221002240364648
-0.0013230074971363093
-0.0006819484381098009
0.0018683328393012974
-0.0018035812912130008
0.0025302884938407963
-0.00032549068156714203
-0.002463821529017655
0.0035078009863464574
0.0023831390234871686
0.00043449545822700763
-0.000638580854859563
0.00019030514479845072
0.002621194489668816
-0.0009851528922000027
-0.0009187953096383441
0.00035147822608531276
-0.0007193175932984987
0.002717985586819048
-0.0022324196484278147
-0.0007916306109134166
0.001808375289419052
-0.0031223532259048005
-0.0004181131155682083
-0.0011187990465745736
0.000254204402778477
-0.0012973939698584054
0.0028878769715216766
-0.0019405933341724324
-0.0026222294265739136
0.0032437403858043517
-0.003558396179853238
-0.000622521615677834
-0.0022574554912419597
0.002595522482611909
0.002416341889172349
0.0034205201694713
0.0013124592511608699
-0.002839091853194977
-0.0027510859249631927
-0.0030448441471707453
0.0027634211067549303
0.00127362020107324
-0.004117196468477876
-0.002248815120586803
0.00023404653716087493
-0.003277910386345172
-0.0007773686755819093
0.0011228230233955986
0.0007030906758936148
-0.0024993441798402973
0.0029789978411086772
-0.0037470487988181143
0.001453548291457075
0.0025310701220638983
0.001041819176535163
0.0018639394758431056
-0.0037065084856286006
0.0024093214458840635
-0.0017135076964745618
0.003932379618846132
-0.0032652320295525478
-0.002452924607084204
-0.0020324955823122475
0.0031508398620824036
0.0008095360695292176
0.003806022354987733
-0.002147784258788048
-0.0024995168105662047
0.0023346256892825875
0.0026289185797776864
-0.0020157229690860533
-0.003946119162745014
0.0022706025603067763
0.0036706466986745206
-6.227827261446155e-05
0.0008121091268726836
0.0011918430057200413
0.0009849650784582932
0.0010733400429933373
-0.0041088952481002465
-0.0003763728385547081
0.0024783858442966695
-0.0017401757110064669
-0.0017840459941292715
0.002742054593806967
-0.003259410532214363
0.0003639041573333755
0.0011773449842820368
-0.0006032470029336874
0.0010583879811126567
0.0031305517469138243
0.0021405116890036396
-0.0006666198296286127
0.0035546004170991467
0.0017366134959084256
0.0003174830792955827
-0.0011541950005367894
0.002127004989696227
0.0011775480713717612
-0.0009442243740751506
0.0035047209974796148
-0.0004007412376696593
0.0028060462630295855
0.0018716917854656949
0.0029534336358263006
-0.0023450207265875316
0.003701592318759509
0.002943682527238455
0.000997972646763585
-0.0004773544967153922
-0.0025659521496958697
-0.00030942707797704656
0.0034144188805911493
-0.0020494168187105803
0.000791058416388503
-0.004130713735176236
0.0029931524347984457
0.0039690244827726385
-0.0015507042282414884
-3.7265369614853918e-06
0.0022460603018036283
0.0038480122515390947
0.00015269785432061076
0.0006383637066701323
-0.0036832375574765313
0.0038272840353825006
0.0028555391460344318
-0.003358415833507988
0.0011560369031989638
-0.00030543619166132426
-0.003287229709536949
0.0021443926192593367
-0.0009427559909295436
0.003007958867598974
-0.0030460114557235973
0.0030838755093909663
-0.00142384679063277
-0.001957191712136794
-0.0025762166387234883
-0.0011578286944059098
-1.4054982649252859e-05
-0.004115687753867336
0.0019323232303902439
-0.0023895243794376177
0.006970339069811638
0.0034747766041587475
-0.001973092200346336
0.0027858716526994462
0.0040104145838235185
0.0008188405786799172
0.0013988140299929217
-0.0014622636009245904
0.0021298986360465616
-0.0049850361738363125
-0.0007491147678352783
-0.002045736458308158
0.0035285345489501838
-0.00022469168175747982
-0.003215869552617085
0.002134410214059344
-0.0013077830161830918
-0.002122051382689192
0.0009062924872915656
-0.003245850782239723
-0.003193274389761103
0.001663431284286273
-0.0028988693705704997
-0.0053962413724648
-0.004357986745585397
-0.002248384347897818
0.00034255752604233725
0.0008601168920208993
-0.0022152324665976266
0.0050725691973018214
0.0038217062418412647
-0.0017305561218399562
-0.0013350114392178321
-0.001961883513234783
-0.00011847643024393817
-0.0011055071201500702
0.004397120348848189
0.0006807562387221342
-0.003301221270833196
-0.0015627431499208933
0.0006841532068920246
-0.004043556008393567
-0.002689640183861626
0.0005057537086956627
-0.00019588537720507322
-0.0018685959099169686
-0.003189955804427903
-0.003222610232311162
-0.0024699871820302683
-0.0038096263856004595
0.0029677473845008523
0.0017056632901827026
0.0008210269506818704
0.0020982588765590393
0.0007134857373669963
0.0014508474259994637
-0.0010094274053246528
-4.313306135261991e-05
0.000932199649689986
-0.002838556526284853
0.001328539042767633
-0.005752214376346158
-0.0009585557792662765
-0.001625182955332245
0.004252964435830058
0.0005108771330196501
0.00028886736768556266
0.0008944431469699629
0.0031982833036159446
0.0012675070962575132
0.0008556755890587901
-0.0016522188128465726
0.0038227874724649277
-0.0011964547805586282
-0.0035787845751999742
0.003007086782721677
-0.001116638597948402
-0.006017347749848588
-0.0009706838704349049
-0.0017708827887100522
-0.0019726305901643934
0.0002123500306996315
0.003939137642737387
0.000518577673025401
0.008671847605802056
0.001955376374334192
0.0011158225546295023
-0.00025697006185144137
0.0014895189559770241
0.001909185511545253
-0.003475674453282601
0.005093528739329548
0.00024190959304103293
-0.0020187041761753387
0.0021492731447621503
0.0021667993287002372
-0.003412501517891694
0.00017698325959294704
-0.0015457328946506023
-0.003910940733630168
0.007688702483688827
-0.0005758606962152112
-0.004112134245349011
-0.004379238374316692
0.005695988341920743
-0.0029661341441071746
-0.0032794906295837167
-0.00014536790242058737
-0.004771348087081826
-0.005793475660165502
0.004432050467416672
0.0016496653141187386
0.0036969625094828997
0.002009416542083511
0.0014112540830815113
-0.0015392071021831293
-0.0035556484682029393
-0.0037667827845341392
-0.000471952497774142
-0.0010918494134188532
-0.0012903604586465961
-0.00046076129338719926
-0.0005673380923546429
-0.0012767380657190547
-0.00542220996969219
0.0005722768953753012
-0.0014357011448653564
-0.004560495582963683
0.002103259776146155
0.006007577101973687
0.005565099607813091
-0.003508605926954617
0.0025835830517618053
-0.006970538024376899
-0.000873896229107795
0.002077924247393708
-0.002407986009181471
0.0021405874834495623
-0.004030582548440427
0.003986267902513628
-0.0035845233722804474
-0.0040051782129651116
0.001564569357223207
-0.001016847072742347
0.001258064014802594
-0.004777810039527415
-0.0001324872188357009
0.0034321926028925546
-0.001850132089723203
0.0007830190339246996
0.001869007131017205
0.002318571480315031
-0.00046386498179573973
-0.003986218871059298
0.0015158498704466495
-0.005565842614536842
0.0016090379285617722
0.003608471441092181
-0.0027987651375932523
-0.0030326186784733595
-0.001032064101910818
-0.003687527705618545
0.001429433065375867
0.0015236052030985373
0.0027168310825574893
-0.0035566763850448033
-0.003462828680863745
0.0009744321851313647
0.0020914822079995993
-0.004163422355507618
0.0022225452738975993
-0.0025331497023866447
-0.0032101563707113215
0.003374704481980307
-0.006168596831478097
0.0003321369407794599
0.002244774693619808
-0.0006582312521115754
-0.004330839092714222
-0.004234400824332163
0.00347336875263891
0.00023952631380891787
0.0002088559111357006
-0.003674094618209219
0.005785308483519186
-0.002126905914698881
-0.002199477609398181
0.0004260069431142005
0.0024367048869762724
-0.0031116524296186192
-0.00271832661955863
0.001924473180598747
-0.0026283720737159274
0.0007412645696546582
0.0023148063494109646
0.00012746170546174075
-0.0027194772588045096
0.004434425968246477
-0.0027934323982861295
-0.0005725414791034589
0.006816070013992542
0.0003917970929595415
-0.007906339510522492
-0.0028622453082870493
0.011087794275754072
-0.007291922118463225
0.0024838381802037507
-0.0027838941454795354
-0.004940808486873294
-0.004244899603170994
0.0014429171386557181
-9.795408529269784e-05
0.0034276494557088427
0.006686578030003784
0.0041783180554841705
0.003306876736071022
-0.0034956517795260342
0.0013560336424524293
-8.4537043549285e-06
-0.002124707895615268
0.00016738032359650545
-0.0003351172322729783
0.001335724882100075
-0.002394275437597377
-0.007312286706835391
0.00280024371766466
-0.0026250054891340576
-0.010599594345273107
0.0029148272506272954
-0.00022455286614354923
0.0011542952999753233
-0.0007591632356902733
-0.0031529683793383155
-0.004470688421091494
-0.0029191366558187237
-2.0407283142368007e-05
0.0006831604769613137
0.0011780555308116894
-0.0034562493484857322
0.005594640461563501
-0.002204907063202487
0.0014742882302317055
0.0002685279971851919
-0.0034665171219341933
-0.004321144437812997
0.001990911517778185
0.002101837339431848
0.0020793626782447884
0.0014312307177285725
0.0008369579197699288
-0.004295142154203827
0.005071424602698138
0.0019490122639737463
-0.004286238884631794
0.0007639036212494589
-0.0025354327470842966
0.0035919104197478517
0.00104844006536223
0.001649814128443327
0.002181029359980766
-0.002232831185800154
-0.004466030941195589
-0.001686804112240195
0.0013030428836638649
0.0009954330710900696
0.0027199116896795415
-0.0005040137113559504
-0.003102895771649079
0.0034294871658618557
-7.09905935119742e-05
-0.0023332472381564474
-0.0007596376619393858
-0.002589346601465936
0.0018063047387743582
-0.0082867125795437
0.0013658409389523585
-0.0010926846585258257
-0.003022149100003012
-0.002839757894198455
0.0022056287142589604
-0.00020152724154097676
-0.002814505178103583
-0.0017525214414178967
-0.0018599968984765584
0.011099138515257156
0.0006768054494944565
0.004416085999497888
0.0017900563597690817
-0.0011177274592037213
0.003317647205205108
-0.0032003762144573256
0.004665347258993332
-0.0034973036742111294
-0.0027454407322595868
-0.0007636733653396816
-0.002149484124881154
-0.006842199008064087
-0.0015412878950655474
-0.004865211413060879
-0.0010567857517353437
0.0037288228117380857
-0.001213408491922264
-0.00944128215664238
-0.0010905863697175605
0.011673141922218154
-0.008830223225575968
0.0005117346837920176
0.0001918328665814993
-0.005094812908833379
-0.002907583724632161
0.0012475871655611447
-0.0065023263573654915
0.001712315607540206
0.001790809978105317
0.0027435857039519217
-0.001805754835000719
0.002261197650095257
-0.0001222071634916403
0.0019871344681373607
-0.002497252369367487
0.0034700015516017646
-0.002549024780594416
-0.0005897113804109264
-0.009343602264458607
-0.002915966819873573
-0.0035568478830893943
0.003582341247918613
-0.007825894992892364
-0.00497867576186341
0.006603059523238366
0.00030285450328939895
0.004299647289369192
0.004316863368529031
-0.006629453414281133
0.0014282515518842162
0.003162404773033833
0.0015518507603081047
0.00268921652411708
-0.004671806368864456
0.006350809482189579
0.0028412728946883327
0.0005948024998270113
0.002443136823415599
0.001650709201191268
0.0019159339515759505
-0.006634694404685993
-0.0037480289115409326
-0.0012203253202474054
-0.0020028025692384655
-0.0008064303281196314
0.00022896856712235555
0.004249999957073587
0.0059042553446023325
-0.0013305831723794347
-0.0029229884830027615
-0.0021614551783674316
0.0015481307172406883
-0.004082916949664376
-0.003454723209444286
-0.003214218020430297
0.0016297140512060773
-0.0017824403825201166
0.0023497716954758085
0.001154649727843897
0.0004879777573274041
0.003979461217112464
-0.001277631625254764
0.005180398118409515
0.00987140815086248
-0.0040876095521125005
-0.0019911759699627394
0.00031484573498566387
-0.003686889162816234
0.0005659455703796617
-0.001999817565856552
-0.002156065814074539
-0.0033836918404024385
-0.006840582855162365
0.0036522256144574847
-0.0027819325800443277
0.005280188133367305
0.0037646500482319345
-0.0004030729891840504
0.0022871271957203283
0.007888626927400366
-0.006248427554155183
0.0008637600161280527
0.002512088614853939
-0.0021276021246493383
-0.0012730733763608858
-0.0021879838868487855
0.001026780808320795
-0.003577030239906015
-0.0007282891444217042
1.2821336422583852e-05
0.0012307348878435906
-0.0024875866889038736
-0.0005018549226404525
-0.0058911929625177105
-0.0030881945183877284
0.00262704720655169
0.0018791888086089961
-0.003750591562490245
-0.004936100535111553
0.017060550093436315
-0.006914942137797228
-0.002159737528973858
0.001736269540789422
-0.005362896482024873
-0.007672667201205661
-0.001985635075065881
-0.006159390708298356
0.00400406751900611
0.0027111815141822857
0.0014046504664948496
-0.0006982874982410243
0.00010356645134242474
0.0033660338489383836
0.0024853630988522345
0.0023637625048217514
0.0015487103922116505
-0.0023700415201053275
-0.003331773217731521
-0.009102856920634584
-0.00360143021469572
-0.0031811330280550006
0.0002633189407897806
-0.013173833557373796
-0.0051262288832227216
0.002044473633275172
0.01013196121071935
0.0037396513689233516
0.006325789871017218
-0.006888141437403864
0.0011231947658830075
0.0028042189666769193
0.0032008350885052326
0.0028270212779141295
-0.004130985663893815
0.01163910386797869
-0.003460664196656664
-0.003712754045797443
0.003786967768931203
0.0014001658940669159
-0.005565470013846301
-0.0011448578923522411
-0.004841197009086722
-0.0015738509353877776
-0.00015738609599089844
0.001206314878236206
-0.0050802181997495
0.008326325087237876
0.0002672693760838709
0.001762646223762557
-0.004758673564117139
-0.013122513248129767
0.0054606610599884
-0.0045904749222738465
-0.001996300216198097
-0.006126743504069077
-0.00107673015298746
-0.005497717943883057
0.0030279308145783946
0.0034308342385137936
-0.0022182758472887973
-0.0031968470279053977
0.0007073798962922346
-0.004268635385409451
0.007695297114916179
-0.006183722395555703
-0.0018659185971690196
0.003166694729554858
-0.0037731335526201806
-0.002900862425161451
-0.0035332033748810554
0.0010939090914349645
-0.0023028420358408006
-0.0014270457863097196
0.001911769594503665
0.0008355846792071773
0.008952754209232347
-0.003039259439673561
0.002320972631220324
0.004349727834863063
0.01137186522712202
0.001057543645687426
-0.0051191214175168335
0.0008302619101827444
-0.0028856295294292815
-0.0033224571888655257
-0.000401996375779054
-0.001503811085372107
-0.0040109253615438455
0.002256569157445005
0.001248030348220082
0.0037640057797554455
-0.0025739984389771798
0.004463289843613869
-0.010418593154601589
0.0009839643067424883
-0.0031012837216114588
0.0012712037139668102
-0.012918666981919817
-0.0011994281275659509
0.018172784491068437
-0.00900925924490241
-0.0005764028869829081
0.010151195988132288
-0.0008408437611043639
0.0008782901231737569
-0.0008590837876755373
0.0025682530990082746
0.007574186453499018
0.0011742952582663323
-0.0005354045245462948
0.004793224795063171
-0.0033169154514764393
0.0010872729295639083
0.009826311831917267
-0.0021838279513690805
0.0026993092185639087
-0.0018735520339049395
0.0010340845714231972
-0.0071557172402264176
0.00013836395025393044
0.002633526724558677
0.003521512306465442
-0.010569808458946249
-0.005896832480744013
0.004230945473673043
0.003516043229300105
-0.001553639413487791
-0.00027183716478375693
-0.01177883527785386
-0.002892047991845752
0.0003474413353262641
0.001372036347692116
7.640771840387829e-05
-0.007229289796954771
0.005025016863186724
0.0035984583012459025
0.0009252674375222927
0.0031030451491317187
-0.004343181501585128
-0.0037412699875841796
-0.0031213405566351323
-0.00907032455888247
0.002350462423486388
0.001383378468403015
0.004530429280206044
-0.006668559597914789
0.007541628872471425
0.00424179274830306
0.001498347564393972
-0.0055480510239142074
-0.013076401644502201
0.000380246804018786
0.0031849549898827607
0.0004969149222153154
-0.005052003207061495
-0.0011567391527937962
-0.005468437300702658
0.004333551548087523
0.0009803718643391082
0.0032482086884343645
0.0040806106340989644
0.0028430450713826092
0.0035565229287244974
0.0006675022362133028
-0.011084154425436818
0.002321140467604284
-0.002908908775505633
-0.0034413560678852877
-3.0006878916189876e-05
-0.006130149127026186
0.00018467317354352232
0.001957291846902851
-0.0006963630399023053
0.0002039626196573909
0.0038276325014950222
0.0028894330309163258
6.279169575440521e-05
0.0010268521611515096
0.0014741069953464875
0.004659802701820068
-0.0045559695956786765
-0.004989934091100382
0.0008041840551382889
-0.0015676076124207978
0.004216699209677029
-0.002745382517285654
0.006319257237116617
-0.004901975181252981
0.0038861348136604405
-0.0023276763525252346
-0.0029173459868048522
-0.008326770323063287
0.0009410278865484061
-0.01020973181694586
-0.0034633729625129684
-0.00033321409757580163
0.003899043289493795
-0.009499600845019556
-0.0005512904269236691
0.013560509795549567
-0.0066949666513244546
0.003294705965185278
0.004562341507622806
0.0008272809815223673
-0.004567772776797185
-0.0044649698938738335
-0.0008694200708670471
0.0016020775302402746
-0.00030357660921379335
-0.005734981031546159
-0.003125622489948623
0.0015471981714873652
0.00334562356971957
0.008517825037973928
-0.0017165458210636627
0.00245568443405427
-0.0053072909195721425
0.0002539233881259772
-0.003878017179444319
0.0016522141855850282
0.0013277835973072194
-0.0025763075724485854
-0.00875681912477861
-0.004510621023100493
0.007844346710709438
0.006866420628161987
-0.0022199898003430097
0.00012933996439634004
-0.002466800832642686
-0.0030607080866723673
-0.0004494573313751498
-0.0006589898204437046
-0.0012730748538895885
-0.00211020739047854
-0.0005474366616248817
-2.321656214403901e-05
-0.0018107756802751662
-0.0025225731424294703
-0.0010811169130686402
-0.0013610812888736955
0.0006572097151782084
-0.0035859608729106453
-0.003109236966667342
-0.0030753880870024674
-0.0015339740502452047
-0.0019834403698534915
0.008211983783592381
0.002703239366625183
-0.006972604547701588
0.00047817300708609986
-0.004222520713577849
0.006658299221279064
-0.0012838428450599147
-0.0012985896458633382
-0.003698947457669958
-0.003672604989827882
-0.005040168304488671
-0.0027373443385550226
-0.0016082494245618006
-0.001524799020699083
4.5761738834448494e-05
0.0003018575456673908
0.0008135667359771941
0.003621014575777645
-0.004577371572377268
-0.0015829689016123411
0.0007461350218247117
-0.004149784599449816
-0.0016846590351092719
-0.0044015704363891016
0.0003708758358197726
-0.0025443412465677726
-0.0035378871079884606
0.008474369394384056
-0.0007826276490167505
0.0017633811304749937
0.003143946275078839
-0.0005707904560073666
0.0041346044410917274
0.00015505002738802875
-0.00039160075609092547
-0.0003769886777354327
0.001731419966523735
0.0010255611835393076
-0.0014546844773386286
0.004119884869482948
0.003476793048124265
-0.0002493947721634757
-0.0004703794834218347
0.0037606489595178147
-0.003518497939903936
-0.00012277752963149387
-0.004797337159788404
-0.0037352540826539075
0.0025258195433493346
0.003944528620137591
0.0016024890373572995
-0.006473203533733616
0.007969471633110368
0.00399113726433803
9.886886966768603e-05
0.0005857038380181933
0.006383267405323813
0.0001570947472327324
-0.002093001637368578
-0.0029974019401899296
0.0008669840891195017
0.0023342850446996907
0.0027136668557278935
0.0007367911692088907
0.001328565422726707
-0.00043659902233831156
0.007285106503741488
0.009642160571126221
-0.004923221542620012
-0.0004997380640054614
-0.011419577079440487
-0.0038858614480396956
-0.0015525768208875417
0.0011994492539770855
0.0032800108337940367
-0.0014804720514828293
-0.013772992258445044
0.00047301198981463104
0.003151394682637148
-0.001643360809070395
-0.0017249529115852063
-0.0009880387490261969
0.0023446028337470513
0.00596317054495352
-0.0014934927847133485
-0.0010862860819561798
-0.0017701746573559776
0.0007625459411064806
0.009382871285727418
0.003239961648624666
-0.00048490610904233913
0.0022674025181953555
-0.004949188388661552
-0.013391820451797666
-0.0010755153127446132
0.0001259164435496469
0.0027869335128472275
-0.0001896936785766154
0.0015973164801812354
-0.01723924932790758
0.006177369686191207
0.002973776262841483
-0.004679715122748932
0.0010942535064483196
-0.0019141302346891455
0.004894279395995099
0.001867100904960261
0.0021322134716753936
-0.0018787264072989346
-0.0049911241693126615
-0.006154410946502481
-0.003554131434472867
0.0014663345195527503
0.0064440376885981894
0.0029452653449713153
-0.000215807953857237
0.002488294117074765
0.003664297124487199
-0.007477468543427544
0.006368853692304748
-0.001640089182918065
0.001181396967054839
-0.0018728081131789503
-0.008155266901247425
-0.0029400296473134978
0.006961582064117934
-0.0014414400163929879
0.0022574092862096174
-0.0015076473020860838
0.001963567614745118
-0.0034816924516242595
0.0014861183324699355
0.0012697885440313662
0.005147060091246862
-0.0031010902257204
0.0007617331223742526
0.004640984276262868
0.0005774067407919037
-0.0019182213241723636
8.03561470076997e-05
0.00033233159747567413
-0.0012125742571217613
0.0028678076366154648
0.005256700414407082
-0.001622056831607196
-0.002971431893964743
2.113281075167203e-05
-0.003341710663263347
0.003038773122815354
0.00491330691681136
0.0032058040703710398
-0.0023139681369565
0.001583162727851296
0.007243939110709303
0.0031070948516767217
-0.005396835508962112
-0.0012122145847224233
-0.0008719924039771411
0.0009820865701374356
-0.00068726018019303
0.005373258726507968
0.0018432074502162472
0.0017744141209120826
-0.002622806387985797
-0.004957771535947095
-0.0027183705569643534
-0.002990160761115246
0.004157048775122497
-0.00198216226894772
0.0018140504702451466
-0.0029012009293158127
0.0031292237930692184
