-1.4629088164496706
-3.4345050282809906
-0.9139388454992284
-3.0760090005068204
3.514474198746758
-0.8602959775813959
-3.306182342255472
0.48352100435580053
-1.7475550630786567
2.2312724336258367
-1.6629639537304148
2.3548155616002457
-3.2362503996728242
0.658461191961043
2.825548183136821
-2.124571519566744
2.313757136069915
-1.0499456736758155
3.103730517657854
-4.015229117311291
-4.6419336443101376
-1.3034832714910203
2.240751257103039
0.3194016966815642
-2.1210326546479505
2.566165380164763
4.268162200166092
-4.187610278958642
1.3171896913071202
-3.843921550116519
2.3846336480317065
0.727951290170349
1.998761559420791
1.2215655926824824
-3.3257144860334926
-5.238740866958932
-3.881564582265789
3.223802449877913
4.007242921321729
-2.4802875437363805
1.5033027768218774
2.824852554868895
2.189255119385078
0.1196668956215992
-3.765177746077139
2.66744693476452
3.8292611743894875
1.4993184511553161
-2.324625720539015
0.36856827258553065
0.9219058222722067
-3.2361268630160103
0.13084521105172497
-4.212827283226742
-3.741656063602915
-3.42590169406337
2.206866911143917
1.9984687911292363
-0.26358216826605274
0.7016028302499556
1.5832400562817168
-4.322792351279225
2.2044958424542984
1.359547914040223
2.5450291139679595
2.8317048512355067
-2.503765742186673
-1.5659585018780828
-3.72592062427438
3.130091136797337
0.4234233597407244
3.0729896318336323
4.133044151451893
4.097239737711639
3.1877315560464834
3.129851850339714
3.95514096440889
4.7112568003971065
-4.505954764707879
1.3926211600246337
-3.8083270569957035
2.9747491355022384
-0.011875990915710195
0.11405358894121047
-2.614065812495561
-3.366379857744775
-3.8358128210225586
-2.039492168851579
-5.159072489781178
-1.8722352716771937
2.9257645424503416
-0.9037307233424089
-2.2710006765775854
-3.1967413856650415
-0.5111435474684479
-2.0924180035524804
-5.2506806953828615
1.344384053991656
-3.7105490813501767
2.6335655916170335
-4.788112272690283
0.2545558391120199
0.36563488803542327
-4.386275581869544
-3.8488016508975598
-4.488373745827002
-2.6920218226592882
-0.15165725691794985
0.7354438117689654
0.0861218635598906
-0.0012050363871021147
0.0008079316180714557
-0.0037584895549119418
-0.0024225012504471293
0.002828550598301073
-0.0030377603720955107
-0.002922208617118333
-0.0008588273545933059
-0.0004199226161979179
-0.00015022211437846526
-0.0018149673444373105
-0.0028258491090203896
0.0037563313594026924
0.0005875045839223819
0.002565028201308069
-0.002284979486145223
-0.0033219111270784475
-0.00050214485231851
0.0015329465445832952
-0.00026518163123489115
-0.0018625694363236676
0.0003485227069315952
-0.0002783271366370666
-0.0003777180538591172
-0.0033693208952492856
-0.0031115917892345748
0.0011585720564941326
0.0040285104742502666
0.0024787397160564474
0.003961690188887544
-0.002565927181224237
0.002859814697462506
-0.001753724457524936
-0.0004431485241049983
-0.0037375228196155044
-0.002774754108358764
-0.0035486514981700463
0.00279414016490952
-0.0038341856131107886
0.001448361005496993
0.0030439629845314103
-0.0012835513299833876
-0.0006971180604842806
0.0006274168218516188
0.001772791651394448
0.0010380455032688797
0.00046967998496931664
-0.002450457008704461
0.002094001719844804
-0.0016169536313052797
-0.0033770189227581267
0.0028782489335217303
6.444709862142797e-05
0.001947669323823004
0.003295610574914254
-0.0026543420628947663
-0.0027069786762149704
0.002405038060019474
0.003114120296257505
-0.0040339443111691445
7.141299141961894e-05
0.0034359767914855332
-0.0019958676433155962
0.0020350646655769547
0.0009477755187562798
0.002805100681989283
-0.001578029707791705
0.004067539628718605
0.004105296061357097
0.003639498898507629
-0.002870037094162708
0.0034410356829967393
-0.0010827820767989132
0.0022636586754272775
-0.0010944477125849898
-0.002401528370980877
-0.00190924225092802
-0.0019917703740089374
0.0008986161603194477
-0.002645125485640036
-0.0033192557791885176
-0.004007993426549651
-0.0010586250341837408
0.002986264152365297
-0.0019279643006140422
0.003923867315775801
0.003931543540623027
0.0032049579678276327
0.0015931224246967547
-0.002235112572362015
0.003473107680444604
0.0034484719840300387
-0.000889544971444719
-0.000718553301470802
-0.0038884833810861916
0.0018629115323205473
0.003563033357416494
-0.00013413375273303236
0.00039230618181512544
0.0008883076351476771
0.00024492261475073926
-0.00027596590446270864
0.0035378835135719917
-0.003997242572631023
-0.0027795418962313963
0.0019980549545639626
0.0023671689779430735
0.002762224393383971
0.003288793108064737
-0.0007405612802952373
0.001197597617878342
-0.001812223783553198
-0.0012357787585336912
0.0030390081000696567
0.0018041963121562376
-0.0019426466218013159
-0.000694285483724056
-0.0019011019508474742
0.00019386672360860902
-0.00017146867809288247
-0.0029390008370743606
0.0016533079942188684
-0.0038867436026058053
-0.003585003270558965
0.0012568898794889205
-0.0027912481142212202
0.003198393420925904
-0.0011584361643115254
0.00016838435019634297
-0.0010356132624395596
-0.0016942894742725072
0.0037879845623275256
-0.0015751416331309174
-0.003377009829294489
-0.0032414553066349426
-0.0028549259971579074
0.003474840536884533
0.0011890252260963027
0.0024446677006928724
0.002392129631243882
-0.0022407673385970257
0.0035246068384264424
-0.0039259459882292755
-0.0010311877254548223
-0.000442423896158167
0.0010379421420526136
0.002389338538438564
-0.0010295342546045017
-0.002864576308026467
0.002660978523866317
0.002475112714947625
0.0022524440898786208
-0.0006528763190616041
-0.0016823516266474897
-0.0009012980526772084
0.0029437214552940683
0.00038488381588394486
-3.5677587419229264e-05
-0.002928213101331153
-0.0006428974636146362
0.003230543043275923
0.001363021765031311
0.00016498242782605593
-0.001807771941408605
-0.003761271053499513
0.0008369813204987955
0.0009325543220999922
-0.0031616430594564593
0.0029314436273307157
-0.001310944297460081
0.0023228501968318507
0.003484753654642503
0.0013718342733412766
0.0034076746593864698
0.002758601558388728
0.0017014887797582616
0.001022276406335742
-0.0037721243127283436
-0.0036887258392179446
0.002915939622136457
-0.004029045416154575
-0.0006868993573134022
0.0038994168665109023
0.0008550874456734537
-0.003908074525407397
-0.003369276044076873
0.003455938253295082
-0.0036785731514030534
0.002015914727952141
-0.0028854518309258544
0.0020651392403913944
0.0014667613729347246
0.002690590964885849
-0.0006714114159912144
-8.128920877961682e-05
0.00012218099342971224
0.0004688453281564064
0.003819243131030332
0.004025941465048811
0.0012308239991148972
0.0012368799313837292
0.0025167868783036096
-0.002898227573886273
-0.0019224092161712497
-0.002512386422035032
0.002513098493949994
-0.0004895314903727067
-0.0008359752035736856
-0.0031615944659439507
-0.0005520272605921503
-0.0004166671368935142
0.0013407016557953199
0.0029651319596558355
0.0014578223787658656
0.0016140773897882444
-0.0012531808904126425
-0.002423852177623928
0.00016105973982707465
0.001336806580874491
0.001957673899077886
-0.002028062284715567
0.0009669960654448953
-0.00222878596005436
-0.0021877077174911543
-0.00037618984540508293
-0.0028468455598944812
-0.0016001431931747599
-0.0005068852838675624
0.0018974416132821331
0.0019357642375955977
0.0010312140579393492
-0.003720070562124241
-0.000288755826253965
0.0006235084816704573
0.0031902658259811874
0.00375000278778238
0.0012760947371308969
0.0009161447551986914
-0.0041549817196762425
0.0033516803708346994
-7.454302121099668e-05
0.0016931219476236396
0.0027021134808997236
0.0009848740858128294
-0.002974014750971766
0.004043155820738417
-0.004016521049553189
-0.0005415556597961854
0.00018315479148669578
-0.001746092009748448
-0.004062482138473085
0.003450008307752675
-0.0009759349853075927
0.0015670806324491234
-0.0004735292096201796
0.001384996697560312
0.0005524781625997107
-0.0021036413391911308
0.003992615207369462
-0.003855611592495666
-0.003655575498218908
0.0034711306469116508
-0.0037105470952529754
-0.0028298339462571004
-0.0037186336097380242
0.0016227317055083864
-0.002647644740936095
-0.0015223063839037638
-0.0011581826318024975
0.0031545997711641977
-0.0015226946510151745
-0.0022977723310168307
-0.0022834073008091166
0.0007147657090122142
0.00015812009351557876
0.0037911351142139536
0.0016073571141282216
0.0020150612221201927
-0.0008676196126690324
-0.0026228753232824123
0.0009831012559396585
-0.002370591614195372
0.0023906938630184407
-0.00019757595416628534
-0.0016416350259603422
-0.003702257463622394
-0.003683793210673871
8.416353185703088e-05
-0.0039033339162056497
-0.0007790716332403623
0.0029798500996517418
0.002335804551932845
0.0014234796764511792
-0.0023792516855520103
-0.002196015137159206
-0.001218410020912108
0.0028034178872175727
-0.0021992826532346845
-0.003245432856233134
-0.0026878986580637218
0.0022316652070317093
-0.0022298850432529867
-0.0020486721774370144
-0.0027142241373798123
-0.0019086593644622861
0.0009459107188456227
-0.0013265277665093166
0.003996932149942601
-0.0035360028620186595
0.0020110812635315755
0.0014048028374722815
-0.0033744380603065957
0.002994585746381345
-0.0028874851657052386
-0.003945115155311161
0.0022072307796237142
-0.003591371349701113
0.00321362948345859
-0.00416572233079173
-0.00032889400647982713
-0.0036709181711891987
0.003351186150743562
0.0023056211653581507
0.0013364929048219898
-0.004127510576778158
-0.0008880453011751192
0.0018436502184270545
-0.0013096160333997706
-0.0011968455352312102
-0.00018632579673562825
0.0030365393487101775
0.004008160913352904
0.0012313328554540773
-0.002003742934202472
-0.002289940208743516
-0.0030299857305681565
-0.0012875550236157783
-0.0002534275890190814
0.00374719998491301
-0.0007606433521460149
0.003327625044016852
-0.0023003451945166876
0.0012043842927716303
-0.002588368471048292
-0.0020792720810643315
-0.0006329951133275492
-0.003840397433799482
-0.00319367043423165
0.003893609116799089
0.00037942510117627837
-0.0027701412037323125
-0.0013416256121789594
3.6805230869976095e-05
0.000914835868606548
-0.00047924817199106916
0.003723163830299269
-0.0002700236946442138
-0.0021742541370943745
-0.002567110501271981
-0.0005041272069047949
-0.0009356817659843887
-0.0012309233820629916
0.00013797853061421863
-0.0011632683027274497
-0.00019051933029859574
-0.000841325343925305
0.0029729512798572695
-0.0024010653886653213
0.0012585515433891793
0.0036377740630202985
0.000962445754479115
0.0032122215936006334
0.00014082120635476464
-0.003256124440876094
0.0016326916261699463
0.0013226821816228716
-0.0038636330274154306
0.002470161425191893
0.003212665443539709
0.0021135527313820065
-0.003853750995106668
-0.0016960165789835072
-0.0007615874808879708
0.0008964534098863756
0.0011698840870863997
0.002671487767012394
-0.0022993760924449424
-0.001351149661676301
-0.0026100614359548546
-0.0008810194728666544
0.003335308238777414
-0.003686567197196292
0.0010033391099722837
0.0031443412888801643
0.0006684123679090721
0.003917877768864208
-0.0021168279481971297
-2.0314636842127758e-05
0.00340377769457502
0.00221492371199983
0.0036543906592343225
-0.002261959526110829
0.0006107049676087281
-0.0010410073042009297
-0.00401856555216114
-0.0009947527437912363
0.003743322921825755
-0.00011238322670540592
-0.0006885948589174557
0.002846346432707111
-0.0013948836997917896
-0.003567563335126367
7.377826819117054e-06
0.0029728056911357006
-0.003458135658117548
0.0012532276766695492
0.0006882322136238369
0.0002381289309549783
0.0005114214838615863
0.00037995512984063864
0.0009651567097971233
-0.002614259561876854
0.0023376362914112716
-0.003699090947168757
0.003724538893921827
0.0027202587046596728
1.3043688329164143e-05
-0.0036894863093452483
-0.0004207155674089973
-0.00163933298105596
3.106205631096021e-05
0.0011047345377730158
0.0033217892944556408
0.003321808786054138
0.0013117213149191087
0.0010639143543723548
-0.0016736393373287734
-0.00042767477682698486
-0.002389814944956578
0.002652144694119595
-0.0014175953225045734
0.0037614475228361375
0.002435183375522096
-0.00046162479394627894
2.6867638366618378e-05
0.003999506864130428
0.00267617482474709
-0.0012015443635071345
0.002325213831724359
1.498252143293811e-05
0.002763913502065728
0.0015378793313970602
0.0005047845410304383
-0.0040416683390678805
0.0037259415201661905
0.001890167243797059
-0.0010476582180310881
-0.003925459987883855
0.0020602028446801614
-0.0018949954663463181
-1.8888710021675002e-05
0.0006504732524271002
0.001046068711175353
-0.0012096662958680224
-0.001619519251953463
0.004096714824920522
-0.001682379666857645
-0.00017443748031356214
-0.002313501716320394
-0.002180103261846902
-0.000886537833789217
0.004025315338403096
9.31187597895911e-05
-0.004126906216861955
0.003592729397730495
-0.002778749430770932
-0.00043559994874271845
-0.0018636836009867533
-0.0011821138631990683
0.0030700862385083967
-0.0030939136361132946
0.0010652682892431948
0.0033529378405276022
-0.0022718956306011654
-0.0027837419452547627
-0.001099938361400003
-0.0002613467862170071
-0.0030434446816065964
-0.0015111710457315403
0.0036194865607179524
0.0038327446597758393
-0.0011753843288110995
0.0008452375870028133
-0.003267154240947049
-0.0018428425598019296
-0.0031115562816428546
-0.001730058218003535
0.0038628158399680885
-0.0034545545374971938
0.0023965109159240867
-0.00022551416668202418
0.002135659859464271
-0.00011842541074682947
0.002442347345649819
0.002200849166343013
0.0035260820837740947
0.0020931916411044645
-0.00343720380929867
0.0035358260356502342
-0.0035113659135100296
0.0034664840379367325
0.0036538860757774658
6.728645112233264e-05
2.815661154521268e-05
-0.002241783381016679
0.001773046608615424
-0.0005004586561021452
-0.002551697299443118
0.0002877858399368785
-0.0006055343741302251
-0.0010465328318964259
0.0016466657169026723
0.001399071645089031
-0.00016725174959296256
-0.0029418718674205204
-0.002748805645882978
-0.0010619043245435715
0.0016696069129959632
-0.0020977771938491267
0.0032362095120112406
-0.003551839082443728
0.002746185214645678
0.00034218280638698535
0.001252927666612114
0.001159796048738999
-0.0017844452980335138
-0.002158759599155691
-0.002209515228040896
-5.834168032928772e-05
0.0010161744797169505
-0.0039028959285187094
0.0035843736880658873
-0.000260283263311588
0.0006858844211639778
0.0008379630346585954
-0.0015443523286001255
-0.0021576231858249522
0.0034809995686728603
-0.002292460140214503
0.002991353582114457
-0.0006532171467707024
-0.0014917067911264623
-0.00023883935366537758
0.0014296269329794782
0.002803113449934354
0.0026147091801883592
-0.0014470175605095776
0.0027469457204504673
0.001919532940726182
-0.00043679685318782707
-0.0007060994391491518
0.00020168429538804404
0.0033422951705895177
0.000667946904749846
-0.0036220072891752888
-0.0025343019752456517
0.00395613798175682
-0.0030645208239501774
0.002105510524562622
0.0007467248012705428
0.0028310791820200915
-0.0035801729643315057
0.0031392844364529944
-0.004097780448789993
-0.002032834526637746
0.002359457069475709
0.0012872839299620336
-0.003368930533912932
0.0010990703684122323
0.0007565062362811061
-0.003656346719587176
-0.002404811327708979
0.0010387950479690071
0.0010567098215670324
0.0018191214213939386
0.0012767867506395922
0.0029868486991184114
0.004107234862889153
-0.0026070458138529873
-0.001269630888228876
-0.0015715617424906956
0.002644221695421184
-0.0015628968678014442
0.0032303214505847587
0.0020573319814162173
-0.00010707701896449895
-0.0023827204363333506
0.0029376639876257985
-0.0032536240130865033
-0.002896416938329737
0.002542012071739971
0.0037524782954016646
-0.0024469764120694515
-0.003251603028624293
-0.001090187461901848
-0.00255330588361657
0.0007928762682553338
-0.00038022183044153865
0.002004280352624702
0.00023178787378956952
0.0015770780106476518
-0.0025230122064070735
0.004132895151455846
0.00020884344064975242
0.0025506929619679036
0.002065994695282598
-0.0037136114167650933
0.003798472603062008
-0.0020315511448972838
-0.0034754707833799803
0.0034325621198588075
-0.0017325980889318457
0.0017652161436081208
0.003010498326986558
-0.0026519099402743545
-0.0005675099107181603
0.0012611932080653142
-0.0005502335321048333
0.0028790372084447325
-0.000844186727442219
-0.0029951770309210837
0.0028854175277692675
-0.00043257651026444604
0.0036370318295004434
0.0007884002344911064
-0.0011136472417499113
0.00289384890566665
0.001107714175183555
0.002777551623089035
-0.0018891679916393596
0.0007794516525579857
0.00023817627242912434
-0.001359700211131441
-0.0013709392165229851
-0.0002664056843899103
-0.0017532821594032962
0.0039565480731969084
0.0005045912605350064
-0.003223775593190212
0.0037230700714848746
0.0023415797218436472
0.0017824372344359715
-0.001951313050040611
0.003389336737994612
0.0027158911535076413
-0.0010304984422393711
0.0026289944210468492
-0.001368227985420877
0.002443782766535949
-0.0035025472620086673
-0.002791957875893037
-0.000588335923215925
0.0016409359533570097
0.0019842292776008495
0.0025313947565129362
-3.774418646966675e-05
0.0027170997210444886
-8.288733110437107e-05
-0.0007108527602483778
0.0018659450062863097
-0.0005416061959749683
0.003799810077105075
-0.0010981013840440383
-0.004029267845076621
-0.0002360462195484226
-0.0016743204181408418
0.0009432375583018123
0.003728784501790017
0.0021459294547323824
-0.0023920721736690386
-0.0005047599383737274
0.002110573917309101
-0.002160717553371822
0.002239786998482492
-0.003298807693679991
-0.0030853391201528546
-0.002761817089636247
-0.0018444091637972986
0.002113775886326076
-0.000724850830776861
-0.0029660476974417817
0.0006782950658926003
-0.001005827752365822
0.0026933595468855965
-0.0008494744910607924
0.0002726259637138847
0.002855707235992262
0.0019348451717966012
0.0022094755401051887
-0.0035075861605736347
0.0038638844513265275
-0.002847278835961943
0.0037581083613804868
0.003532855789094591
-0.0020402074216391863
-0.0007182162525337532
-0.0020998706523715654
-4.735857793113627e-05
0.0008044364378743109
0.002766264080354469
-0.00376254011792922
-0.00010957590996505243
0.0022648858148174794
-0.0010828537175677883
0.0007164125693837411
0.0028835878183840905
0.003110163501052116
-0.0026939936930439347
0.0034454860172203434
0.0038471733744504934
0.004049893867153787
-0.002593959101819231
-0.002328269633524607
0.0007916230739288762
-0.0002259261159209542
-0.0004994145704742032
0.0014570811817293918
0.0020230180716982633
-0.0014181946565179247
0.002320307892005947
-0.0011706464021428607
0.001754672278545296
-0.0019830129426225015
0.003236820240521806
0.00017677078171695175
0.0021550855535540877
-0.003597450229034203
0.0007130484250431456
0.0005622056731342115
-0.0030222297546197655
-0.0021466973920833974
0.0012792334250786247
-0.0026651473170632824
-0.0022050912549645744
-0.0023626524976314905
0.003412504418156046
-0.0017846820853142337
0.003447467356111361
-0.0020085215894466105
-0.0030084886019489466
-0.001156684197742728
0.0028394944056211826
-0.0037674173606830007
-0.002013509697112684
-0.0021423368696563286
-0.0016595023421386423
-0.0007127513990784736
0.0014971788665677401
-0.001780077934587217
0.0013371629184521093
-0.002501805956776386
-0.003232308902358223
-0.003317847244801578
0.00334590932823396
0.0027935026921598943
-0.0012946292238847613
0.0008319913645138372
0.0017697020933335457
-0.0034338272862470902
0.0023611957666116014
-0.0021979789901459576
0.0032856417144333703
0.0038620620340679822
-0.003481330509434232
-0.003912969782347608
-0.003815880791399556
3.9739278454758356e-05
0.002174239834762815
0.001739156167455818
0.0026724546179315812
-3.823090813871879e-05
-0.0017872487196596899
-0.0002448971687737924
0.0030442722868934883
0.0007224229522700603
0.0029760749444459754
-0.003983149768354482
-0.0016539610129853858
0.0029303899966576967
0.002902758458105508
0.001168396660880581
0.0001245087132705121
0.002545505084668677
-0.0007795252288989914
-0.003575902505135603
0.00360011307258134
0.0037033634899505704
-0.0019862791338051853
-0.0011459630396043355
-0.0002686852596487746
-0.0019257530464021214
0.0012613952237920598
-0.0029209861146052567
-0.0027914997861041564
-0.0017442343313425293
-0.0037744794689122123
0.0024019811212975767
-0.0010339942767354938
0.0025769833780838465
0.0008409782174026873
-0.0040574324344573335
0.0016705538095816404
0.0034940401678191153
-0.0005709313307218541
0.0015069006017632387
0.0035249854078256222
0.0008272187356166173
0.0036726380093235083
-0.003548054140460298
0.0006998640010030267
-0.00230361228038052
0.0012922549401925628
0.0041231178550700485
-0.0027256941568061235
-0.002026133555858653
0.001152931651297034
0.0019025753918635315
-0.0004890881033359001
0.003452912844438863
0.003281051723024019
-0.0007064700006674507
0.0005100943846832365
-0.0031691881766640175
-0.002101904180520797
0.00029513201231814404
-0.001632206929522611
0.003543030747108146
0.003123483658864904
-0.000809831773843763
0.002623107609833815
0.0028601010984229034
-0.0017859545727926598
-0.0024098490619212385
-0.00044870640692842335
-0.0005606264673907503
0.0014320423826150394
0.0033816224585165255
-0.0018009316140237665
0.00044205039181829817
0.0039840924298139525
0.0021267282578506614
-0.003252248789029643
0.0010925418224358083
-0.0010773238293494075
-0.003090083746032882
0.00020616678902442867
-0.0039557633333725025
0.0006155440088663075
-0.003315796197372882
0.003698210513177782
0.001165032806913654
0.002201935739757919
0.0031346147706218224
0.0012261224871511064
-0.0030928218456832885
-0.0026267306942929394
0.0004691345084362748
-0.0018462394656794765
0.0033258695514681636
-0.0028338297466734123
0.0032668156610738044
-0.0036936593289304325
-0.004044154629120389
5.697705381579e-05
0.0030293138699305317
0.0009000780988057311
-0.0011212427380313565
-0.0001350364306823773
0.0007316875581495636
-0.0005375582733478673
-0.0037266793125568815
0.002049473207311379
0.00019842038631704876
0.002508373554596958
-0.003977318653748428
0.003518969814335591
-0.0018605001714459553
-0.0020993366635102635
-8.643847197478454e-06
-0.0015107811776846531
-0.0011645695367563935
0.0004371455638695054
0.002584749103415988
-0.003500638812672541
0.001129117345531878
-0.0004138763183921106
-0.0005026963241183501
-0.0005199002675562716
-1.332442293455707e-05
0.002529437631946088
-0.002217802164513933
-0.0012228110282212598
0.0038379685435520334
0.0003123418983573565
-0.0027428269669429097
-0.0014463883625796432
-0.0006864483084178351
-0.002652396586086538
0.0024385073265258523
-0.00365477572912221
0.00033495466231649764
-0.0004153133340868666
-0.0030988740150795823
0.002330443840714247
-0.0033473744992200687
-0.0038993254919702015
0.003782175022051223
-0.001983704400867547
-0.0013476586787157434
-0.00030599137824693034
0.0037304415818883202
-0.003566710801342626
-0.0024067079211960375
-0.0023725460479180212
-0.0021193961303874937
0.0010905999925542595
-0.0007087071058668731
-0.0008519343058315467
-0.00034612418988506
0.0036098335237441694
0.002053373971531204
-0.0009741694369515992
-0.001491744438449811
0.0025648446426221757
0.0021955733977546735
-0.0017908637619570413
-0.0020705143836387088
-0.0031759060196415514
0.002579660630610177
0.0013109475259136525
0.0008189663077081865
0.001266337587139125
-0.0021101521280651797
-0.00021069985712572604
-0.0029708894873829265
0.0019472650413344826
-0.0004217863841795495
-1.993626121616942e-05
0.0008275022517518392
-0.0021223054549326195
-8.672875156248645e-05
-0.0014173508597277234
0.002611095655364263
0.0004560064286663136
-0.00222205433295315
0.003100591511931383
-0.001989327795720596
0.00025329453033254946
-0.0030368129321528122
-0.001863524901787367
0.0033732258315818703
0.002301699918715298
-0.003408596928050851
0.0025454088519226317
-0.0009857789342911168
-0.002850087795266626
-0.0024743800525991594
0.0009047319485823871
0.0035608520422943063
0.00283283450452923
0.0024272269567057886
-0.00014074539996946402
-0.00013043349083380137
0.00022985593575292675
0.003376403769976074
0.0024002357325346923
0.0021437390944869777
-0.0007074733018214494
0.0014308410495074803
0.0027903875702206113
-0.001831894473203104
-0.00122486652516108
-0.0024678666091608615
0.000564531130052741
-0.0007314079985759199
0.004050014460318064
-0.0005900386409926962
0.002063970606548068
-0.00029406091622734585
-0.0017448502379276067
-0.00085438268140705
-0.003994770014684251
-0.0008137716162233575
-0.003704981441877183
0.003268547377997558
0.0010532257374718634
0.00038742083725469757
-0.0033978216820691907
0.0027359469767097872
-0.003074528153235936
-0.0038371444237431875
7.568317352589018e-05
-0.00016978613065249875
0.0040694775161744115
0.0004789287073417489
0.0002588147242384948
0.003915224266279274
0.0027417454876288386
-0.0021693305279976705
0.002043327492771805
0.0008754993930763241
0.0006283908858628768
-0.0006128977376191711
0.0019037943994108433
-0.0034583329613872473
0.001740134182401087
0.0013487730324483734
-0.0016334296679103054
0.0019967862853829538
0.00034617012291574966
-0.0017745763483862883
9.347771024175006e-05
-9.530091828764227e-05
8.0879776516705e-05
-0.001206271053385322
0.0038768316310919186
0.0027069776928278135
-0.0034134943966020463
0.0037453724095019786
-0.003088480914270079
-0.0035484820765809776
-0.0005033803229079238
0.00035858983372999794
-0.0010845548083919451
-0.003184693911706248
-0.0017073576982558193
-0.0013569640826988161
-0.0019462752951218294
0.00287204759985715
0.00010598858510074838
0.0012169030311262239
-0.003246571560563613
-0.004150076097113724
-0.0023020880944666475
-0.0016691702223974897
0.0007675587752651291
-0.0017636526277342109
-0.0034803619396258346
-0.0037306972578522667
-0.002163519677921194
0.0034177604703249692
-0.0005348178195605644
0.002763215159556723
0.002561414905433518
-0.004002962984203089
-0.0022211682824501006
-0.0038238076124077146
0.0024156818007615407
0.0035260020609891108
0.00018666401650815393
-0.0023506181590037672
-0.00013008372858278085
0.001094819076280659
-0.0022137882770195683
0.002064281647882887
-0.0016832550980508505
0.000808269863495549
0.002590349125140491
0.0012786797679949537
0.001982065404399535
0.0037916458059498136
-0.0031922146296921574
-0.003457649302419
0.0020175336644778484
-0.000749819525796724
-0.003844863385391898
-0.0004441141124702904
-0.002443590359087833
0.0009283615365055232
0.003806096778245939
0.0034678718592034375
0.00036217282732897856
0.0037214774124270226
0.001640741373450586
0.0009227742548558305
0.002413677070967446
-0.0027504586004038437
-0.0035920543811169834
-0.0034020578296647436
0.002545521932762446
0.0015731016279240033
0.0041335123820875055
0.0026245952772910594
-0.0027828430023547723
0.0005057188970629206
-0.0006883706522688291
-0.0038436527901453124
-0.0010243020453950837
-0.0021460227661057986
-0.003550343567294934
0.00010771007468956664
-0.001940631759092949
-0.0005732185297045673
-0.0011118833644281098
-0.001526286193848435
0.0019142958837551057
-5.6098990026672504e-05
0.0008192081062516433
-0.0005117418666016237
0.0006599675695000713
-0.0027732604370506973
-0.0021407983489638415
-0.0011300879848626178
0.0024688846752559225
-0.0004963230051002094
0.002512531198545321
-0.00261405088752037
-0.003695957722710872
-0.0009545331296868229
-0.002559955634251979
-0.0017593457604365452
-0.001330451290578953
-0.002666170564645137
0.0023570372024706546
-0.0009680553563741661
-0.0034256922958175447
7.490217611538711e-05
-0.0038976909159411407
0.0023631367994609385
-0.0032716454800151857
-0.004034982604231206
0.0035695778886948855
-0.0027881140906313396
0.0007051189531370579
0.00358007973274388
0.0005568922206836394
0.002916551367163403
0.003731314318416265
0.00039401611074772335
-0.0015274906994465734
0.0003073103314258106
-0.0002773658931968617
-0.0009968603229051239
0.004086148201072268
-0.0011431285657077178
0.004050544268152581
-0.0035309867863724917
0.0029927151634326155
0.0016629152209398509
-0.0028241981997732322
-0.00382879357332588
-0.003500971911217033
-0.0004399394269034316
0.003345618233922804
-0.00415154332863982
0.003281487217239952
-0.00262559117279009
0.0030846213582292493
-0.003766524019054288
-0.0023685842280956088
0.001521478477459154
0.0012251529470222308
-0.002366397941478351
-0.00020777276658029206
-0.0023918304717851324
3.351559163365136e-05
-0.001573274805412087
-0.0031804436124803406
0.0007741928937633032
-0.0002530079371151738
-0.0020917677257067725
0.003952952188474996
0.0019156407228280796
-0.0028061379105646387
-0.001436864778041756
-0.0020655382631106782
-0.0004386651521560846
0.0017580992158242486
-0.00018652839762694148
-0.00022275000684043246
0.0021713830767046455
-0.0022576172708586592
-0.0022348149578397575
0.002345148047211965
0.0035427353252924037
0.003703862596673201
-0.00031044674743993577
0.0005151168926668455
0.0029650603883579966
-8.461607505665321e-05
-0.0030600010108651527
-1.0932783191689499e-05
-0.0037051602466795573
-0.0013269765449412927
0.0017691546726925878
-0.002077209805583011
-0.0014878038316838702
-0.003849603969059894
-0.003601100993140052
0.0002394006902385389
-0.0006524860407109693
0.0026039680836861204
-0.00311584182508601
-0.0018093131643401154
0.0011240406212406704
0.0038306667409401893
0.0037435514275067166
-0.0004443560687846582
-0.0018135030873977806
0.0038390572249448985
0.0037941049543432337
0.0019932096326897024
0.0020026378541766745
0.0001462445577811932
-0.001983479690897504
-0.0010439455971456722
-0.001301892840000151
0.0033504555062826716
0.002376097473991534
-0.0035351890672103417
-0.0002019169419290764
-0.0019115444116537903
0.002586477327700248
-0.0018832962930147024
0.0004459065245404472
-0.003643960786614961
0.0024078966444127047
-0.0035646750188434175
0.0006847054622469722
3.234464503765756e-05
-0.0036266970059903327
-0.0007596977225771783
-0.000844144149609517
-0.0009644946707464109
0.0026340867794408056
-0.0021416383118663296
-0.0018846374931735924
-0.0022063838840094773
-0.002035007048553853
-0.0025518317034624624
-0.0040459372506326035
0.0037268353956258346
0.000658743532603902
-0.004098149884285707
0.0006689958572523417
-0.003632895888121827
0.0008578906566601431
-6.0815522081700774e-05
0.0025934927592753286
-0.0024981950553172147
-0.0014042597183042587
0.0027054644348769225
-0.002940977386945311
-0.00016911626525936742
-0.0021077431354308627
-0.0016838824370716636
0.0025958432116829394
0.0035592124154419425
0.0012183818443689486
-5.091111767495462e-05
-0.0010155814064843906
0.0004680741966625858
-0.0019855748096618423
-0.0018428786916453682
-0.0024091891215422307
0.002492508424158188
-0.0006762346695773414
0.0023019641923069938
-0.002700260709607155
-0.0032011162225410953
0.001847287395475092
-3.4134212163299863e-06
0.003214905237622788
-0.0013650590353649287
0.0018294738242424554
-0.0034561057630209755
-0.0026496008178137705
-0.0017849860719138055
-0.005169035472651155
-0.003976191338888704
-0.0038299003831464284
0.0017764087325488154
0.002551716084203188
-0.003977238121150789
-0.0013513800591602244
-0.0023056130516147444
-0.0015572655414870502
-0.0021602411712926895
0.003938183189364705
0.0023592637299748678
0.0016345597982005047
0.0009205855650213479
0.0029748647577938544
-0.0015514619608185806
-0.0034802018782928035
0.0005107836181544234
0.002831246962351392
0.0007173637307123461
-0.002972860378740722
-0.001182391745820096
0.0017730285209011456
0.0031348806582526556
0.0027884372044095686
0.00048232022028898107
-0.0004357306964144842
0.004921027750732575
-0.0032741908862253017
0.0009291412176230247
-0.0028313852871474253
0.003541604176990734
0.003172815122343406
0.003535697109330874
0.0027310706719139294
0.0014776802438296313
-0.004028926656269984
-0.0004881926548809604
0.0004845347693225879
0.005682432634924341
0.0005164516291907005
0.001837892228850187
-0.005052226408093579
-0.004105799222262328
-0.0012529521373064027
-0.002148636806115492
-0.0020499830537108817
0.0003299924364742352
0.0010965599865138467
3.804300169809424e-08
0.0025676603333874325
0.0036323814786545124
-0.0016524807143221492
-0.0009239813223373897
0.001965529000391136
-0.0017339684816800984
-0.0038903998694799855
0.00011904948721309565
0.0028051790675534954
-0.00276041953497003
-0.002319447481488838
0.0018086532229754531
-0.0015469468815780096
-0.002633196044708638
0.0037596983207314016
-0.0016840365569879136
-0.003285156019000649
0.0006998448929559312
0.005467936285034392
-0.003463686792049414
0.0013208810781099457
0.0007503361740021635
0.00016010638837700577
-0.005115446467397904
-0.0003302647446606868
0.0007740692717276337
0.003223808482595067
0.003910160809273672
0.0006718342481243086
0.0011330598805575126
0.0017372109011195528
0.003496140390213615
0.0015867158660687573
-0.0011959166100529313
-0.00161433008063092
0.0019502658852676765
-0.0037769465896017995
-2.466593543412465e-06
0.004376640361564157
-0.001326749638064457
0.002760410259711204
0.0008956077659725565
-0.00214696528325545
-0.0035285279790295966
0.003107847721095854
-0.00266908943048109
-0.00032742094904941185
-0.001627987313798929
-0.003779445834345666
0.002890205875817183
-0.005434199124583018
-0.0013729012277382529
-0.0010538121717850498
0.0005109306597189643
-0.0007826182785962159
-0.0038620418457328237
-0.00028090908976624476
0.0017762344743178181
0.0005821837422168786
-0.0006244718096254839
-0.0034877351572262807
-0.0024516324526234158
-0.0016416203789690364
0.0012484721515928308
0.0027333797827268757
-0.00019619962410430622
0.0027564001475430962
-0.0023112303115063746
0.002818741494163797
0.0017141301671876777
0.0007220443555849466
-0.0023815599560499017
0.0011175224660472944
0.0005072398367384704
-0.0032142830139771793
0.0013076045153635144
-0.0030700585349168266
-0.003078818540753
0.004151046213765986
0.003704051295779584
-0.00017693380182509752
0.0010132048852412165
-0.0003940555762653396
0.003418417611859039
0.003748966946850118
-0.0036486467788702337
-0.002095098903811039
-0.0010623844497732189
-0.0016472477046539874
0.000929992092397345
0.003990271061484189
-0.0024321763365467946
-0.0036166232863119032
-0.0039015105817782458
-0.0018643149071382718
-0.0021529709485897082
0.002619363781865696
0.003920431540285883
-0.003500959350482237
0.0002737659251373755
-0.003284257638357077
0.0011725824227979934
0.0015979680605107333
0.0007972955950313561
0.0036189457928489416
-0.0037804197188442677
0.00024249180224503612
-0.0002982467956154179
-0.002270579027038101
-0.004000640456869385
-0.0026128118014663955
0.0009524888868768751
0.00369252318734243
0.0005112839553521943
-0.00302302484932672
-0.001302181371947674
-0.003582949735416161
0.0014070768008768533
0.00389361286789381
-0.00013680646126726286
-0.0021659202380887796
-0.002386655204558151
0.001197240131164703
-0.0013468400529732926
0.0005498109863066365
-0.0002349723333556683
0.0036238416592365985
0.0006805388121486363
0.0025121953839438976
0.003439939496568271
-0.004162754131885411
0.0018989151434693277
-0.0028960755085152535
-0.002719227858415029
0.0020437028999383193
-0.0020435977784598602
-0.0011578050838088607
0.0008822759209220132
0.0009912074442738202
0.0033120366110330275
-0.0003071526615708242
0.0013311759559186483
0.00014453239350698468
0.00017619659560445802
0.003809229895518247
0.003843628360667058
0.002484447688896842
0.0012790311484187167
-0.00251834901070745
0.0026962429676361047
-0.002204595104073804
-0.0012059279021620765
0.003016560831252853
-0.0003738561634380653
0.002146668279894882
-0.003231798112413276
-0.0037589194611751435
-0.000510198563042801
-0.0011120156540466223
0.0039055152729744174
0.004158976055078572
-0.0019739959957655903
0.0012319284716726484
-0.0024369163990456723
-0.0014696234499616504
0.00409808052608051
0.0036408819445581664
-0.001999259005904119
-0.0016317713462852114
4.418683610995068e-05
-0.0035743046638601053
-0.003696077718128755
-0.0004968115109148513
-0.0029363451727714633
0.0027478117314432217
0.002554493855087473
-0.002960704995221139
0.0011683200157537577
0.0011367094739303707
-0.0022358058063152177
0.0005044235910935603
0.0012476083219357089
-0.003469767460447006
0.003778884355628669
-0.0028807143006002005
-0.0033258991081009897
-0.0029331431081241425
-0.002307630960680654
-0.0008492836082094051
0.002365095780217666
-0.0006421462090843353
0.0027811330843619947
-0.0012416850185466904
0.0021038544279236068
0.0021206440348648906
-0.001313088797046519
0.0012028863663783116
0.0013289657954141103
0.00038594372168167804
-0.0014526729298738267
-0.0014276355385806146
0.001116950279834107
-0.003242155198843063
0.0013211761469216776
-0.0005293841201646277
0.001077407132675466
0.0020647403090479806
-0.0007262367420779752
0.0023210638337225527
0.0038939249701384023
-0.0007160928671049872
0.00013812134891011215
0.0020601529883684817
0.0039005061264175325
-0.0023218497056915455
0.000551326500002227
0.00010658008818098149
-0.0028273857858707807
0.002373044218753596
-0.003115475400791838
-0.0035132583744793898
0.0014862990884239862
0.0015652422842427755
0.0029842072221292555
0.0012231070428321868
-0.003881917013012937
0.0035944316899773105
-0.0038418949866147736
0.004057150104975403
-0.003918179303993124
0.0011660417641878764
-0.003095790562917747
-0.003233254409439449
0.002346620697222493
-0.0028737633612361093
-0.0015364857167388876
0.002625539568671533
0.0013837121271279382
0.0007145390704707929
0.003603011110827015
-0.0036406087779411235
-0.001962484574838887
0.0017693929267373213
-0.003136488657436405
0.0033324491117659384
0.0005714329047809116
0.001012121734754077
0.002295009639843382
0.0037098516637160215
0.00033538436468093523
0.0005258231119072314
0.00174214675138309
0.0008368736114798464
0.0010300966213653568
-0.0017698924815197992
0.0013367416934315997
-0.000546407370184924
0.0032204625967828166
-0.0025603612918264256
0.0019120616476641155
-0.0012681258888326077
0.0014680785483135504
-0.0022442676567497014
0.002004437178229546
-0.0018765165325577988
0.00264540377390337
0.0007214165289996764
0.0007358773343235505
0.0016073928190740632
-0.0026604864227594968
-0.002814820190988676
-0.0022419815588519305
0.003943226174792681
0.0020026762398311026
-0.002782583417469253
0.0015320790848159026
-0.0011865111175054133
0.0019913389288303144
-0.003743537777337851
0.0031505922089651887
0.0027802478617297744
-0.0035324271199262446
-7.894806875640049e-05
-0.0009504721330816066
-0.002831362119625899
0.0031470749339290146
-0.0024280124841849684
-0.0019210204511174742
0.0022802547423351315
-0.0003000410205382685
7.940211501134479e-05
0.003783713572923692
0.0007288308373979321
-0.00016441970032006874
-0.0018037454312473842
-0.0015367363397476492
0.002944742339879637
-0.0020303542341091056
0.0012681174438532554
0.0025158624895474636
-0.003469847111954274
0.002135146973683328
0.0019055867669624704
-0.0034683070266119326
-0.0023606598714924717
0.0011672712350284426
-8.40496087570897e-05
0.002916629970760479
-0.003347291430921728
0.003108709308698571
-0.0018278076964725362
-0.0013483987654136574
-0.0034938363800348575
-0.0008560020581374168
0.0037635564006443865
0.0009588086644039333
0.003464222009932475
-0.0006164435638716676
0.002534528847716796
-0.004127048087110797
-0.003260253664905582
-0.0016260318662402896
0.002408456296637906
0.0036660882673673024
0.001412181974479745
0.0004919858660674963
0.0026320178634048697
0.0018111632037723427
-0.002896496299002493
0.00018313918922799378
-0.00029642204023135955
-0.002573882236570185
0.001407061379851286
-0.0012855865162794203
-0.00020010318086939518
0.0001797405776641728
-0.000862858734372935
0.001296854256899693
-0.001807341994092886
0.003117159420050864
-0.0038470631406639735
-0.003904570723126189
-0.002434151951502082
-0.003339083687889374
0.0024455929881321207
-0.003033930191357111
0.0020929229339287495
-0.0038674020640201857
0.00148206004407498
-0.0023031755464356565
-0.002435891774286512
-0.00041830843201297796
-0.0014869110630410568
-0.00011776601568029667
-0.001019225530275584
0.002179669102003071
0.0011793239258054697
-0.0023239827124741956
0.0027483099487229856
0.0034963766694997237
0.003389536457005785
0.00359015620631022
-0.004150646825398464
0.002682202337655742
-0.0030762011571258056
-0.0035411058320733973
0.000615877100223091
0.0018671505467359256
0.0038891709047679393
-0.001104465054230969
-0.0002533675945283369
-0.0031527370088370024
-0.0017217174368235057
-0.0019464096506850309
0.0016436429838041094
4.9454476036755206e-05
0.0025351081764385355
-0.0023684733093532547
-0.004036292934484691
-0.0002507393107427922
0.003553629596750824
0.001012265868821154
0.0008237175135310212
0.0027692495196722875
-0.0009614519514817598
0.003291279158351657
0.004149048154486987
-0.001390564589141239
-0.0038419558151438172
0.0030022653562454906
0.003946367623876217
0.003236554429356556
0.00351801456725833
0.001324390195008545
0.001363896451518985
0.003111457464069956
0.0002727005328070301
-0.0035004440536754223
0.0005786787179371993
0.0034397760818193537
0.0031090624382453156
-0.0019121839748180585
0.0011369732622033698
-0.0009727451981863267
0.0030924296801709992
0.0011943466912706065
-0.0005773553996275627
-0.002158889708869556
0.001529835760467108
0.0030303179382429844
-0.0009056229546233404
0.0006717092782901809
0.0017259197647361889
0.003906962392595074
-0.0008714202076257266
-0.00010248534185707531
0.0009517478653190007
0.001795997589461402
-0.0038153400791467434
-0.00237747605709757
0.0007621009400591372
0.0019597125198820954
0.00031700779324960376
0.0009866284796393502
0.002875672169403303
0.0027706721228264453
-0.001334808243474416
0.003524410026863572
0.0019079649557800834
-0.0033577553915047033
0.002066588347726581
-0.0007999235337141765
-0.001637263164736417
-0.001160567255050857
0.003653247586036156
-0.00013088378563092483
-0.0020438181531761304
0.0036939804230925644
-0.0025124575087064126
0.003557382234039279
-0.0034017348185154095
0.0036522300041594495
0.0022486229737576427
-0.0031317763573438014
0.00021670288281274065
-0.0029548675710413374
-0.00229873650508927
-0.004122802157432583
3.8407703697587e-05
0.0019298667782220043
0.0022739741040737034
0.0016789552580519123
-0.00376858511505067
-0.0017393807893405216
0.004090870376685085
0.00293458949191403
-0.004112345622140982
-0.000582374425174615
-0.002801432130926587
0.0016531261064957076
-0.002436444685648584
-0.002352415590579418
-0.00046610549054182577
-0.0040754186414252045
-0.0011923001274628737
0.003092371352216959
-0.0018716824749361448
-0.003096929781981351
-3.02112568725602e-06
-0.0032168034975346613
0.0017638042540721955
-0.0016824478586178145
-0.001259907219803868
-0.0005500230418190751
-0.0034911504976111907
0.002158851123743001
0.0030168644396643142
0.001460666278404864
-0.00019361167252195533
0.0040618914187763346
-0.0015348214288958297
0.0017769717484196624
0.003924482632051249
-0.0036200186875135084
-0.0013574137107057497
-0.00019392157616273943
-0.0006026993367581147
0.0004682184892519301
-0.0008386742523299156
0.0016450191828168551
0.0012534744681889035
-0.0021104632783804167
-0.003797465165563987
0.0007446567168338773
-0.0012268844140546728
-0.0013541911437430505
0.0009458447274669808
-0.00029751302804850754
0.0037621258435758436
-0.003024684013932083
-0.0017779996442690406
-3.286095136888036e-05
0.0027406308679051726
-0.0032950213296400904
-0.0027221742039528016
-0.002343461658158985
0.0036260896440699435
-0.002019132394686319
0.003999977007666088
0.003473347247882958
0.003413401039295547
-0.0015651725927112907
-0.0019244394802021836
-0.0019561298553211195
-6.067775292190144e-05
0.0005545872553757634
-0.0006193698193481191
-0.0014408696233413408
0.0013649663669349518
0.0018205126469313423
-0.0037408847752618203
-0.00011123220867537221
0.0031625726036736404
0.00024419922517072724
0.0018387347896791494
-0.0018800477314948982
0.0007137304914506609
0.0029919638369789413
-0.0024808092509200743
-0.002896742316838968
0.000329102886615144
0.00282596904697703
0.00220965375198831
0.0035933662845591802
0.0033428985519452243
-0.0038393639119286764
-0.0007414822039475459
0.001594834827646981
0.0001986753086679305
0.0035394496237486878
-0.003984174009063789
-0.0015966734175556993
0.0029509804630246514
0.0007508378055873761
0.003833275697500235
-0.002340675655118826
0.002229692069981323
-0.0014222433554712118
-0.003575090461679411
-0.0003958905460935385
-0.00043284487086568083
0.0038858293992366888
0.0025110094443593425
0.0022864860505589324
0.0014443150322312524
0.0021885276677751438
-0.0010579671087940826
0.00329191897309297
-0.003448417538367729
0.0016558005757858656
-0.002895264744217732
-0.0019929633571646468
-0.003670351208832594
0.0006685259107791362
-0.0005137738903622071
0.003997014690780949
-0.002943845621786418
5.349642796358078e-05
0.0034915338764316918
0.0005181116589506702
0.003618135963146006
-0.0003688138510540931
-0.0014147041228891322
0.0025621344197323827
-0.002281309247943892
0.002080239982681234
0.0014430657136310756
-0.003717598822262026
0.0002087031251472338
-0.0036182352175105044
-0.0030429587573014664
0.0011191850698691384
0.002803227464070721
0.0019812044630069126
0.0023028644918474195
-0.0018556287285254429
-0.003446955331697759
8.105497965771622e-05
0.003410479892346061
0.003486885063710271
-0.0027798374912883354
-0.0013183265429869565
-0.0010892169949408097
0.0032423647191755474
0.0011522455894860289
0.0017342938089472955
-0.002851076665693291
0.0022943552683294508
0.0019784379576435816
-0.002922458400611634
-0.0029977431228334667
-0.002327767984033129
-0.0032045814681425783
0.0006759744109389179
0.0003733213713833831
0.0005937146691850583
-0.0018615446333751094
-0.002196182366501225
-0.00212681965959906
-0.0033935836714130353
-0.003982259256371859
-0.0015475666985895647
0.00194593599715779
-0.0012583396529345673
0.0011378830339952022
-0.0009478057089906554
0.0006969296710856739
0.0006360727362642166
0.0011759480512289473
0.001456627168979462
0.0014463980794758456
0.00368649030652571
0.0028280024715827213
-0.0014131782168998032
-0.0006816393638350353
-0.0033365334401922403
-0.004083450114485824
-0.0018462189741001503
0.003939998339097615
-0.002879767715538971
0.00176481841259094
0.0035608411138961624
-0.0036581650512407587
0.0036591689515569395
-0.001365266821526078
-0.003100405963643474
0.0018315136602985683
0.002708015720818715
0.003662387321286003
-0.0025167686100068787
0.003376757696337323
0.0017635983171474848
-0.002229686058628776
0.003544154833518399
-0.0027967352933583735
0.0031609332103318664
0.0009965314240908804
-0.0018456294865058355
0.0009472926087995178
-0.0033557176711408237
0.0032922518082116794
-0.0006016927392895765
0.0024141368451869416
0.0039821463966850535
-0.0011856000871945176
-0.0019863228441366226
-0.0035441490193511577
-6.557862860526307e-05
-0.003528866823517522
-0.0013089691279079595
0.0020540888758156933
0.0010424714111122
0.001915699122959916
-0.0029261845253899096
0.001236412492005698
0.0030042567144081818
-0.002286314784919486
0.0019461837542421936
-0.0005220577862425043
0.0012960332928360708
-1.7761913009490614e-05
-0.0031589420808681807
-0.00043561396728861884
-0.0018719350865523104
-0.0034101336611503815
-0.0012763072460823637
-0.002644295899496647
-0.002987925144888476
0.002827038992345683
0.003419043741770521
-0.0015405408071888544
0.00161161464943601
0.0013213308655885532
0.001222187899854399
0.0019608449883141573
0.0033938125350153826
0.0009530429651296776
3.3605827895741424e-05
0.0018509552384946418
0.0032352825371947396
-0.0028253848719231086
0.0025670654592416043
0.003033438256887556
-0.0003640529105482554
-0.0027101512494010663
-0.0009674198859637505
-0.002834500505047287
0.0021680839591849367
0.003921249241322216
0.002828011434893217
-0.0037969185367676254
0.004100050970199631
-0.0002446699249929484
-0.0006251026682487284
0.00011736625110319549
0.0036631512508683885
0.0003098072147362343
-0.0009299102918079322
0.000260762658848107
0.003786890350951835
0.002888158828278461
0.0009014333260519133
0.0033555828560972575
-0.0010186626784558005
-0.0024313991970970053
0.0012974108152035047
-0.0015004788833497538
-0.0008410690104949352
-0.001116225187303024
-0.003865596178269081
-0.004078217138054968
-0.0028813751051779734
0.0011361884714077705
0.0035763542449655343
0.0013038056362424928
-0.0014320006994562686
-0.00035587866359319196
0.0015178444469601297
0.0025782431542748564
0.0032176581698869612
0.0021814138004965823
-0.0030326934262251597
-0.0005048561828638674
-0.00022869671439843016
-0.001506038152997503
0.002509955570924665
0.00016823438551367406
0.002621469059999478
-9.972158960407211e-05
-0.0029389285904285454
-0.0017488345774491617
0.002796267432307468
-0.003011251850518265
-0.0014258846085713056
0.0020208486840461947
-0.003128105235963435
-9.849156499794283e-05
0.003360175742150051
0.0034393061603048033
-0.0013924599719441432
-0.002303171841562842
0.003115927998902662
0.0018873219651703835
-0.004080595345347945
0.001035802044156895
-0.003680696238908673
-0.0013034141425410236
-0.0011582034586442795
-0.003612826985890842
0.003291897528127802
0.0021765624691623643
0.0001571299508124038
-0.0012863297677995992
-0.0015019711418039477
0.00036249196675946225
-0.0002933528391557488
0.0035987927793083075
-0.0025656169681331866
0.0024824294694250266
0.002005887848623452
0.001681091142555793
0.00022265436621734616
0.0016039333582440554
-0.0032869593135597137
-0.0034326910892364913
0.0004711330352453388
-0.0029239181686976723
0.0018926118045337948
0.001820350574136284
0.000260865396037701
0.0003272930161821888
-0.00046882027772942794
0.00030861238196851454
-0.003364519687949144
-0.002545845343639052
-0.0006954404504572989
0.0008083178058037232
0.004083920643271047
0.0035603459930232642
-0.003914380755277357
0.002358587970010705
-0.003299444907859474
0.00399136981925566
-0.003825277033023807
-0.0002170904875259022
0.0023827419568555786
0.002784573533276604
-0.0018321835205774785
0.001697555228276148
0.0027501012088865947
0.003072220716446178
-0.0026572374543392006
0.00037349652027999223
-0.001299779940701238
0.0025777006920007324
-0.000975386251001941
0.0013242918744291532
-0.002327086510338091
0.00034448210772060854
-0.00033412793076041355
-0.0013106001504967933
8.801752322460508e-05
-0.0041541917520844015
0.003513870033646601
-0.0006219135453893461
-0.00022350534768806
0.002014481169684844
0.002787523685919721
0.0002259363996674802
0.003800861353330296
0.003338112891765467
0.0033035984396062247
0.000333560942247085
-0.0033384111068043157
0.0006322062863060224
-0.0014177289255844383
-0.004091115702269495
-0.0037834031448709875
-0.003855263254067493
0.0009517256860032423
-0.003626178636632072
-0.0015881804638540435
-0.0035351344095425315
-0.001446049125446954
-0.0025713646477678286
0.0026461242184491634
0.0017947439218849
-0.0037912739563859426
-2.582306010880049e-06
-0.0023492470180372094
0.0026546709857967594
-0.0014814824553236036
-0.0007393348214156258
0.0032198305118567214
-0.0026681985322057826
0.0038192291047276935
-0.002835602003932954
-0.0007670410453279587
0.0014557736416134417
0.004062153075815482
0.0011062409904044946
0.0039737476073124405
0.003869502430114609
-0.0015103976081326542
-0.0002808789623870799
-3.8881960795345915e-05
0.0036397760709045916
-0.00015482626422674682
-0.0015470567578177905
0.000286945702493318
0.002343045706900121
-0.0032404603328479863
-0.0002952429971210477
-0.0009412152578744677
0.0034663148509356404
0.0006671301237222508
0.0015037969569684144
-3.35158360557582e-05
0.003170372282856447
-0.0006474923282690476
0.0003386381588514165
0.0037590402567830275
0.0017964718202951116
-0.0020285071266249797
0.003911337063276648
0.0038818041456906696
0.000338253334776452
-0.00017210902650250442
0.0020583814849459664
0.004075170459597976
-0.0002475222368894198
0.0015896358760889332
-0.0010316302430182956
0.0030851410252661243
0.003217698088395548
-0.00020924714994343557
0.003261285035941132
0.00265316781574043
0.0007693919535973826
0.003936989573957964
0.00014082007991515083
0.00039692676088312503
0.0026220737477627007
0.0027068172865206386
0.0025450141121308115
0.00407042110512259
0.0032762029345652123
-0.002485882082916601
-0.0003177982437369037
-0.0034435659642025373
0.003775629348151883
0.0015734339009526052
-0.0004995364650745975
0.003512684884421525
-0.003967924155490664
-0.00019190445104258052
0.0025002730913156837
0.0027127256305221744
-0.00288184009206764
0.0012152625587039494
-0.000774781914327784
0.0036916426991681346
0.003574577872478103
0.004093334985098383
0.0018352028585107078
-0.0030831204682955134
-0.0026678498762837447
0.0004921030891973457
-0.002904802905899553
-0.0023677647706629398
-0.00014921330100669834
-0.0025515725183751243
0.001467804720035044
-0.0002776584877387268
-0.004130156926154425
-0.0012569145125313156
0.0041238593954589856
-0.003168930029664126
0.0005604573901565507
-0.003996271939894405
-0.0018171281560963386
-0.002829771202985803
0.0024641903841669775
0.0008847980563848822
-0.0018494113155410493
-0.0015552492388095436
-0.0033951222854083133
-0.0002744147021728167
0.00044993606076058245
-0.0026573846806705968
0.0030099115304286807
0.0026748611404875593
-0.0030600332875424198
0.0038128866894445172
-0.0010129740682652886
8.595141398880327e-05
-0.003704857573179893
0.0032223864109381445
-0.0027371540933072386
0.0004455204440735749
-0.0018026927374251412
-0.0011640956331573505
-0.003275944086261981
-0.0015631951556689708
0.0005081131673264316
-0.0037795306128782574
0.0019457941339907948
-0.001543361261643837
0.0023693638636103384
0.003969565221856664
-0.0034553097687265778
-0.0021881057292908283
-0.00015057311027931447
0.0006632411452266183
-0.0011490021882680386
0.0034521570825927043
0.0005318421625882556
-0.0007433832203498555
-0.0020857704702455077
-0.0018637649085277575
0.0026401389217422873
0.0011384532159120439
-0.004039081526474913
-0.0008627987431097392
-0.0014725030388011264
0.0007438005438207404
-0.0016896571896916166
-0.0034349959189088172
-0.0014464728769039807
0.0034706263473359223
0.002007118457758807
-0.0026449718379128657
0.003587075383423376
-0.001673577609959048
-0.0034978960178128926
0.0009580859930774852
-0.0015004175214459936
0.0023624460300063492
0.0031877083019255497
-0.003309445636363136
0.0028875917958574252
-0.0024313767235103556
0.003250501364433873
-0.0003875690708556349
-0.002964766954459651
0.002580187853176835
0.0024615659359613906
0.0016301165912996794
0.0034057313418192708
0.001672891472562657
-0.004066421504239248
-0.0006228178584738168
-0.002417759440382243
0.003753949915151308
-0.004007543133077366
0.0019678499338518524
0.0038277225401263733
-0.0008698115129591265
0.0026450374443877257
0.0013958777710639538
-0.0037183946269397864
-0.003966401598985734
0.002235844927682054
0.002417031030038475
0.0017206356166371188
-0.0015369954751310402
-2.1690389602708186e-05
-0.0008834521287028999
0.0020681441652068695
-0.0032579272280364
-0.0033378589794618003
0.0011935893398700476
-0.0006904585293430995
0.0031860089604367364
0.0016757450330340032
0.003914567223988311
-0.00016327387679838256
0.0003681270399428518
-0.0038603222377078927
0.00013696365097599437
0.0033320172375228357
-0.002607047757278558
0.002230796296046515
0.0022642148769024136
-0.004162697879467906
-0.002276353677751348
-0.0003194046592586099
-0.002701824844717623
0.004030749383519983
-0.004001234906826649
0.002055237049137276
0.0029305079022140246
0.0030794707794901577
-0.002215299765532233
-0.0015781918801085746
-0.0015648617004521484
-0.0010789933364253022
-0.0008814549461033174
0.001153011873544963
-0.0026782953148776355
0.00199621864793128
0.002532122943647912
-0.002470669037960389
0.001835542259813868
0.00236772293075416
-0.0015469441207837196
-0.004063964774276129
-0.0034441086361285396
0.0006833657135831395
0.003974613499113996
0.003878524110004115
0.0004705264869563411
0.003938794717134547
-0.0018145574660900954
-0.0030006099620824866
0.0032379252706658227
0.003960151492291201
-0.0032745339921327176
-0.0016442970951358186
0.003340483460406932
-0.00045543358972238875
-0.00048577195336045804
-0.0009150583375801945
-0.0008190198553436785
-0.0008331176597149852
-0.0014968038613235779
0.0036886908383567353
-0.003957893215747979
-0.003727109782595509
0.0024853195333239962
-0.0012450249009040046
0.0020831500388429898
0.0037594381651789477
0.002785478215430187
0.00026515275829087573
-0.0008298273485417781
0.003492741321714501
0.0036517419116514297
0.002771173331185012
-0.0028524898785053606
0.002912908200500067
0.00025372642386707665
-0.0033151895547308074
0.0016501909878733924
0.0007695846844315713
0.002763789273399408
0.001171276014336111
0.002498374218569106
0.0035006990703142825
-0.0033937996454922086
0.002179797384932714
0.00284484034753824
-0.0024092508267545957
-0.0012152477185326316
0.0012154085207933987
0.001106028308659217
0.0017501434231139241
-0.0030002576939937666
0.00047521333297284856
-0.0009329607390797996
0.003569495734143271
0.0010549912350342318
0.0012882472176693302
-0.0031029408286367697
-0.00047793679799875354
-0.0004702036187277782
0.0010757142309915184
0.0029092255078280774
0.0016072457951998608
0.0016157616063427133
0.0023060875419140493
0.002777686873470919
0.0009754620682147025
-0.0010279494342827654
0.0016411816568085652
-0.000789679514997903
-0.004057535992292482
-0.00215568244385848
-8.333424730402985e-05
-0.0037749190274506913
-0.00219542717210181
0.002943782932288373
-0.003171604056257813
0.0026438862746807307
-0.002639046308248677
-0.0022981804638688556
0.0012192980335658746
0.0012878741173314365
-0.0006366388532995136
-0.0027406824083647994
0.00349109778262833
-0.0016121592448369443
-0.0001448991199814484
0.002414455405928172
-0.0009117715522137498
-0.0027976205892868006
0.0041437965676474255
0.003659352864173102
0.001646655713221858
-0.000656483292014802
0.003787433143417604
0.0035225586625543402
0.0012018770179927272
0.004161989457369229
0.0009279375422001798
0.0016212933434461532
0.0009998571391883289
0.001148121671706071
-0.002624070792388482
-0.004037693663421425
0.0008076464006483733
0.0013089534475866993
-0.0011119569208141848
-0.002044958382661267
0.0014135785189012182
-0.001591198127906437
-0.00010739777743248287
0.00021874959105387177
-0.0011674414706937973
-0.0009276613707014166
-0.0010667006716431405
-0.0007300644614847584
0.0008223762613052285
-0.003825998228385251
0.0015969719681983342
-0.004122854740323973
-0.00368379007822466
-0.0006058570145435679
-0.002036983405197544
-0.0019431708009192523
0.000847439517934492
0.0035507615652104452
0.0005204971761419298
-0.0012979343647577138
0.0034309907450573583
-0.0023802266651971648
0.003199512508634345
0.0029891976205824694
-0.00010583649847270611
-0.001661994732625114
0.0004839951491944203
-0.001732131887265553
-0.00042662532718991235
0.0031788326249558405
-0.0034367054826432556
-0.0008922225990464864
-0.0007975161051989154
-0.004096896205626748
-0.0030534988935043447
-0.0019993281061220346
0.00018976209781276774
-0.00046683323845135875
-0.0021073376619307883
-0.0017732590228356012
0.001262759060491123
-0.001270791320041504
-0.0010359298318576805
-0.002725425240855285
-0.0031693048567472772
-0.002800603649480981
-0.0013418804400180389
0.0001410371146130669
0.001603973652944936
0.0012159416025489785
-0.0011857603768974942
0.0007548494527206744
0.001962809095544822
-0.00324149621253267
-0.0020278100493806533
0.0015007112378763398
-0.0031802241771572226
-0.0034675474878876986
0.002969591398051482
-0.0020886982085012574
-0.0011980672217366253
-0.0014537170297130694
-0.000499234259431842
0.0020136227736030888
0.0030260950669383645
0.00356021929767255
0.002904390217881656
-0.0007777181104528173
-0.0003658948868472889
-7.547379565966821e-05
-0.00029967261213206006
-0.0032695602758478445
-0.00249448240952573
-0.0011527387331003297
-0.002507196724790578
0.004102217350138639
-0.0005004493474830916
0.002681770461049122
-0.0002618003665384838
0.0035849087825718475
0.0020844919200014183
-0.0013235835931537379
0.0014130716246999345
-0.001592878237132338
0.002444270320529088
-0.00409365042825587
0.0038416741365631247
0.002690301875128954
0.003420519127304535
0.0030165068780356997
-0.0021645343206437126
0.00048043802097548575
-0.0012508558480574695
-0.002793472087138318
-0.0006509520321861411
0.0036521490799580857
0.0034872612426117625
0.003937821538362695
0.0029395333199301013
-0.0022398212667047663
0.000604373811055831
0.0010298069138008365
0.003349899605058537
-0.002149641008039198
0.0029396047868772636
0.003420005585568569
-0.003539559608928549
0.0032731405664926643
-0.0011422307249792146
0.003590194278237443
-0.00017304175876204798
0.0009017769774536471
0.0012474588944490568
0.0014709891267596915
0.00029880285778816843
-0.0005691111999998323
0.0017016050299531384
0.001955046428470497
0.0008677365226455734
0.0013599528866859929
-0.002107087746914175
0.0008323859214480967
-0.00027391277476066043
-0.003875751786676696
0.0011556639946545002
-0.00014283222720874158
0.0026598210466345228
-0.0038356703874595738
0.0015008959086637937
-0.004156510641252155
-0.0038143936586657883
0.0008113983566949213
0.0034781395115427768
-0.0009476669904276726
0.001646698545883067
0.001865061745786879
-0.002738089916807017
0.0016495438991076853
-0.003183542466115877
-0.0017604397793348759
0.0031207276970018124
0.0036339649339773607
0.002514365973798485
0.001523027992852625
-0.0011425948939818443
0.0006972201816557194
0.004154786305560244
0.0021409031507097043
-0.001827325614459273
-0.0018774524043491
-0.00271632537764538
0.0004016039745545504
0.0027851618047404153
-0.00269726892336264
-0.0011055669098212107
0.0029081380082970404
-0.0003342758030903506
0.0015542193175473924
-0.000816137492297598
0.004097393518178224
0.002218557186510788
0.0039693360091824
-0.0006800978681410694
0.004007629482366053
-0.002901475453383841
-0.004024428113028087
-0.0009473385984981562
0.0038024557543948306
-0.001132866274524233
-0.0038942848520271828
0.003729595285077575
-0.0008590413798569434
0.0004306518647881476
-0.002332609889718624
-0.002534669954347257
0.0007712811221566183
0.0037046111565529304
-0.0035033712315029274
-0.0025372052361299496
0.0008574250927688786
0.003186754862950161
-0.002011112934252856
-0.0019086956747984434
0.00014267051264382115
-0.0024914894308628952
-0.0025029411067802876
0.003120821897077111
0.003381001244147576
-0.0009719385241726865
-0.0006617564632366267
-0.0012776590650365736
-0.0009318519359891166
-0.0015251977496833883
-0.0018235887916609648
0.004095119761204636
-0.002393269598036195
-0.001941709700611687
0.0018902817611896904
-0.0038936670395867397
-0.0034025958838138524
-0.0016183834668777979
-0.0011551334422037311
0.0020320321027907768
0.003264397171716623
0.003163190772547352
0.0008500968389926273
-0.002028588459741963
-0.001111627341220434
-0.002282370947511848
-0.003068601739908484
0.0007891151747487209
0.003033451966126043
0.00268548151292256
0.0005007552534721538
-0.0006145714749622092
-0.004047517195454292
0.0004418278963785367
-0.0007752416320453057
-0.0033741701243231474
0.0025660527126066773
-0.00020858607653812973
0.003689267104881036
-0.0012473619278267605
0.002941089548709655
-0.003499531497842764
0.0017156406421179474
0.0017685916222773173
-0.0013725361566403016
-0.0013644209759169662
0.002813893088898834
-0.0002510436744758415
0.003670713037269129
-0.0038060745041251574
0.00047454316960729946
0.0015010140006712406
0.0025704487652386263
-3.482625961317288e-05
0.000439112297963206
-0.003806621723644066
0.0008242907576866569
-0.001943704686901892
-0.0030333678780033227
-0.00400163276339875
0.0024280044016891282
-0.0013118019358726036
0.002508504772827283
-0.0019630111377942744
0.003813334249340536
0.004076904475824204
0.0007745204504102468
-0.002992848528151157
-0.0032381868800179163
-0.0009074579700577424
0.0009113625098366858
0.0029743040205022775
0.0017344703349055956
-0.0005071498065193683
0.00011735883518210368
0.0008314611649036515
-0.003975305311328444
-0.002880735102991108
7.817349231769861e-05
0.0005694893631770351
0.003427288988222119
-0.0004279294221073166
0.0004504708900989128
0.0021691175823147775
0.0002162417881597043
0.0006908015958170643
-0.0028047511826742124
0.0013310936151601407
0.0034238939727829743
0.0007099391673304835
-0.0035480814035783147
-0.003558670198445515
0.0008840911495750286
-0.0005854345893663331
-0.0032385977830824645
-0.0012329675304795717
-0.003982737051784961
0.003396571810196748
0.00022237872037999537
0.0017784973798047085
0.003839861533845112
-0.003762454923442077
0.003416889881130584
-0.002017609871304248
-0.002258914569596287
-0.0012975117199725407
0.0027639127901649906
-0.00165251015794939
0.002764249234424028
0.0038471744674160187
0.003918143464527831
0.002069007220187814
-0.003375534290352733
0.0015314572244013456
0.00022690134298989018
-0.0025166678402207708
-0.002080756218355851
0.0037802979603406674
-0.0003405062459732357
-0.001866683407928672
-0.0012533718180470308
0.0010523009456548467
0.0031546296628913004
0.0027841711737203985
-0.0012926304502791706
0.0010952918617555694
0.0035585851512549187
0.0015457123841186996
0.0025917258432227573
-0.001293534663485775
-0.0006703559135815561
-0.0011876155901253522
-0.0030922907755235726
-0.0026786964202592163
-0.004005993723903941
-0.001211292817651731
0.003534858323671968
0.0008382831635603439
-0.0025929806829873676
0.002548948690587758
0.00037402722347712296
-0.002932768016170139
0.004143531453327692
0.001233741678627385
0.0018816597168552986
-0.0006325020792258221
-0.003408813076148089
0.0034871860389128623
0.0011215193609765057
0.0021604910868160032
-0.002390808267256798
-0.003592395629645424
-0.0032411958966862297
-0.00047852060467586056
0.0014428924361081026
0.001363106726847279
-0.001074679820448241
0.0005883094401051399
-0.002723724959876803
0.0009529439106322878
-0.001690471840099101
-0.001835855939667542
0.0030912428012019495
-0.0008632284714092387
-0.002026425350564277
0.0014865052600966289
0.0039037225017699686
0.0013198926374561964
0.00010242855147777656
0.001475459544577201
-0.0020988685830402435
-0.004131567076272031
-0.0018355570481564736
0.003274271158359666
-2.9365355019503407e-05
0.002495901770291921
0.0035812121127505
-0.0029465512510118684
0.00047104283243811146
0.0034973391254134417
0.0015611354745674768
7.622126543815087e-05
-0.0017972819852337478
0.00032221116611646865
-0.0036906386253146095
0.002387013482707934
-0.00046202708844971636
-0.000749034226020335
-0.0029364995000738274
0.0017200199632077947
0.0007383826812230941
0.0006586154223983033
0.002439970797471819
0.00035400507159285145
-0.0016236354450312712
-0.0029255499038906125
-0.003695819390660802
0.00026694824350986145
-0.0011976714125537028
-0.002815324481900961
0.001859983891677679
-0.0005676128121023577
-0.0028065218254965563
-0.0032953054570209073
0.0011033622142145921
-0.0036433949556619227
-0.0002284150662096216
0.002210613094953958
0.0008428970951276481
-0.0008156518445789571
-0.0020823806343509277
0.0025853948958999857
-0.0021322822484920786
-0.0024045901203679286
0.0039475247057701454
-0.0032359954682508
0.0034569566578083024
-0.001294203243797604
0.0002580940158548132
0.0007742001806762638
-0.002233876970173536
0.0037663987551419796
-0.0011357506152902966
9.165085162577986e-05
0.002914841744086204
0.0011870064148793418
0.0022822785482080683
-0.0010421655456770496
0.003189447391948104
0.004053464884009562
0.002962395357456292
0.0017920062494002995
-0.0007195743536980654
0.0029786160843996265
0.0018989517994143408
-0.00225421233299429
0.0025907406811238594
0.0018262742576407437
0.0016026377691375736
-0.002477831097369587
0.0004516932040318327
-0.0010816339964134477
-0.0004262275913581043
-0.0033280653893143783
0.0005579792453948263
-0.001319709189720239
-0.0023420378512609328
-0.001941487226464689
-0.00032525529688429855
-0.0025158835284468687
-0.0016850651016037611
-0.0033570453135207193
0.0007939019808086209
0.0021431838778626926
0.0008706084877592979
-0.0017075964182354348
-0.0022198226792115704
-0.0005332124307680468
-0.0013200371061779965
-0.0023943181645121954
-0.003465394891499712
-0.0011345168743535125
0.0038011791310625202
-0.0015125324445354501
0.0008549208466860762
0.0004693227165048677
-0.003437978662844827
0.0007863231466374704
0.0009301763888295301
-0.0009152861219409735
0.00200495987479941
0.00125627970933452
0.0025105392406514666
-0.0005033323415975562
0.0025089637329893575
0.0005853548339304275
-0.0028140276506035795
0.002179052363666721
0.003951726269305332
-0.002885968535997299
-0.0007149664868524285
0.0005887212511738739
0.0005308550964054045
-0.001711635734957765
-0.000885470478540294
3.105610567078983e-05
-0.0023070116722504765
-0.0025212600679042378
-0.0009317341284281903
-0.001265633127118972
0.004100693774867875
-0.00276805751813738
2.221546022069416e-05
0.003642434389126066
-0.0018769796678766953
-0.0039002149385912502
0.002610977852433996
0.0038218390261310037
0.0029518924933018462
-0.003754506655783912
-8.461454939359857e-05
0.003141217313110551
1.3282003504190716e-05
0.0003947140139837759
-0.0004528195425163048
-0.002410581751393446
0.001799670558626042
0.00367987895957949
0.0036555813449257644
-0.001415236844251113
-0.003317416842165525
-0.0038431035111240975
0.0019026611831846456
-0.0035763406552770105
0.0038991708136742733
-0.0016003306857513763
0.0018739910126724312
-0.003722567469488
-0.001968711478569032
0.0036111554683505892
-0.0032907561172971474
-0.001607208832767637
0.0006000616739985266
-0.002532201625325133
-0.0032494203829554337
0.0011566283355426842
0.0037457608713875935
-0.0024061980402145925
-0.002001393231912983
0.0005973578357976526
0.0004944059300208588
0.002254803582396266
0.002207821939592371
0.0006511545930283488
0.001221032743892907
0.003677634651202609
-0.002197805730528146
0.0005606725657605013
0.001986465543786473
-0.0039061736948187366
-0.001241459326316248
0.0004391400297970296
-0.0038401495081925893
0.003923327600606104
-0.003808253491788652
-0.0025676040356468707
0.0032979267342158557
0.004126152185666545
0.001269627744940959
-0.0028700586647897887
-0.0003419423337500813
-0.0007222784541678145
-0.0011872019601605513
0.0012703617242918299
-0.0032345974807495353
-0.003208311234820708
-0.0038559909387273013
-0.0023378920116775316
0.0011524892534935565
0.003947351813500059
0.0035346944700502935
-0.00277729794567234
-0.0017741470443977969
-0.0019786048948242747
0.0036608859333410286
-0.003891254499051303
-0.0011330425659623626
-0.0038165709844679555
-0.0016739674261283537
-0.000971521373805957
-0.0006732525019755695
0.0030302969786533116
0.0036487822337963887
0.0024652204051195466
0.003628355305900244
-0.00036725050303468905
0.0028712342766693943
-0.0004865453495522313
0.002672287025298285
-0.002110042926440938
0.003394618388018842
-0.003393267411714137
0.0012550794512315106
-0.0011786555520592488
-0.0026834314522719677
0.0013811288673881096
-0.003061992958604891
0.0017176618133477922
0.0010318715331990073
-0.004109600658954215
-0.0012787696513016456
-0.0013285773447403323
-0.002840835849267429
-0.002786648362346614
-0.0010110184164928379
-0.0009289173135176835
0.0022468090539201667
-0.003786803225741118
-0.000652111862865366
-0.003094623096636239
0.0037448844228074253
-0.001843544250901228
0.0009604413239644825
-0.0023836501617607916
-0.002718384626767124
-0.0015720638169075744
-0.003939663144549223
0.0004625117384501805
-0.0031312491871399576
-0.00023472523842839403
0.003808099775420371
-0.0006467797875973174
-0.003366993343896533
0.0010258365427724511
0.002015420542668002
-0.0005563792519783401
0.002715420525840158
-0.0036369175059872126
-0.0002047989523506362
-0.0027872390119037973
0.0004468165632877064
0.0012729938368094536
-0.003687406247874659
-0.0008559490609162668
0.003540987128045793
0.003766741269175836
0.001952540170177242
0.00015162436067423792
-0.0016292205406760578
-0.002771989997814982
0.003983292541782065
0.001851941720446616
-0.0038048870562885882
-0.0019168497705624647
-4.2768084875465564e-05
0.0038190868648353567
0.0009048143297866098
0.001979103318082669
-0.003303174813777226
-7.891974158037497e-05
-0.0014514955735746159
0.0012321681493269682
0.0012310169863526232
0.0008656151571962676
-0.0017256941889779015
-0.0026347115065505295
-0.0035544369993453055
-0.004057691611822272
-0.001625965363884424
-0.0022269235706217512
-0.001611133726513995
0.001569128496796238
0.0035492642903013415
-0.00014736862182423386
-0.0016158678101390708
0.0005404288332810631
0.002490834162332804
-0.0034078243102305815
0.00017596093493743616
-0.0003908657328104524
-0.0012165703407366775
0.002639752666158903
0.0006953899030233538
-0.0016931857465398385
-0.0017201851614394301
0.001105002724827954
-0.0003395153255911127
-0.003692456198101241
0.0009094658958946643
0.0028135803258633593
-0.003190459998641084
0.0016627911420677005
-0.0026654191684052624
0.00235656242236126
-0.002032985279208644
-0.004128188569457407
0.0007823664906430942
-0.000797443074662792
0.0002738619431858159
0.0025678914772185534
0.002192967959720922
0.003842599793561398
0.0013904703225654962
0.003977419064819185
-0.0011207305770807546
-0.0033036967145819015
0.0002642799928400063
-0.0027441045327463182
-0.002947658652115256
-0.0024426918264108624
0.001996748216215362
0.0030568840353694796
-0.0003115149011149841
0.0015560462552209476
-0.003354483238276586
0.0030759324263853194
-0.0015240940823380259
-0.003957829734990259
0.00014941745710600734
-0.003368952611788978
-0.0013619668733609702
-0.0025378167538242418
-0.003591029584407272
0.00021339720004677693
0.003729176601567422
-0.0024115341099613346
0.0036103953071421183
-0.00028694362892128653
-0.002729978853824733
0.0010847713123439688
0.0008986099308671932
0.0016649269820001255
-0.0012694368992674423
-0.003022478154270803
-0.0026440744573541014
0.0008212668874070819
0.0033154118542409895
0.0027910405328183826
-0.0009729851412486965
0.0025933141228178104
0.002345334311950817
-0.0023480204448058767
-0.0039695311609102175
0.0008518610497125327
-0.0040552321207684506
-0.002739277830126118
0.0031582433651345873
0.002576489289896772
-0.0005653112563809294
-0.0012890015941642385
0.0019699090413720236
-0.0021381898993242717
0.001854059540567829
0.0025415538510930044
0.0005059975590281298
-0.003312519512595506
0.0031351325016566755
-0.0016990214334443995
0.0006120806873495767
0.0012074405597286072
-0.0019777114711219414
0.002053429822511166
0.0036828628661323692
0.001043588528541593
-0.0029217755768319482
0.0030592247017938467
-0.0011726606933721811
0.001597730940298797
0.00021224458255384568
0.0035244951609393893
-0.0008741975349427683
0.0011707012698758382
-0.0036565242612331536
0.002291713832322121
-0.0029318112164873926
-0.0017322123215775037
-0.003005720183152742
0.0013273056665283444
0.00190728957923778
0.0018113208124762971
0.0024581004498419397
-0.0028281863440199335
0.0022142760021294193
-0.0015609511209554775
-0.002042127868814017
0.0029645288480777696
0.0001921475561995511
0.0014739652851018226
-0.003318318244911388
0.0033264482316725063
-2.0157120652859154e-05
-0.0013838944384463032
-0.0022596161905293777
0.0011602140867033616
0.0013942242043655639
-0.0020349492417489866
-0.00032154521480577024
-0.0015719398951411481
-0.0005839374111520628
-0.0020391605339443787
-0.0019950472647424747
-0.0006792641416850042
0.003572371698090641
0.0018535456821564408
0.0007644710813608685
0.000303981134264146
-0.0012292670110161084
0.0011688863622064682
-0.0006740163726556307
-0.004071982257586556
0.0031224346644951016
0.0023808484017495933
0.0036369663702422884
-0.0039606054698669135
0.002083228893264448
-0.003288464994494051
0.00041218485435185484
-0.0014407996081295198
0.0011959533150074709
-0.003674689541145772
-0.0016820070164451863
-0.002249751512013338
-0.00016682396121988738
-0.0038729654732696035
0.003314869804104059
-0.0016634108020620066
0.0020002504324791045
0.0037032780329185546
0.0012510445242730464
0.002661750066875435
0.002674484613258356
-0.00242275338315162
0.002825774412191115
-0.0010966708983378081
-0.004127099032303284
-0.002711295622096573
-0.0025220723813317884
0.0003783297340408946
-0.00038790287830246627
-0.0015538249003492141
-0.003723911500074688
-0.001389621106873199
-0.00276166786938434
-0.0002727759604794999
3.934858801183644e-05
-0.0005731972718811053
-0.00015559511457170622
0.00343066973982414
0.0029817397821466363
-0.0018683129411959743
-0.003493722584091801
-1.878694183242076e-05
0.004100396915900742
0.0015936304236128438
-0.0004933237556485209
-0.0006180880990795419
-0.0031605920837472217
-0.000501691573473431
0.00016015518395655988
-0.0027283736703816856
0.002691849789492931
-0.001081634637157137
-0.00013820988906339794
0.002618850659555294
-0.0011899169280918326
0.002612714927198295
0.0024120641370494285
0.002817760266396079
0.0015201506928425766
-0.002159071263024073
-0.0038846660322546483
-0.003524648852690627
-0.002421651012112761
-0.0009346386484285618
-0.0005861759535111469
-0.002061326371582343
0.002419225407797352
-0.001120532202294148
0.00033765800835079267
-0.003816550644972144
0.0006637760125591172
0.002378154953511112
0.0010021627758900736
0.001550808149176934
0.0028273833737521886
0.003353909575876232
0.004005257108726346
-0.001693920070871229
-0.0003837061584039033
-0.0035436520036438313
0.003189069012929746
-0.0030074426886389036
0.0032983046427097593
-0.0035062123772416852
-0.0026671996478195895
-0.004134705834113125
0.0017125373445252817
-0.002894392112942537
0.001921502032930207
0.0009403550321752838
0.003545932399113746
-0.000768323552294799
-0.004034213060581116
0.002465562211875027
0.003635657809161355
0.003183369974714376
0.0012439723946636762
0.002984092697805132
0.0010289367632570182
-0.003179625273517793
0.00317309815443542
0.0023143710482618133
-0.001729552706165643
-0.0033315356361133582
0.0004374662294146575
0.0026890939041612923
-0.00323914739115919
-0.0003566201219613029
0.00039159697528998405
-0.00020463207527401478
0.0034126282745119032
0.003904068240554916
0.003683894419541701
-0.002073697108151521
0.0033423939915243213
-0.00199345182482852
0.003723104478600502
-0.0039921263012695
-0.0015114929604851009
0.0036376701463131465
-0.0017243591863672371
0.0030071637576699266
0.003487116256568346
0.0015302311480782321
0.003221646920777181
-0.002641427006666315
0.0023119024610377403
-0.0007168272795029924
0.003003848654651822
-0.0012179201822861906
-0.0007231094217878643
0.0034431933248679184
0.003009839004170257
-0.003218081254326839
0.0031066719438138995
-7.014632342768587e-05
0.0013819188470173783
-0.0015412848777493309
-0.0012076115565819584
-0.0004623782131898905
0.007008650631783972
0.0017597102063474385
0.0016637853189706991
-0.0015309848075022987
0.0035512220332292012
0.0018595856139412966
0.0045613472795856215
0.003003029255520543
-0.004814491100002326
-0.0017539411848436993
0.0013591095979776236
0.003481031541320116
0.008021645151321595
0.0014592723269741146
0.0002219818646968121
-0.009374035751434617
-0.002500842009898049
0.001102127505002397
0.0021092057136767512
-0.001461285659602478
-0.0024855878345477413
-0.002141434625556051
-0.0019437915299006592
-0.0025474079897999857
0.002843376699078536
-0.003056389736539516
-0.00231806694884832
-0.0021047378684835136
0.00019587536158407803
-0.003100272654564645
0.003605030947385797
0.0025633117215992057
0.0031513633258953224
0.001451279118507116
0.0014756660985830853
0.0011570322883444884
0.0033115907750355506
0.007353384952587649
-0.001957038127466775
-0.0017209080583400298
-0.00022744832962326919
-0.0010885905379064917
-0.00293916785742927
-0.0012541419150795695
-0.003024977674622296
0.003318780596857444
0.0014939329564029468
-0.003728878984309343
-0.001052398178331177
-0.0026764417118320147
0.0038069921648225657
-0.002503909384949679
-0.0036969098064294575
-0.0006394445488932538
-0.0029656762801446314
0.0015837729941980728
0.002894810078978551
0.002433111589144193
0.0026800649516005902
-0.0027811449152396243
0.0008960497617985238
0.003477828595609238
-0.0025637111526484
-0.003557996695933519
-0.0027727527956379235
0.0020251256933308424
-0.001104410863805278
0.002550272232071061
-0.0032312125404921005
-0.0006656444797827301
0.0031689998937770875
-0.00017929259985793042
0.0023662950807402123
0.0006387248776661043
3.545648405724264e-06
0.00028972745738081127
0.0013710634931531753
0.0030505974665196414
-0.0007238896071354736
-0.0028566443595065107
-0.00015451445852728644
0.0001901589451295848
0.0023219037849629065
-0.002517850439005759
-0.005037361963073804
0.0016187144547064613
-0.0016491511694096028
4.235427292309815e-05
0.003358445542248951
0.0021385291560016605
0.0028200367752758537
-0.0008703594116614196
0.0025684182138655614
-0.002608787231073429
0.0014246553333604308
0.001603622485816711
0.0038393285891367953
0.0023640210572997357
-0.0006536027634372248
0.00012103119620759127
0.008154864544521054
0.0021947962239661587
-0.0010272982745058838
-0.0043898612059159
0.003771525586632188
0.0010623281407765677
-0.0017561432340096835
0.0009982755247846867
0.0005118929368837694
0.0011510625180175132
0.003684504548401646
-0.0006017101693890911
0.011695736844225552
-0.0014668208125427806
-0.0012006414034650863
-0.011068755772883144
-0.0027188118261828446
0.006809397936768032
-0.00036843793262993275
0.0007640220606034522
-0.0006843475253037278
0.0007669267498667253
-0.002166125949540254
-0.0022023397488444437
0.003059323754933227
0.0037756590374576925
0.0006214463538212105
-0.0017597602246248545
-0.0035947599524997825
-0.00397345863479979
-0.002267632037958568
-0.0006883210267025175
0.0022890319220682637
-0.0038786340052946694
0.000563832952005999
-0.0011608436692134524
0.0025184089141914606
0.00973669797128519
-0.001657196515608215
0.0011131014928596713
-0.0007825087445240249
0.00024077668622428104
-0.0017290623027646683
0.004033010795080464
0.00041411379183559316
0.00014940759096356533
0.0023878130069225996
-0.001495967364037237
-0.00048106184034213113
0.004148520549386259
0.006075338922304545
-0.0038412082280000186
0.003684899299180753
-0.0038214601430126517
6.777289902904162e-05
0.0007024353617549672
0.002372587847312703
0.00024361776757456552
-0.0006184454478813577
0.0005864047029476001
-0.0029157629186836007
0.0034487591854514264
0.0021520670917150116
-0.007496796104306973
0.003357822400290984
-0.0009085080046006648
-0.0025129666546809936
0.0007012082939954597
0.00195799267690468
-0.003984391569005212
-0.0029886841250071584
-0.009170982481333047
-0.0009095673372834064
-0.004866839820740818
-0.004262006687856996
-0.006792454678372199
0.001185797319667679
0.010460747666051026
-0.0017651411310853687
-0.000848389782982446
-0.003826954417070897
0.0026767404315591716
0.002837853250885205
0.001735886336174412
-0.0007797819097432016
-0.002103700999389269
-0.001682706634808981
-0.0013236842936917383
-0.00026340472198281697
-0.0008496905821302707
-0.0015298702453953664
-0.0016699368861286378
-0.0032766860317174694
-0.0032470028486987867
-0.0022723904589591697
-0.001073082284463967
-0.00128133789387409
0.0016212597974758418
0.0014515792481817672
-0.0020192206633001778
0.007018663630765438
0.0024568193277916643
0.0006055957335305639
-0.004957832497656761
0.0018923042599505813
-0.0022822626544461
0.0056475496311155695
0.0005758761244781369
-0.0016890995832405293
-0.004080130487854658
0.002934349528776939
0.0029758372495510264
0.014952122917472804
0.0009312868609966596
0.0017998713388064813
-0.0011324292149856852
0.0035041107514723535
0.00750610866748771
0.002631642466329949
-0.00362658095189723
0.0033993447577178233
0.002771818259479091
0.003366929774902007
0.003423915888013889
-0.0013272043209252213
0.00018045316088964583
-0.0034598557188317467
9.85998591887745e-05
-0.002169788957755971
0.003667046451910096
0.0035929040012444005
0.004199916040965456
0.0006691036002036541
-0.003451978071359589
0.0020741897304133654
-0.004661571008562679
0.003278066467748195
0.0058831966951407985
-0.001878220902753997
0.001154945123251534
0.00027441275763271034
0.0016541439073680644
0.00325313036266574
-0.0041047537486195275
0.00388541503904146
-0.0027562351051422943
0.00037167594364585636
-0.0009210456645184987
-0.0031930583522362306
-0.003919165843597786
0.00430806830158757
-0.004546876067548502
0.0017265422691781457
-0.002026573641783083
-0.0009619944802486669
-0.001528289511160295
-0.005161223428426945
0.00355602240409004
-0.000727317395166284
-0.0003152251309980472
-0.005340428299335062
-0.0012716823387358654
0.0007018877443059563
-0.005767541090764582
0.00021243187671884573
0.0015009083185638082
-0.0023872591176162497
-0.003227639406607643
0.002992846923779047
0.0061714450524130125
-0.00046912059510277756
-0.009367701640981926
0.002798056356373199
-0.004019240625789386
-0.005637489727380151
-0.0017059497189328848
-0.001623746736665124
0.009925366448219184
0.0030263766705094174
-0.0022030097634874396
0.0006920420385895334
0.004537946451381587
0.005314340718439379
0.0036633610944250988
-0.004760608890067927
0.0038721651388879536
-0.003962504701367403
0.0025759387822325364
0.0020180746899640598
-0.003670929682899495
-0.0034299339915009135
0.00251287143849527
-0.001794857248104732
-0.0026457452390109895
0.001266167338427656
0.0025325884266645506
-0.00237820264794045
-0.00012149320054581572
0.002707036044869652
0.0005258491126702629
0.0066563273894110955
0.004044549631980524
0.0015272930121713773
-0.004530005782401117
-0.0016637991678074527
-0.003472559593462974
0.0016055809556452044
0.003456879107158088
-0.0027771634958945815
-0.0017868024185523142
-0.0028917078126021946
-0.004646147853093282
0.010040656211135797
-0.0011469956013291176
-0.0018112122915604797
-0.0026917238921056997
0.0026607077603166412
0.007880421736894691
-0.0034276740691693065
-0.0022039138341114514
-0.0013588446245923578
-0.0023774331564684155
-0.0004059927021813863
9.781243218721679e-05
0.0001255711039910949
0.00248709490536165
0.0016501023825674778
-5.530796379490913e-05
0.0016767721777589694
0.0035461015074702306
-0.001797911494823797
-0.000761745995074917
0.0027915649202102768
0.0002041080345854866
0.002094871315435239
0.0029851827503508586
0.005980108047388601
0.00197477218313475
0.002532970716337287
-0.0022858454304126633
0.0002209674383957227
0.002674711375573263
-0.0029772629962426097
-0.0010353774783451709
0.00600165335162933
0.0008873020862410308
-0.0019021759959013153
0.001033067242092727
-0.0008820535166359959
0.003110741980069134
0.005679295177660591
-7.842106363494901e-05
0.0026285005041185193
-0.0023303754019514673
0.0036424473490690476
0.0012899994680142276
-0.006067316568030718
0.002405144234254331
0.0023018526525964427
-0.005208325363657754
0.0008029086833300715
-0.0035743984946481826
-0.00033927674023906835
-0.003677744355881417
-0.005962434331289886
-0.0012912993274013854
-0.0032396135744718704
-0.002871114350796982
0.003335108868049403
0.0033200779646614252
-0.0020961875492332424
-0.008434002546157176
-0.0033136086168855496
-0.0011852610147500967
-0.006877214322958109
-0.0006401227598442712
-0.0031910715737547366
0.0009386470837791465
0.0028142135253631144
0.0038642897074901788
-0.0016954608075228834
0.0035716796159002482
0.0050542262846322225
-0.003926760269266199
-0.0007555127908601008
0.001054024906950167
0.0019958657296824237
-0.000915402439190829
0.003467049550201563
-0.00015518252246982768
-0.004025038997825022
0.0068393292774156025
0.0005424611441629698
-0.0014700137703986024
0.0025365890492120968
0.0008704915069052251
0.0026427894774167238
0.002250503618698965
0.001499757158627944
-0.0020643930294603928
0.010817727270183763
0.0036114642285266308
0.003043337714522013
-0.007370716415381311
0.0006792028493592446
0.000985793175294323
0.0027798692869036145
-0.0004133650389746865
-0.00823097183727938
-0.0026239879961921044
0.0011473486702770752
-0.0033097658456237933
0.011244879502720274
-0.00011792332978260372
0.004263692386305592
-0.012629160209519694
0.001604745914234425
0.007999775775123065
0.0032889635749909743
0.0018732427547026552
-0.002171066537462078
-0.0010098572149488702
0.0037571601205761665
-0.004153960634833341
0.005791313063729218
0.0035514027955018215
0.001570614085679031
-0.004374535187711963
0.0018035920393400405
0.002099126132334192
0.001524029854437774
-0.0006707607262850721
-0.0005482625241305972
0.003641933987641159
-0.00342998974307263
0.004209681647511975
0.008633086240833178
0.0068524966540675
0.0013527673263827827
-0.005568120547599118
2.464854133667289e-05
0.007684764951648352
-0.0028146592550342933
-0.0005442308882782506
0.002762469735267635
0.004873745284071006
0.00023950503305146683
0.0033224534308013997
-0.0037711667645777326
-0.0007075023920116055
0.006288518874099029
-0.0019097244303648646
-0.0006691266990398296
-0.0033850729129766693
-0.0018749459094860215
0.0027435215845635027
8.68496097326971e-05
0.0007319822616871853
-0.0031355476975269228
-1.564087084021894e-05
-0.002450843172750588
0.0022707462961367416
0.0010083031636036956
-0.007118872822467968
-0.004111685199088172
-0.003617498053088468
0.0007899924182937662
-0.0028786204034555963
-0.002049373222467793
0.008408895950022843
-0.0031464905791110296
-0.01287882979412542
-0.001475860502267539
0.00028010611872281095
-0.004831620208294366
-0.0036999817900613056
-0.000951607447859151
0.007093822341519074
-0.0041532965352907465
0.0005186400801731937
-0.0036717317628497297
0.000463391649861975
0.010229706231983049
-0.0007235972145099477
-0.003831013481168902
0.0048363561015865595
0.0014655791286630057
-0.002562090470364895
0.0015204358536771308
-0.0023741021693068636
-0.004723033487604885
0.0034235540014820884
-0.001911931834207221
-0.01362404447463374
0.0039447124583878775
0.0020650770533656546
0.0028290420106890793
0.011903079086446345
0.002950551796842886
-0.00032730117141184766
0.014271358311230942
0.0021682368851743566
-0.0009935918011539013
-0.00641622408374951
-0.001801441282460553
0.0019637922765727623
0.001860415232661887
-0.0031348465288924855
-0.010373251732354146
-0.010892165228423026
0.0016345988539971533
-0.001865112535385963
0.016749215858166164
0.000678900324479006
-0.0011811366345621985
-0.013310677238243022
-0.0006284477224445185
0.007711090175445417
0.000247442844980541
0.004714914380146601
0.0020601424600388664
-0.003052615761096533
0.001465411197337817
-0.0013133122981061165
0.003938019816188954
0.0016899210157147587
-0.0015878887933689996
-0.0031433774140419654
-0.0011209992254003467
0.00033546879813077654
0.0011180654014341267
0.0014751541288371716
0.005159257772227633
0.0020764792167841783
0.0030892675098117815
0.006766505608147138
0.008243997794688712
0.008974341741832691
-0.0021196654251908528
-0.0032162420459832257
0.004026858976606132
0.009905503145867346
0.0011125848222450926
-0.0020441505543968078
0.007480885453414488
-0.0007165533314832206
-0.005140638407769356
-0.0031628913424756972
-0.003370048400729076
-0.0035228595662168062
0.004957196322938476
-0.015832002241869786
-0.0016029555355601083
0.0009027394098302108
-8.610891874904575e-05
0.002025918483720104
-0.00040375610683193036
-0.0035651534505123333
0.00264790929730502
-0.0008636210007129772
-0.00896193497448174
-0.002973603006113082
-0.0015537212350651077
-0.014970853889886483
0.0009164475183804384
0.0016976187882928471
-0.004611826276814452
-0.003553706215712969
-0.003018175030243854
0.002720821690213951
-0.006195820556839552
-0.015142549328663914
0.0008375389952318207
-0.008580057883787885
-0.0008196509289881054
-0.001586283269758286
0.0014413758198896225
0.005794986896309417
0.0008527951680789985
-0.00023891540406291008
-0.0004811251351295059
0.002616004752168672
0.01754308333661354
0.0015278654303921616
-0.002766341738712704
0.0038745975397928424
-0.0027727530908241184
-0.0025824742027218536
-0.0023089346649528596
0.0027448587011450628
-0.005330987946728023
0.0019418530130140069
0.0027646045197262264
-0.011004313133945978
0.0009446602847464101
-0.004148880719920353
-0.0007622424312986979
0.011615935605547818
0.003880144274192812
-0.007742945130471214
0.011613430662335602
-0.0032374738645548034
-0.0011567176764608507
-0.005698433646918148
0.004110687236678578
0.002211687238664025
0.005505844667078737
-0.002260229743024662
-0.005338240936122311
-0.008915147544860596
-0.0015589574385302565
-0.004913736939071639
0.022658754989622457
-0.0010609562135719794
0.00011405736200937865
-0.01929064102676787
0.003709971812536729
0.0033792746896447
-0.003054812165893325
-0.00017020015124582185
0.00464803732855898
-0.0008982401374671185
0.0005977624754129292
-0.0012119696475285174
0.0013193738914369021
0.0027938918207841322
0.001094471030410367
-0.0025277616128549373
-0.00727683467393855
0.00743150861941462
-0.002095226419914309
0.004708390390626968
0.004503481046020896
-0.0040623209775040425
0.0004719533267303318
0.0033556508263024383
0.004743796206502903
0.012700980858164084
0.0014007752664628478
-0.005965387390912203
0.0019485852230652879
0.00951093179296791
0.0020402253840614867
0.002096086569317542
0.008432873588975447
0.003811142206868746
-0.0028463372562437233
0.0020846220794685953
-0.0023125642042204292
0.0015021657682561535
0.01423231034779062
-0.01163535587422753
0.0037437554662467353
-8.438229722892093e-05
0.0023678465274070233
-0.004921184247613146
-0.0019899218260016117
0.002875500501943487
-0.0013958070838063215
-0.001962756871209244
-0.012793388399101182
0.00433793152282549
5.733012956350908e-05
-0.01601167625773875
0.0031295978786706983
-0.0013043259081319128
-0.005748511702799834
0.00400876485145488
0.0012112179631303753
0.002773801390878258
-0.004038475357360269
-0.013397863840599307
0.0029376599464967287
-0.010373508883202837
-0.0013634353584208803
-0.004438603534885093
-0.0019333848774124765
0.009703422212389751
-0.0008970735282875914
0.002692484696591059
-0.0030540569827829612
-0.0005642549451529464
0.012423449126649782
0.0014528510177774336
-0.006683834118788803
0.00581562874313624
0.0012463816117875895
0.0013868904166605494
0.0007752143708635359
-0.0012558689129874689
-0.00828655722912431
0.0021073625576531617
0.0029426893192865456
-0.0067695147230847855
0.0010778530847886613
0.003970235506201393
0.001505606624478456
0.010036930985892919
0.002943424003309506
-0.005606774621121826
0.007959308227128974
0.0030608283952829516
0.0007701311865877517
-0.0030276461354463275
0.0023811461122603887
-0.0025755228843550083
-0.0006993261221048793
0.0008115432689783417
-0.0019081298542463364
0.002086443962847704
0.0026573831003827383
0.00014494336873826534
0.015072774955962877
0.0004953503792606449
-0.0023595195349839972
-0.013041175826199033
-0.000895453329525655
0.0039592307604685946
0.006319511316682566
-0.0003388903527567919
0.0021962844752934784
5.769306232295018e-05
0.001413567631841415
-0.0029635057586923515
0.00566564982425134
-0.0014620332715635828
-0.002616281571611279
0.0012130215627231603
-0.007130320049129991
0.002278530670410156
-0.002465629255978704
-0.003939191926219189
0.005804415067148181
-0.0013103277140519697
-0.0034884308505300095
0.00434248413162493
0.0045797177608799715
0.013663860870741748
0.002622808239250854
-0.0016951651093098687
0.003789146700521236
0.0022602382533115006
-0.0004606780808784963
0.0015442649766807012
0.0071396753412358875
0.0009731319875277585
-0.0034428036146735602
-0.002706099977000516
0.0004885259830885304
-0.0007747687822171624
0.010713043879281965
-0.007837131721581956
0.004212928374142957
0.001052227372440519
0.0008143189175126028
0.0007556480090826988
0.0028897791115677653
0.004400361099866808
9.172491812795928e-05
-0.0020451741465410483
-0.009741640066538161
0.003258112430573218
-7.413881690196927e-05
-0.0051019736661102565
-0.0029642685203853125
-0.002824867357166677
-0.004305519430401312
0.002577722907904737
-0.0005257950885685676
-0.003423300036060567
-0.00017014631722275523
-0.007191261231315708
0.00014750488062741188
-0.004975497181276482
-0.0043479824097651595
-0.002954665353330713
-0.0020941913285528625
0.010062781287211005
0.0035942821216071006
0.00019557440018637916
-0.0017869906023665009
0.003726112572100983
0.007418545501020546
0.002424846428694765
-0.005366558679056263
0.006742372663223561
0.0036272340478625737
0.0026588727419047547
0.003363896218918092
0.0033019408213708864
-0.004249111019223709
0.006417538624799396
-0.0021817912224572134
-0.011598181259861602
-0.0005685012879662293
0.0019496749149510433
0.0022730586100478947
0.008622858335704461
-0.002593779479288372
-0.005728171287447286
0.004855829906312538
0.0007440919780103887
-0.0012154309067289016
-0.0027393980936062175
-0.0008963094379703459
-0.001855399399241072
0.0037395888241748406
0.0006313177327864584
0.00282212114635011
0.0009959847605542677
-0.00037295476721450015
-0.0023703189447604467
0.005619766759613763
-0.003022369052446007
-0.0031246125391666746
0.004426124970686198
-0.003130188172210999
-0.00023382543180204435
0.0059329562792076965
-0.00459510054879209
-0.00042895982281219465
-0.001557175245352536
0.003561356954486105
-0.002478490554774118
0.0013783946024464799
0.0019320278114526215
0.000338611006102156
0.005315382531749335
0.0004027204534571795
-0.00241708135092127
0.002636320713563402
-0.007031552093291024
0.0003659512079193167
0.0035822056859076824
-0.0018164457547899765
-0.003623614929544749
-0.0019600093065668765
0.0026574159698951496
-0.0008698077909698402
-0.001124226591327819
0.004731919409848206
-0.00010520087234548966
0.0034667650713537967
-0.001420253149114183
-0.00020689173767305535
0.00559351494679448
-0.0012783139745668037
0.0007261085978760276
-0.004331398772403188
0.0053134450959482354
0.0011336073447501763
2.007741079678791e-05
0.0008459137633513261
0.006319715031505288
-0.008184832649662426
0.0005148989299575756
0.009254750936565146
0.0045279986582251845
-0.001889576740555788
-0.00551753675668465
0.0024521391952556076
0.001948733117385979
-0.0039062485138052043
-0.0033360281314683115
-0.0013769244901804204
0.00030624757549128483
0.003640901754585433
0.0006025552276294281
0.0029067269254600837
-0.008827354517802354
-0.0030220969091946915
-0.008783366717888675
0.003732647859866149
-9.078613615616162e-05
-0.004223249187597062
0.002160774594056894
0.0016208230571615188
0.0032872408635559527
-0.0016960923316141979
-0.006112963013067265
0.003105969492547674
0.00040852358655518533
0.012731231660721678
-0.0010999371668766564
0.0018487022096956138
-0.002134191107204471
-0.006031814332599972
-0.0011374070449641125
0.0019172975847787522
0.0009413676137025992
-0.0045256133586798995
0.003902964298545825
0.0037264129700861435
-0.008507466584760114
-0.0013950319057205885
-0.0005251573991116819
0.002537544863620042
0.011818762354879773
0.0016715751536235091
-0.00874510850246953
0.006389676212011737
-0.0008439769072785553
-0.0008708729769928648
-6.32346962780355e-05
0.001315071469653942
0.0008164487891064762
0.006118268647598753
0.003067748166062929
0.0006245189711812196
-0.005548818598163572
-0.003032015013987978
-0.003084637153784205
0.01416887501115776
-0.0026122382936482227
-0.0015115870899851738
-0.006910917043143887
-0.00456126036116847
-0.0018509815748540895
-0.002749012030679905
0.0007622869707665837
-0.0033112438792538505
-0.0032028466116620427
-0.0006261512963585169
0.0029458219069725994
-0.0011922171432375145
-0.007263470712414192
-0.0012966449447422304
-0.0012200356368357792
-0.005668693193472363
0.0011728761443792611
-0.00390325842747422
-0.003353524142249397
0.009926143031433925
0.0026475367652014563
-0.001413349628825649
-0.0037946932068672803
0.001790673513681604
0.008678307659523937
-0.005953655360749401
-0.0022452602430754905
0.004387270920935261
0.0021678273561169413
0.0009133323657888387
-0.0023420483379182205
-0.0023412722104768167
0.006233717328915681
0.0012603501288943242
0.0019013932508919536
-0.00027881478281323384
-5.1037886304847405e-05
0.003550546353854434
-0.004851092686541353
-0.00015676167121937254
0.008613305007233856
0.0003954097430564163
0.0024182112524934792
0.006956058463576513
0.003291462339822996
0.000609103325085547
-0.002138761764078317
-0.0037833757783702644
0.005594023335688595
-0.0001522435644931186
-0.007765813335911776
0.004379424204998967
0.003805046457598612
0.0002634530743284952
0.0038884345932859356
0.001500711077114766
-0.007227806997557252
-0.003690825752000456
-0.006474197818428697
0.004637624595959504
-0.002716455512920485
-0.0002269597191117131
-2.0051067763483032e-05
0.0019267169043090692
0.0061566060717129075
0.0007852800956413728
-0.0021934110704780263
-0.0047329861472831525
-0.003917682804164609
0.007877707039203478
0.004309178536457288
0.004073139569751926
-0.004052518054597535
-0.005339819769053721
0.0004248362935157472
0.002259242455142305
0.00032517670111648317
-0.003748231740064539
0.009216299931050576
-0.003100463584138486
-0.0026557492764677885
0.0008373547993078993
-0.0018635797154899398
0.005192826348850648
0.0014130174357001645
0.0032624978441418563
-0.005091435670567589
-0.00033286083213064177
-0.0023491239014440985
-0.0011087573387643611
-0.0051306740879593134
-0.0005882571285716438
-0.00038147132995336143
0.005575049614946948
-0.0017874060957902512
0.0020152223405989125
-0.004471239118092412
0.005841261504542178
-0.006138905286620503
0.0097003583801558
